{"conv1_w": [[[[0.0377337709069252, -0.23825378715991974, -0.1826835572719574, 0.08699111640453339, 0.03754161298274994, 0.1103377416729927, 0.11048667132854462, -0.13662680983543396, 0.17689785361289978, 0.10911542177200317, 0.14956672489643097, -0.35548415780067444, 0.016596581786870956, 0.024854062125086784, 0.19805610179901123, 0.19256047904491425, 0.1548372209072113, 0.09530890733003616, -0.0964629054069519, -0.06809127330780029, -0.14861822128295898, 0.05725151672959328, -0.08090314269065857, 0.10549206286668777, -0.0015904811443760991, -0.027497868984937668, -0.07167375832796097, -0.10881120711565018, 0.24467052519321442, -0.19332775473594666, -0.33500349521636963, -0.21924938261508942, -0.22222064435482025, -0.001417076215147972, 0.1578206717967987, 0.08434716612100601, 0.4453994333744049, -0.11107658594846725, 0.0016687068855389953, 0.12627378106117249, 0.26451826095581055, -0.11349468678236008, -0.034872207790613174, 0.30123230814933777, -0.11161229014396667, 0.5267963409423828, 0.044916246086359024, -0.0688222199678421, 0.007372384890913963, 0.010207858867943287, 0.3004680573940277, 0.03099188022315502, 0.11610778421163559, -0.07639515399932861, 0.2826840281486511, 0.07978039234876633, -0.051230594515800476, -0.2427455335855484, -0.15891554951667786, -0.15306638181209564, -0.35238105058670044, -0.017451828345656395, -0.1529293805360794, -0.13411004841327667], [0.03909247741103172, 0.16841422021389008, 0.15651871263980865, -0.037258777767419815, 0.09296519309282303, -0.03498078137636185, 0.09808646142482758, 0.22786471247673035, -0.13135801255702972, 0.404114693403244, -0.06597940623760223, 0.18089453876018524, -0.3574107587337494, -0.21939212083816528, -0.07060850411653519, -0.20319339632987976, -0.013825389556586742, 0.0038029656279832125, 0.24062182009220123, 0.14748719334602356, 0.10252447426319122, -0.06991507112979889, -0.33932065963745117, -0.18319088220596313, 0.057264067232608795, 0.06910817325115204, -0.08556845039129257, 0.00017708911036606878, -0.19120661914348602, -0.11685825139284134, 0.22051532566547394, 0.31255143880844116, 0.019520174711942673, -0.10020824521780014, -0.2827841341495514, 0.2560783922672272, -0.2695901095867157, -0.06183016300201416, 0.19383351504802704, 0.24920620024204254, 0.10842591524124146, 0.11806755512952805, 0.16776931285858154, 0.14195606112480164, 0.16817781329154968, 0.2327161729335785, -0.280271053314209, -0.2683824300765991, 0.023229176178574562, 0.1559421420097351, 0.007450559642165899, -0.028969118371605873, 0.36661970615386963, -0.003016062779352069, 0.023586159572005272, -0.17228060960769653, 0.23608075082302094, 0.03389229625463486, 0.21819883584976196, 0.14250333607196808, 0.05135204270482063, 0.1717185080051422, 0.06542906165122986, -0.08399873971939087], [-0.13638083636760712, -0.19122985005378723, 0.22654609382152557, 0.3185841739177704, 0.01001457404345274, -0.14811690151691437, -0.20604312419891357, -0.04735485836863518, -0.026401150971651077, 0.12170695513486862, -0.19004037976264954, 0.1009313091635704, -0.0544610433280468, -0.22366555035114288, -0.349854975938797, -0.011428562924265862, 0.14997528493404388, -0.09533657133579254, 0.18897318840026855, 0.1798652559518814, -0.2867254912853241, -0.21393834054470062, 0.08150278031826019, 0.16688261926174164, -0.11044569313526154, -0.2107255458831787, 0.058673061430454254, 0.06215924397110939, -0.053423911333084106, -0.055281590670347214, -0.06458806246519089, -0.02254844456911087, -0.1847735345363617, -0.04610332474112511, -0.06678765267133713, 0.12096168100833893, -0.11388756334781647, 0.34764328598976135, 0.259957492351532, 0.08351663500070572, 0.18819785118103027, 0.1914791464805603, 0.2704526484012604, -0.0332484245300293, 0.3940867483615875, 0.2420922815799713, 0.026301534846425056, 0.23024487495422363, 0.07122505456209183, -0.15004046261310577, -0.09797171503305435, 0.04896305501461029, 0.04887465387582779, 0.11331648379564285, -0.23437458276748657, -0.09593643248081207, -0.24871890246868134, 0.08893218636512756, -0.07378355413675308, -0.26244792342185974, -0.06721069663763046, 0.1560657024383545, 0.3494873642921448, -0.04637952893972397]], [[0.0972447544336319, 0.07276668399572372, 0.36845675110816956, 0.0015987986698746681, 0.10312973707914352, 0.1344352662563324, -0.22294044494628906, -0.03268648311495781, -0.2586592733860016, -0.02849160134792328, 0.09486658126115799, -0.0842461809515953, 0.076701819896698, 0.28566017746925354, 0.2918894290924072, 0.023029914125800133, 0.1298505663871765, 0.2896538972854614, -0.03458058834075928, -0.1851869821548462, 0.06570178270339966, -0.15002946555614471, 0.3301989436149597, -0.2697710394859314, 0.08874078094959259, 0.15340650081634521, 0.3322776257991791, 0.23997576534748077, 0.20678701996803284, 0.22176291048526764, -0.1298947036266327, 0.061043720692396164, 0.2112623006105423, -0.16116461157798767, 0.12312313914299011, -0.10815055668354034, 0.1612195521593094, -0.1565321683883667, -0.07123168557882309, 0.15316453576087952, 0.048432622104883194, 0.13586881756782532, -0.10751249641180038, -0.2892063558101654, -0.03549611568450928, 0.019844405353069305, -0.02776438742876053, 0.25984254479408264, -0.08131790906190872, 0.08559422194957733, -0.15833117067813873, 0.11862768232822418, -0.23681549727916718, -0.1383061558008194, -0.004851482342928648, 0.17720666527748108, 0.1117803156375885, -0.006768071558326483, 0.04318438842892647, 0.14545592665672302, -0.1331341713666916, 0.1874300241470337, -0.07425861805677414, 0.18952146172523499], [-7.346519851125777e-06, -0.008651412092149258, -0.10163558274507523, 0.4050644636154175, 0.09090423583984375, 0.021662123501300812, -0.18031883239746094, -0.0713338777422905, 0.22053879499435425, -0.10910870879888535, -0.025890035554766655, 0.043212730437517166, 0.2661181390285492, 0.4009495675563812, -0.07617536187171936, 0.0985107496380806, -0.21925243735313416, -0.2707059979438782, 0.11265881359577179, -0.3602212071418762, -0.15259580314159393, -0.10777208209037781, 0.22043509781360626, -0.12738856673240662, 0.25367653369903564, -0.04186013713479042, 0.00309685617685318, -0.015378504991531372, -0.10058698803186417, 0.20465944707393646, 0.2176523208618164, 0.1401284784078598, 0.12824778258800507, 0.32438379526138306, -0.18419869244098663, -0.09374867379665375, -0.30462533235549927, 0.13882242143154144, -0.06421024352312088, 0.11059507727622986, -0.28579333424568176, 0.0338231697678566, 0.03682459145784378, -0.27171245217323303, -0.020534759387373924, -0.3235912024974823, 0.08570070564746857, 0.12180599570274353, -0.12499511241912842, -0.06373661011457443, -0.050185807049274445, 0.2919624447822571, -0.27241435647010803, -0.19658170640468597, -0.05987849831581116, -0.02436116524040699, 0.05062226951122284, 0.26174411177635193, -0.2621551752090454, -0.23235547542572021, -0.3022295832633972, 0.2393786907196045, -0.09526008367538452, -0.022411920130252838], [-0.2004747986793518, 0.01987394131720066, 0.09791089594364166, 0.19584809243679047, -0.1537407785654068, -0.10411050915718079, -0.1891327053308487, -0.024607380852103233, -0.28668951988220215, -0.002899159910157323, 0.16176174581050873, 0.2538853883743286, 0.3475605249404907, 0.31822335720062256, -0.11793775856494904, -0.019731555134058, 0.07695187628269196, 0.07662401348352432, -0.1757356971502304, 0.18518760800361633, -0.003547459375113249, 0.18677155673503876, 0.05348290503025055, -0.02958899922668934, 0.4128642976284027, -0.0304251741617918, -0.008229194208979607, 0.21980150043964386, -0.11080983281135559, 0.27548766136169434, 0.004661506041884422, 0.21698251366615295, -0.059167809784412384, 0.17452365159988403, 0.025629470124840736, -0.2650436460971832, 0.15456005930900574, 0.14955736696720123, -0.30974483489990234, -0.03149833157658577, 0.11825885623693466, 0.014567183330655098, -0.1275854855775833, 0.1715940535068512, 0.28495731949806213, 0.11205978691577911, 0.2222653329372406, -0.2115684598684311, 0.12225884199142456, 0.053623016923666, 0.0003891185624524951, 0.125445157289505, -0.04823906347155571, 0.025272561237215996, 0.1744706779718399, 0.007140941917896271, 0.2826891541481018, -0.30806609988212585, 0.12952779233455658, 0.042459238320589066, 0.020519046112895012, -0.06907381862401962, 0.20282071828842163, -0.06913305073976517]], [[0.07016084343194962, -0.013837968930602074, 0.09517502784729004, 0.09803397953510284, -0.07953298836946487, 0.07490227371454239, -0.07235971093177795, 0.09978828579187393, -0.13948221504688263, 0.29608607292175293, 0.28335052728652954, -0.059608254581689835, 0.06668546795845032, -0.44261494278907776, -0.17176249623298645, 0.18700134754180908, 0.19664935767650604, 0.15289978682994843, -0.1275654137134552, 0.21462395787239075, 0.08164337277412415, 0.2090514898300171, -0.29340970516204834, 0.3115997016429901, -0.047860514372587204, 0.07394065707921982, -0.17304018139839172, 0.24710243940353394, -0.20967474579811096, 0.282906711101532, -0.2707206606864929, -0.14459513127803802, -0.21455052495002747, 0.11587650328874588, 0.04979606717824936, 0.09652893245220184, -0.1077880710363388, -0.18936632573604584, -0.005917391739785671, 0.34198567271232605, -0.15760274231433868, -0.1590835154056549, -0.13098706305027008, -0.10061624646186829, -0.2169850915670395, 0.02486889809370041, -0.3187069594860077, -0.030261818319559097, -0.0005222404142841697, 0.03812435269355774, -0.10126664489507675, 0.02888372167944908, 0.07418512552976608, -0.12887118756771088, -0.0036214981228113174, -0.19763179123401642, 0.22722166776657104, -0.04447247460484505, -0.0211519543081522, 0.222519651055336, -0.010037420317530632, 0.05533109977841377, -0.05087421461939812, -0.11025291681289673], [-0.13708548247814178, 0.23576633632183075, -0.31758204102516174, -0.1963425576686859, 0.0014151091454550624, -0.0047634057700634, -0.058176904916763306, -0.18803079426288605, -0.05502099543809891, 0.11583305895328522, 0.237417072057724, 0.05768808722496033, 0.3215371072292328, -0.5141738057136536, -0.06601139158010483, 0.21761439740657806, -0.02239370532333851, -0.11231832951307297, -0.369621217250824, 0.07697488367557526, 0.06516927480697632, 0.2332000881433487, -0.23296886682510376, 0.018231013789772987, 0.4033428132534027, -0.17269963026046753, -0.2208995670080185, -0.02401362545788288, 0.018200483173131943, -0.23127830028533936, 0.07728257030248642, 0.18325050175189972, -0.05928617715835571, -0.1886945217847824, 0.17200309038162231, -0.2762942314147949, 0.03743491694331169, 0.2531227767467499, 0.15623894333839417, -0.0880357176065445, -0.038342975080013275, -0.12754696607589722, -0.14428406953811646, 0.40125295519828796, 0.12873660027980804, -0.20237061381340027, 0.16444550454616547, 0.2262926995754242, -0.0469999797642231, -0.2484266757965088, -0.3581673204898834, -0.20699086785316467, 0.038783229887485504, -0.1277378350496292, 0.05185960605740547, 0.14764218032360077, -0.09432684630155563, -0.0232072826474905, 0.04013883322477341, -0.18276242911815643, 0.08272192627191544, -0.11113232374191284, 0.011602269485592842, 0.027309037744998932], [0.11896665394306183, -0.16048069298267365, 0.1932896375656128, -0.24319620430469513, -0.02305539697408676, 0.05993251875042915, 0.18607953190803528, 0.07705487310886383, -0.21186241507530212, -0.20743200182914734, -0.1756790578365326, -0.08804941177368164, 0.30130600929260254, -0.1646350622177124, -0.08879756182432175, 0.1582801789045334, 0.1747485101222992, -0.17128783464431763, 0.019602006301283836, -0.1382828801870346, 0.14956142008304596, -0.24148115515708923, 0.19510245323181152, 0.2841893136501312, -0.031055547297000885, -0.09277132153511047, -0.021857744082808495, 0.3321644365787506, -0.03786814585328102, -0.3752422332763672, 0.124505914747715, 0.10471092909574509, 0.025806758552789688, 0.09140384942293167, 0.11358083039522171, -0.10959729552268982, 0.07839858531951904, 0.16709654033184052, -0.08421841263771057, -0.13123653829097748, 0.13436125218868256, -0.12940533459186554, -0.16115881502628326, 0.1199687197804451, -0.06617490202188492, -0.2390322983264923, 0.0607084296643734, -0.05718845874071121, -0.04929855465888977, 0.17074622213840485, -0.17449893057346344, -0.2693876624107361, 0.3409684896469116, 0.03491757810115814, 0.015871599316596985, 0.28685230016708374, 0.0732814148068428, 0.20994554460048676, -0.11413422971963882, -0.05125156417489052, -0.042345307767391205, 0.2688230276107788, -0.17726917564868927, -0.22560308873653412]], [[0.009015986695885658, -0.09971215575933456, -0.13448967039585114, -0.35928475856781006, 0.12535886466503143, -0.018808983266353607, 0.1994040608406067, -0.05251095071434975, 0.12905766069889069, 0.06925255805253983, -0.08320734649896622, -0.051588024944067, 0.16948314011096954, 0.30555152893066406, 0.2268911451101303, 0.2545342743396759, 0.09755568206310272, 0.12506720423698425, -0.1435387283563614, -0.05469987913966179, 0.1056014820933342, -0.16238150000572205, 0.04577341303229332, -0.08311064541339874, 0.029974235221743584, -0.19513346254825592, 0.10069600492715836, 0.03086019866168499, 0.10740522295236588, 0.12483229488134384, -0.39487895369529724, 0.38984164595603943, -0.043455202132463455, -0.053804874420166016, -0.14050893485546112, -0.06895659118890762, -0.2194877713918686, -0.23949511349201202, 0.13535861670970917, 0.1962938755750656, -0.01252751424908638, -0.0012286703567951918, -0.07368352264165878, 0.09429976344108582, -0.04911094531416893, 0.007514468859881163, -0.16283872723579407, 0.35997894406318665, 0.11404947936534882, 0.2168048471212387, -0.007859903387725353, -0.03181501105427742, -0.027327895164489746, -0.11244190484285355, -0.0034033390693366528, 0.21721696853637695, -0.03290591388940811, 0.07451906055212021, 0.03834805637598038, 0.05136885493993759, -0.38544002175331116, -0.09960927814245224, -0.30883508920669556, 0.23520642518997192], [0.0692884549498558, 0.18728646636009216, -0.2930857241153717, -0.14783009886741638, -0.23445360362529755, 0.3468509912490845, 0.040735628455877304, 0.20653097331523895, -0.12321227043867111, -0.3552479147911072, -0.17230860888957977, 0.3820362091064453, -0.2573506236076355, 0.3614490330219269, 0.11029858142137527, -0.04686252027750015, -0.08224863559007645, -0.1109914630651474, -0.15049220621585846, -0.10806510597467422, 0.377032071352005, -0.09877843409776688, 0.11495131254196167, -0.05584700033068657, 0.14734716713428497, -0.041915591806173325, 0.0877680853009224, -0.11384879797697067, 0.058987125754356384, 0.03885406628251076, -0.08931256830692291, -0.32760319113731384, -0.035235464572906494, -0.19794310629367828, -0.1057780385017395, -0.17992210388183594, -0.10050487518310547, 0.037779927253723145, 0.06971990317106247, -0.006047168280929327, 0.21167123317718506, 0.08506119251251221, -0.16187791526317596, 0.0326889306306839, 0.04992634057998657, 0.13768893480300903, 0.25480034947395325, 0.17906682193279266, -0.055040907114744186, -0.17594949901103973, 0.24402397871017456, -0.06850425899028778, 0.00214842869900167, 0.03460952639579773, -0.16930833458900452, -0.012316125445067883, -0.27973926067352295, -0.29644855856895447, 0.08009863644838333, 0.11933289468288422, 0.08130314201116562, -0.13125412166118622, 0.1506427675485611, 0.09598720073699951], [0.3369685113430023, 0.0021233833394944668, 0.15846142172813416, -0.12252942472696304, 0.037832166999578476, -0.12747010588645935, 0.15100187063217163, -0.11889024078845978, -0.33545610308647156, -0.3815228343009949, 0.0035061913076788187, -0.08866430819034576, -0.13483381271362305, 0.10807099938392639, 0.10306689888238907, -0.016786273568868637, 0.10041074454784393, -0.030127953737974167, 0.30491673946380615, 0.07155171036720276, -0.019942622631788254, 0.04283104091882706, -0.22641555964946747, -0.10988625884056091, 0.10966798663139343, 0.25335603952407837, 0.2118944376707077, 0.3803488314151764, -0.3925914168357849, 0.09210433810949326, 0.10759802907705307, 0.015683704987168312, -0.22543764114379883, 0.149061381816864, -0.06462612003087997, 0.026305075734853745, 0.18027080595493317, 0.285473495721817, -0.19761615991592407, -0.24272671341896057, -0.004488336853682995, 0.04554472118616104, 0.017053231596946716, -0.23906251788139343, -0.101640984416008, 0.050622060894966125, 0.0327400267124176, -0.2630840241909027, 0.047952521592378616, -0.08278840035200119, -0.15771467983722687, 0.17404526472091675, 0.017357956618070602, 0.18810780346393585, -0.05357428640127182, 0.014826537109911442, -0.16260568797588348, -0.022063834592700005, -0.03475916013121605, -0.015538199804723263, -0.03295170143246651, -0.13870467245578766, -0.02458815835416317, -0.005586682353168726]], [[-0.1894587129354477, -0.034180428832769394, -0.003577231429517269, 0.05963567644357681, 0.2471236139535904, 0.008859219029545784, -0.003950370941311121, 0.11214525997638702, -0.15087147057056427, -0.02662796527147293, 0.011792286299169064, 0.07927525788545609, -0.2091105431318283, -0.18621906638145447, -0.12860581278800964, -0.026849986985325813, -0.043532103300094604, 0.09926441311836243, 0.4027358591556549, 0.16104193031787872, 0.0837472602725029, -0.010757644660770893, 0.016748469322919846, -0.10206381976604462, 0.0701935663819313, -0.020252099260687828, 0.17062541842460632, 0.03934498876333237, 0.027275387197732925, 0.04455817490816116, -0.32764771580696106, -0.0722440630197525, 0.07891368865966797, 0.1474711000919342, 0.07086358964443207, -0.04573097452521324, -0.27333641052246094, -0.15761102735996246, -0.10256209224462509, -0.13176102936267853, -0.15236298739910126, 0.1797957718372345, -0.01425767969340086, -0.06223101168870926, 0.08752432465553284, -0.030346453189849854, 0.16103482246398926, 0.306733638048172, -0.21889260411262512, -0.049493491649627686, 0.17793338000774384, -0.2342117577791214, 0.004105484113097191, 0.20984962582588196, -0.0544094517827034, 0.10709623247385025, 0.012247735634446144, -0.04803403839468956, -0.02083105407655239, -1.1394076864235103e-05, -0.1271546185016632, 0.1004718542098999, -0.007496854290366173, 0.24693600833415985], [0.15003207325935364, 0.22731932997703552, 0.03593460097908974, 0.014997378922998905, -0.2466488927602768, -0.15769058465957642, -0.09079796820878983, 0.3467147648334503, 0.0016079999040812254, -0.02484365552663803, -0.08306942135095596, -0.011114785447716713, 0.28081169724464417, -0.026596270501613617, -0.06647748500108719, 0.031032564118504524, -0.02072926051914692, -0.1403590589761734, 0.024903470650315285, 0.3204687237739563, -0.004918478429317474, 0.28761205077171326, 0.2048061490058899, 0.23407942056655884, 0.26922407746315, -0.10735885053873062, -0.10224100947380066, 0.05755305662751198, -0.17595793306827545, -0.1264888197183609, 0.3442140519618988, -0.1584053784608841, 0.03328385949134827, -0.1434737741947174, 0.22044916450977325, 0.08684235066175461, -0.17445722222328186, -0.05268833786249161, 0.1738210767507553, 0.3123128414154053, -0.226442351937294, 0.05701223760843277, 0.17223019897937775, -0.19608762860298157, 0.13542845845222473, -0.14459779858589172, -0.14738091826438904, 0.004572735168039799, 0.15338736772537231, -0.20385105907917023, 0.04991800710558891, 0.14445818960666656, 0.006774160545319319, -0.03886955976486206, 0.12944398820400238, -0.030853567644953728, 0.24407286942005157, -0.07310926169157028, 0.028026871383190155, 0.028214992955327034, -0.03690754622220993, 0.13408426940441132, 0.20135942101478577, 0.09702866524457932], [0.2574976086616516, -0.015595123171806335, -0.14157038927078247, -0.1939350664615631, 0.08813833445310593, -0.33277222514152527, -0.12091823667287827, -0.08878008276224136, -0.22391377389431, -0.2087431699037552, -0.0596773736178875, -0.003328438149765134, -0.04041207954287529, -0.010779577307403088, 0.1401849091053009, -0.10074074566364288, -0.10210239142179489, 0.19218699634075165, -0.1395672708749771, -0.31067872047424316, -0.0934642031788826, -0.38916340470314026, 0.1593751758337021, -0.0354078970849514, 0.08771339058876038, 0.16095271706581116, -0.18695807456970215, 0.17761965095996857, -0.13078057765960693, -0.11911901831626892, -0.04777016118168831, -0.13476143777370453, 0.10221123695373535, 0.013051838614046574, 0.03291879594326019, 0.2345491498708725, 0.0965190976858139, 0.15966811776161194, 0.17089664936065674, -0.21436741948127747, 0.3125454783439636, -0.05952862650156021, 0.14033980667591095, 0.3841313123703003, 0.15416234731674194, -0.030764278024435043, 0.1100679337978363, -0.321321040391922, 0.11486899107694626, -0.15066003799438477, 0.38972190022468567, 0.051188454031944275, 0.037227656692266464, 0.3241705894470215, -0.13595916330814362, 0.27231115102767944, 0.1825704574584961, 0.02230989746749401, 0.10241876542568207, -0.01625014655292034, -0.04772643372416496, -0.23542995750904083, 0.004685588181018829, -0.1366228610277176]]], [[[0.10417268425226212, -0.13491304218769073, 0.03882920369505882, -0.026764146983623505, 0.11811944842338562, -0.03568115457892418, 0.2815321385860443, -0.07112997025251389, 0.24074389040470123, 0.05373463034629822, -0.3600924015045166, -0.2772567868232727, -0.05399523675441742, -0.05281674116849899, 0.01457881461828947, 0.4397529661655426, 0.32957106828689575, 0.0458565279841423, -0.2473406046628952, -0.1748666912317276, 0.33922407031059265, -0.38264039158821106, -0.14630840718746185, -0.16297191381454468, -0.3157186210155487, 0.05300835520029068, -0.20313236117362976, 0.057533133774995804, -0.15265654027462006, -0.2331039011478424, -0.03372419625520706, -0.22986532747745514, -0.04493073746562004, 0.13608397543430328, -0.031033359467983246, 0.09679201990365982, 0.4176730513572693, -0.22497406601905823, 0.08565528690814972, 0.1035424992442131, 0.15985365211963654, -0.069327712059021, 0.07409047335386276, -0.2374839186668396, -0.20470303297042847, -0.16011913120746613, 0.047189243137836456, -0.2215391844511032, -0.2042091190814972, -0.2565433382987976, 0.08184191584587097, 0.19001393020153046, -0.14189082384109497, -0.32258862257003784, -0.05846278369426727, -0.02193143591284752, -0.13834460079669952, -0.015800582244992256, -0.09695138782262802, -0.009833076037466526, -0.24619759619235992, -0.25452643632888794, 0.1019943580031395, 0.2874121069908142], [-0.4077834486961365, 0.1773258000612259, 0.3002903163433075, -0.019123097881674767, -0.06634941697120667, 0.3235771954059601, 0.3679461181163788, -0.28164079785346985, 0.11580634862184525, -0.15555180609226227, 0.0754178836941719, 0.08900617063045502, 0.17494642734527588, -0.04668479040265083, -0.004257503431290388, 0.14919355511665344, -0.2135794758796692, -0.11175854504108429, -0.1707734614610672, 0.09580197185277939, -0.0451439768075943, -0.11447567492723465, 0.10072096437215805, 0.07189137488603592, -0.31446516513824463, -0.3143281042575836, -0.06436570733785629, -0.03161396458745003, -0.17161180078983307, -0.13003604114055634, -0.07348942011594772, 0.19908864796161652, -0.08090563118457794, 0.3893667161464691, 0.2723028063774109, 0.30178403854370117, -0.2642204463481903, -0.09630771726369858, -0.24436715245246887, -0.13190896809101105, 0.07909242063760757, -0.03934710845351219, -0.2945268750190735, 0.025566810742020607, 0.2817494869232178, -0.26253336668014526, 0.18553663790225983, 0.2474312037229538, 0.1262679398059845, 0.17903806269168854, 0.1018904373049736, 0.32949063181877136, 0.041949424892663956, -0.11614412069320679, 0.053175583481788635, 0.033974166959524155, -0.20411652326583862, 0.0005410148296505213, -0.08694702386856079, 0.10934251546859741, -0.1515931785106659, 0.0076994821429252625, -0.09305177628993988, 0.2232002317905426], [-0.3474577069282532, -0.2577816843986511, -0.10420691967010498, -0.24228329956531525, -0.14970655739307404, 0.07974237203598022, 0.03527848795056343, -0.07337154448032379, -0.14886978268623352, -0.14356324076652527, 0.041949398815631866, 0.12920624017715454, -0.03278558328747749, -0.19559775292873383, 0.027336912229657173, -0.11377851665019989, -0.1417919546365738, -0.2609315812587738, -0.12068799138069153, 0.24393817782402039, 0.34466490149497986, 0.407712459564209, -0.37929749488830566, 0.27855154871940613, -0.10189667344093323, 0.3081560730934143, 0.046747975051403046, -0.21770811080932617, 0.0051249051466584206, 0.01828465238213539, 0.04961370676755905, 0.15810441970825195, -0.1197119951248169, 0.0688738152384758, 0.19160021841526031, -0.024866925552487373, -0.41632646322250366, -0.024276750162243843, 0.29719606041908264, -0.18670645356178284, -0.0323406457901001, -0.035124123096466064, 0.13434535264968872, 0.010820549912750721, -0.08378632366657257, -0.2240104079246521, 0.1696540266275406, 0.1093556359410286, -0.09116759151220322, -0.13677683472633362, 0.34366416931152344, 0.17747347056865692, 0.048020169138908386, 0.02376485802233219, 0.044909581542015076, 0.08218307048082352, -0.23558202385902405, 0.17843729257583618, 0.08972739428281784, -0.14023591578006744, -0.03120914101600647, 0.3326863646507263, -0.2537265717983246, 0.08733143657445908]], [[0.07908022403717041, 0.1516493707895279, -0.09038957953453064, 0.09156040847301483, -0.17876063287258148, -0.40999096632003784, 0.022066127508878708, -0.12220162153244019, -0.1471744328737259, 0.02915913052856922, -0.18819352984428406, -0.07414592057466507, -0.2722967565059662, 0.29443901777267456, -0.1137298196554184, 0.44119808077812195, 0.002683562459424138, -0.14352858066558838, 0.1356043666601181, -0.23269769549369812, -0.014749226160347462, -0.17565207183361053, 0.086577408015728, -0.29559198021888733, -0.22968614101409912, 0.09011946618556976, 0.36295682191848755, -0.11114098131656647, 0.11122781038284302, -0.1597405970096588, 0.19088922441005707, -0.4073467254638672, 0.14279526472091675, 0.01826639473438263, -0.13193289935588837, 0.03282834589481354, 0.15991878509521484, -0.14547418057918549, 0.06014971435070038, 0.3056716024875641, -0.030756821855902672, 0.06338293105363846, 0.09829440712928772, -0.34771454334259033, -0.09549522399902344, -0.37791430950164795, 0.012735122814774513, -0.009217709302902222, 0.13372351229190826, 0.03331100568175316, 0.13782364130020142, 0.07323316484689713, -0.14190861582756042, -0.13687841594219208, -0.08937811106443405, -0.2720688283443451, 0.08280539512634277, -0.007543738931417465, 0.03836615011096001, 0.15196213126182556, 0.38352930545806885, 0.0633465126156807, 0.12714768946170807, 0.006361780688166618], [0.2030099481344223, -0.062201883643865585, 0.23668242990970612, 0.2945585250854492, 0.35514357686042786, 0.16127561032772064, 0.1460707038640976, 0.04905906319618225, 0.040598854422569275, 0.09529119729995728, 0.04198100045323372, -0.042302172631025314, -0.005187452770769596, 0.18942420184612274, -0.026895586401224136, -0.13396626710891724, 0.058511558920145035, -0.24205565452575684, -0.010120865888893604, -0.00880543701350689, 0.056282296776771545, 0.12623721361160278, -0.27181610465049744, -0.38549748063087463, 0.030317971482872963, -0.10440012067556381, -0.10783012956380844, -0.22324268519878387, 0.14254800975322723, 0.26490676403045654, 0.4072907567024231, -0.032711561769247055, 0.35438573360443115, -0.19891732931137085, 0.08107515424489975, 0.09289620071649551, -0.31743890047073364, 0.1038295179605484, 0.22400923073291779, -0.05482557788491249, -0.17936640977859497, 0.013547406531870365, 0.3972833454608917, -0.12031529098749161, 0.15124739706516266, -0.3708232045173645, -0.053831424564123154, 0.015680108219385147, -0.01741478033363819, -0.11599621176719666, 0.1842692792415619, -0.09674270451068878, -0.18340428173542023, -0.034255556762218475, 0.05996868386864662, 0.0385470874607563, 0.09135982394218445, -0.09895837306976318, 0.2213776558637619, 0.14552418887615204, 0.3468654453754425, -0.19379867613315582, 0.19175419211387634, -0.14250007271766663], [0.2596268057823181, -0.24310734868049622, 0.15125498175621033, 0.13542449474334717, -0.14750434458255768, -0.17373046278953552, -0.10780583322048187, 0.09104796499013901, 0.25357913970947266, -0.1094900444149971, -0.20272132754325867, -0.001683353679254651, -0.2471386045217514, 0.10338164865970612, -0.2960151731967926, -0.05869900807738304, -0.14305314421653748, 0.22651852667331696, -0.019645854830741882, 0.12334363162517548, -0.046891238540410995, 0.2143745720386505, 0.03181425854563713, -0.05983739718794823, -0.02071455493569374, 0.0008696519071236253, 0.0027508086059242487, 0.20383909344673157, 0.2712801396846771, -0.1731710135936737, -0.11527257412672043, -0.425525426864624, 0.15750239789485931, 0.08457746356725693, 0.12935414910316467, 0.04786909744143486, 0.014647637493908405, 0.2772311568260193, 0.22666163742542267, -0.09735914319753647, 0.16321396827697754, -0.20772035419940948, 0.13234740495681763, -0.30525901913642883, 0.31234437227249146, 0.08792779594659805, 0.253801167011261, -0.22796013951301575, -0.04359586164355278, -0.13073599338531494, -0.06464815884828568, 0.15142273902893066, -0.19299165904521942, 0.04021584987640381, -0.007363067474216223, 0.09001234918832779, 0.16912305355072021, -0.0454401895403862, -0.023769376799464226, -0.1744638979434967, 0.03996910899877548, 0.057058364152908325, 0.11616594344377518, 0.028656715527176857]], [[0.2890852689743042, 0.1650756299495697, -0.04996521770954132, 0.14230197668075562, 0.19130414724349976, 0.14140117168426514, 0.13484153151512146, 0.04769378527998924, -0.11336156725883484, 0.1290106475353241, 0.12265325337648392, 0.06925404816865921, 0.03462417051196098, -0.4390682280063629, 0.14973309636116028, -0.004697081167250872, -0.13191133737564087, 0.06805836409330368, 0.08816258609294891, 0.2978456914424896, -0.23612919449806213, -0.11227188259363174, -0.12297973781824112, 0.382518470287323, -0.1338532716035843, -0.09487609565258026, -0.19685328006744385, -0.025202127173542976, 0.3755553364753723, 0.057184040546417236, -0.17297020554542542, -0.08732149749994278, -0.12665380537509918, -0.2030530720949173, -0.17963215708732605, 0.1245633065700531, 0.15022233128547668, -0.14947980642318726, -0.17202626168727875, 0.24487102031707764, 0.18136799335479736, 0.34505125880241394, -0.029640167951583862, -0.19427604973316193, -0.09814243763685226, -0.12138494104146957, -0.04175475984811783, -0.060502421110868454, 0.04658167064189911, 0.13194380700588226, 0.04951760917901993, -0.27657514810562134, -0.13412217795848846, -0.34626731276512146, -0.12661291658878326, -0.013665146194398403, -0.2767699360847473, -0.0666230320930481, 0.13989363610744476, -0.136459082365036, 0.0757950097322464, -0.016667399555444717, 0.015425282530486584, -0.1612015962600708], [-0.0905911922454834, -0.07514220476150513, -0.11412100493907928, 0.24957233667373657, -0.05803936719894409, 0.14825551211833954, -0.02093745768070221, 0.05459080636501312, 0.1259295791387558, -0.17658555507659912, 0.381502240896225, 0.15397149324417114, -0.32654181122779846, -0.286795437335968, -0.1248011440038681, -0.22355027496814728, -0.19429250061511993, 0.1425236165523529, 0.23653168976306915, 0.06436484307050705, 0.10122159868478775, 0.10083969682455063, 0.07704373449087143, 0.25084882974624634, -0.3535892963409424, -0.2791498899459839, -0.4084188640117645, 0.13490012288093567, 0.062466561794281006, -0.08215748518705368, 0.2960525155067444, -0.1555880606174469, -0.2676779329776764, -0.20778214931488037, -0.20379023253917694, -0.461224228143692, -0.18297423422336578, -0.10038705915212631, -0.02106071263551712, -0.058452215045690536, -0.08266299217939377, 0.1799999624490738, 0.10826598107814789, 0.09804893285036087, -0.052793197333812714, -0.02137664519250393, -0.05799175798892975, -0.0673627182841301, 0.13758474588394165, -0.05705736204981804, -0.20515410602092743, -0.2458060085773468, -0.028876060619950294, -0.006436423398554325, -0.014665135182440281, -0.21025356650352478, -0.33274948596954346, -0.09971056133508682, 0.20327383279800415, 0.18721161782741547, -0.12010478228330612, -0.19066749513149261, -0.06848672777414322, 0.13596923649311066], [0.11716548353433609, 0.16743087768554688, 0.0925614982843399, -0.20942126214504242, -0.057731349021196365, -0.0065975552424788475, 0.11438129097223282, -0.24374164640903473, 0.09328195452690125, -0.21387271583080292, 0.35521528124809265, 0.06734900176525116, -0.1713777333498001, -0.16591276228427887, 0.0029630460776388645, -0.083984375, -0.1698242872953415, 0.08570392429828644, 0.4121358096599579, 0.16719268262386322, 0.13234058022499084, 0.08702901750802994, 0.1636090874671936, -0.013038664124906063, -0.11950808763504028, 0.2714051604270935, -0.0015717571368440986, -0.08831559121608734, -0.014268524944782257, 0.1965007334947586, -0.1051618680357933, -0.4049791395664215, -0.44296517968177795, -0.23339100182056427, 0.06804303824901581, -0.15361632406711578, 0.101771280169487, 0.0478660948574543, 0.0060391975566744804, -0.13467392325401306, -0.24357271194458008, 0.12655971944332123, 0.1289989948272705, -0.101063072681427, -0.24509955942630768, 0.004790022503584623, 0.37255945801734924, -0.32423827052116394, 0.300657719373703, -0.10567273944616318, -0.21941354870796204, -0.30253541469573975, 0.15216143429279327, 0.29418742656707764, 0.08071400225162506, 0.08655810356140137, -0.05643786862492561, -0.036807041615247726, 0.21468473970890045, 0.04130684584379196, -0.1825302541255951, 0.010173577815294266, 0.23927123844623566, -0.37900635600090027]], [[-0.008573002181947231, 0.03355066105723381, -0.2137109339237213, 0.056556157767772675, 0.190066397190094, -0.09965991228818893, -0.24341902136802673, 0.33294063806533813, 0.06206897646188736, -0.26792728900909424, 0.07774664461612701, 0.2648560106754303, 0.12320426851511002, 0.1274716854095459, -0.1389336884021759, 0.025884481146931648, 0.04628027603030205, -0.11701186746358871, 0.135841503739357, -0.2822890877723694, -0.022366797551512718, -0.1821238398551941, -0.06417723745107651, 0.15435555577278137, -0.3151586949825287, 0.29105308651924133, -0.045910634100437164, -0.23264537751674652, 0.15212154388427734, 0.2497427761554718, -0.04215873405337334, 0.37029337882995605, -0.0013004442444071174, 0.14182588458061218, -0.06493885815143585, -0.0090663256123662, -0.11878502368927002, 0.2499343603849411, 0.11111324280500412, 0.16487470269203186, 0.10856124758720398, -0.35534706711769104, -0.11052224785089493, -0.019290486350655556, 0.28686654567718506, 0.09317588061094284, -0.09258347749710083, -0.0437094122171402, -0.10811542719602585, 0.17179976403713226, -0.21987102925777435, -0.17734967172145844, -0.08966517448425293, -0.09663685411214828, 0.2366141825914383, -0.37921246886253357, 0.013269208371639252, 0.04665052518248558, -0.15220722556114197, -0.2549612820148468, 0.011757535859942436, -0.16644620895385742, -0.16163726150989532, -0.15414753556251526], [-0.09319800138473511, -0.1437414139509201, 0.04144692048430443, 0.15647011995315552, -0.11209244281053543, 0.01769040711224079, 0.3631542921066284, 0.018532169982790947, -0.18299712240695953, 0.018756821751594543, -0.11756274849176407, -0.2455103099346161, 0.05369209498167038, 0.11338351666927338, 0.15350104868412018, -0.06093252822756767, -0.22840599715709686, -0.26899659633636475, 0.04886339604854584, -0.09438060969114304, -0.042452458292245865, 0.12491533160209656, 0.19704902172088623, -0.11601109802722931, 0.05893577262759209, -0.22548483312129974, 0.2490193098783493, 0.27197352051734924, 0.027622802183032036, -0.03708406537771225, 0.19912034273147583, 0.35776764154434204, 0.4397466480731964, 0.05010479688644409, -0.1919439435005188, -0.30465394258499146, 0.30184465646743774, -0.07119597494602203, 0.020175470039248466, -0.07950176298618317, 0.16422615945339203, 0.26420262455940247, -0.03912108764052391, -0.19212213158607483, -0.22855760157108307, -0.15992683172225952, -0.049278177320957184, -0.014679301530122757, 0.020300542935729027, -0.21581147611141205, -0.22827090322971344, 0.09266497939825058, -0.1992582231760025, 0.2546992897987366, -0.21877475082874298, -0.005316970869898796, -0.13491114974021912, -0.2706051468849182, -0.30251041054725647, 0.07814041525125504, -0.08808048814535141, -0.12856969237327576, 0.07653146237134933, 0.08373740315437317], [-0.008146879263222218, 0.10417404025793076, -0.2318979799747467, -0.07529281824827194, 0.29452866315841675, -0.18701505661010742, -0.17263035476207733, 0.2949970066547394, 0.02454899623990059, 0.23919931054115295, -0.18824085593223572, -0.24643602967262268, 0.03072528727352619, 0.3717319071292877, -0.06493719667196274, 0.014676728285849094, 0.24559937417507172, 0.08668766170740128, 0.11034269630908966, -0.21009959280490875, -0.225317120552063, -0.32124027609825134, 0.4058552384376526, -0.018474549055099487, -0.1627110093832016, 0.3194900155067444, -0.003311150474473834, 0.05579758062958717, -0.07780871540307999, 0.1458992063999176, -0.15037833154201508, 0.32483527064323425, 0.3109160363674164, 0.24042993783950806, -0.02383112721145153, -0.018403569236397743, 0.09334810823202133, -0.0751425176858902, -0.28890806436538696, 0.064279705286026, -0.021549396216869354, -0.2510548532009125, -0.37203648686408997, -0.41324159502983093, 0.04985085874795914, 0.2934459149837494, 0.2259090542793274, -0.10966932028532028, -0.16568370163440704, -0.017306439578533173, -0.1451103836297989, -0.07382829487323761, -0.2913096249103546, 0.09217551350593567, 0.2901499271392822, 0.055135685950517654, -0.11816531419754028, -0.19825021922588348, -0.08042702823877335, -0.03560478985309601, 0.26284879446029663, 0.04228644818067551, 0.045710932463407516, -0.5051630139350891]], [[0.08597559481859207, 0.009088334627449512, 0.2460935115814209, -0.13630877435207367, 0.1378861963748932, 0.24809901416301727, -0.004653070587664843, -0.08858470618724823, -0.025447096675634384, -0.1512777954339981, -0.10966408997774124, 0.0008435948984697461, 0.14154095947742462, -0.019083434715867043, 0.11034146696329117, 0.09342706948518753, 0.028441203758120537, -0.16026724874973297, -0.14017464220523834, 0.3720978796482086, -0.03452518209815025, 0.3541625440120697, -0.19451335072517395, -0.06469480693340302, -0.19733938574790955, 0.18696735799312592, -0.07375390827655792, 0.0023963081184774637, 0.3316554129123688, 0.29700347781181335, -0.1696132868528366, -0.3145783245563507, 0.06761500984430313, 0.08273011445999146, -0.0010230534244328737, 0.03479814901947975, -0.24686367809772491, -0.21906036138534546, -0.05385620519518852, 0.08921679109334946, -0.10538339614868164, -0.009362132288515568, -0.11124950647354126, 0.10476144403219223, 0.162821963429451, -0.05168524757027626, -0.05680209770798683, 0.1613416075706482, 0.20699560642242432, -0.12475547939538956, -0.05578940734267235, 0.18825563788414001, -0.3000904321670532, 0.12030865252017975, 0.28165140748023987, -0.01298805046826601, 0.13840386271476746, -0.04789934679865837, -0.06676194816827774, 0.20539845526218414, 0.32310551404953003, -0.13820666074752808, 0.010563495568931103, 0.2145097404718399], [0.009891211986541748, -0.026578009128570557, -0.28544506430625916, 0.0812452957034111, -0.35142403841018677, 0.04869654029607773, -0.13298046588897705, -0.23280683159828186, -0.019331563264131546, -0.07339555025100708, -0.06117797642946243, -0.3790075480937958, 0.13657866418361664, -0.13526515662670135, -0.0789729505777359, -0.2250201553106308, 0.04664480313658714, -0.12651368975639343, -0.399503618478775, -0.07182961702346802, -0.2619195580482483, -0.007998313754796982, 0.016576573252677917, 0.04404967650771141, -0.005560573656111956, -0.1156151294708252, 0.29094937443733215, -0.11278644949197769, -0.08892953395843506, -0.16768482327461243, 0.3326645791530609, 0.06310342997312546, -0.08862082660198212, -0.06534552574157715, -0.03075243905186653, 0.3269314467906952, 0.1643100380897522, -0.06511128693819046, 0.09481962770223618, -0.07118340581655502, 0.22296728193759918, 0.02966153621673584, 0.29723578691482544, -0.20289461314678192, -0.041244979947805405, 0.0046419487334787846, 0.09181127697229385, -0.11791260540485382, -0.08513279259204865, 0.06734928488731384, -0.0846366435289383, 0.07783636450767517, -0.09330789744853973, 0.11614423245191574, -0.24072076380252838, -0.24962706863880157, -0.2187030166387558, 0.11786787211894989, 0.0506746843457222, 0.07115185260772705, -0.1836542785167694, 0.06747686117887497, -0.3061797022819519, -0.16845351457595825], [-0.07156680524349213, 0.07695318013429642, -0.027286693453788757, -0.2499227523803711, 0.019361257553100586, -0.2715688943862915, 0.017076492309570312, 0.002700045006349683, -0.43654340505599976, 0.347557932138443, -0.07671667635440826, 0.09941421449184418, -0.05088339000940323, -0.09066291898488998, 0.19833903014659882, 0.09300898760557175, 0.29768654704093933, -0.009089105762541294, -0.11928776651620865, -0.258762389421463, -0.23167216777801514, -0.08210905641317368, 0.07690100371837616, -0.2762390077114105, -0.32391515374183655, -0.01307782344520092, -0.25632503628730774, -0.0009777058148756623, 0.010057317093014717, -0.4339951276779175, -0.14741654694080353, -0.036263152956962585, 0.09349372237920761, -0.22454720735549927, -0.11092621833086014, 0.03395295888185501, 0.31955865025520325, 0.0688743069767952, -0.25332731008529663, 0.224732905626297, 0.032636500895023346, -0.015890303999185562, -0.009864291176199913, -0.0086729247123003, -0.19367952644824982, 0.19111020863056183, 0.0034406634513288736, -0.3304004669189453, -0.06283090263605118, -0.06882158666849136, -0.012263527140021324, -0.09413661807775497, -0.10490332543849945, -0.010239990428090096, -0.19007325172424316, -0.1618419736623764, -0.08960195630788803, -0.11953801661729813, -0.07182405889034271, 0.06610362231731415, -0.011241190135478973, 0.15438760817050934, 0.06917373836040497, -0.24631991982460022]]], [[[-0.2518637776374817, -0.396833598613739, 0.08936744928359985, -0.2712068557739258, -0.17813749611377716, 0.023898908868432045, -0.394957035779953, -0.21445713937282562, 0.09923242777585983, 0.11046326905488968, -0.027993248775601387, -0.014562857337296009, -0.31278517842292786, 0.10213930904865265, -0.2919132709503174, -0.22993479669094086, -0.24774764478206635, 0.05883264169096947, 0.008849386125802994, -0.2640746533870697, 0.04110702872276306, -0.4677204191684723, 0.17257852852344513, -0.23372328281402588, 0.24207086861133575, -0.04190912842750549, 0.1190425306558609, 0.17190416157245636, -0.041408881545066833, -0.14186319708824158, 0.04823462292551994, 0.007277410011738539, -0.10160088539123535, 0.27346691489219666, 0.3115467131137848, -0.1700814813375473, 0.3017329275608063, -0.15961338579654694, 0.14156284928321838, -0.037435926496982574, -0.21693925559520721, -0.22830058634281158, -0.012700731866061687, -0.27622437477111816, 0.0015149477403610945, -0.19212953746318817, -0.3979802131652832, -0.1400223970413208, -0.03987345099449158, -0.364323228597641, -0.31467366218566895, -0.05807769298553467, 0.010371130891144276, 0.07587970048189163, -0.3287951350212097, 0.16829651594161987, -0.06514241546392441, -0.25862962007522583, -0.021460173651576042, 0.0031674939673393965, -0.15813560783863068, -0.19332976639270782, 0.0819198489189148, -0.08818278461694717], [-0.03778250887989998, -0.1403963565826416, 0.08800557255744934, -0.20310723781585693, -0.013010455295443535, 0.4063938856124878, -0.06767244637012482, -0.1260221004486084, 0.17438280582427979, 0.09758660942316055, 0.1192353218793869, -0.3345763385295868, 0.06791023910045624, 0.2461799532175064, -0.21606817841529846, -0.4030468463897705, 0.08557815104722977, -0.08517692238092422, -0.06545217335224152, -0.30604520440101624, 0.10898440331220627, 0.046048883348703384, -0.164683997631073, 0.2259124368429184, -0.13307267427444458, 0.07225081324577332, -0.17534984648227692, 0.239472895860672, 0.37693753838539124, 0.0046174717135727406, -0.10907009243965149, 0.25487998127937317, -0.00205894629471004, -0.11085223406553268, -0.32563117146492004, 0.18512754142284393, -0.13378039002418518, 0.08509507775306702, 0.08712787181138992, 0.20785872638225555, -0.21678383648395538, -0.37053748965263367, -0.10141772776842117, 0.0954616516828537, -0.0828045979142189, -0.14155779778957367, 0.03230687975883484, -0.007996640168130398, 0.005918620154261589, -0.22084373235702515, -0.18463917076587677, 0.03186536952853203, 0.2154298573732376, -0.1713532954454422, -0.06001035496592522, 0.057921797037124634, 0.14108870923519135, 0.19318649172782898, 0.12630225718021393, 0.0017735466826707125, -0.07689990848302841, -0.005799737758934498, -0.16399207711219788, 0.1003374382853508], [0.04867876321077347, -0.15708933770656586, 0.32828783988952637, -0.24980145692825317, -0.20328783988952637, -0.03190967068076134, -0.14823658764362335, 0.07720731198787689, -0.027343135327100754, -0.09370977431535721, 0.22583477199077606, -0.038882169872522354, 0.1526891589164734, 0.12404294312000275, -0.1398869901895523, -0.20646163821220398, 0.22114063799381256, 0.23739686608314514, 0.0017847963608801365, -0.272590696811676, 0.1419631540775299, 0.5220236778259277, 0.025915756821632385, 0.2727949619293213, -0.11019226163625717, -0.03019399382174015, 0.1800704151391983, 0.10733164101839066, -0.16917730867862701, 0.2792850434780121, -0.029214588925242424, -0.27483636140823364, 0.3123049736022949, -0.06611542403697968, 0.11674338579177856, 0.34565070271492004, -0.1735326647758484, 0.34615594148635864, -0.19923295080661774, -0.09993571788072586, 0.07967206090688705, -0.0052655949257314205, -0.108115054666996, 0.034166641533374786, -0.04530823975801468, -0.3356952965259552, -0.20893177390098572, 0.05203189328312874, -0.07564803212881088, 0.3076096177101135, 0.08685342222452164, 0.09640750288963318, 0.04856595769524574, 0.17544665932655334, 0.30575326085090637, 0.08592697232961655, -0.20628860592842102, -0.29585015773773193, 0.02502467855811119, -0.18065625429153442, -0.07530679553747177, 0.12850084900856018, -0.08033103495836258, -0.027225475758314133]], [[-0.05518307536840439, -0.19881577789783478, -0.06813669204711914, 0.044122304767370224, 0.2697907090187073, 0.1369478851556778, 0.11583282798528671, 0.16864672303199768, -0.0208574365824461, 0.05062665417790413, -0.2013324350118637, -0.23851491510868073, -0.09387265145778656, 0.1916024088859558, 0.2874527871608734, -0.3688463270664215, 0.21701231598854065, 0.06465137004852295, -0.06260401010513306, 0.11341279000043869, 0.3227710723876953, -0.0648019090294838, -0.010631933808326721, -0.19358080625534058, 0.029016146436333656, 0.030037518590688705, 0.0014545751037076116, -0.14886578917503357, -0.1905192881822586, -0.2819563150405884, -0.20694862306118011, 0.1328880339860916, -0.08807505667209625, -0.4358524978160858, -0.3709149956703186, -0.008703569881618023, 0.3589320480823517, -0.28262069821357727, -0.24224048852920532, 0.27023255825042725, 0.21276719868183136, 0.1195898950099945, 0.028081219643354416, 0.1488809883594513, 0.01680993288755417, 0.030922751873731613, 0.02827882580459118, -0.04090586304664612, -0.019879335537552834, 0.09185028821229935, -0.04775870591402054, -0.08150780946016312, -0.05067772790789604, -0.1408970206975937, -0.1978730708360672, 0.2056024968624115, 0.07948294281959534, -0.3403530418872833, -0.2992756962776184, -0.03799877688288689, -0.22738119959831238, 0.3178848624229431, 0.03619440644979477, 0.17889878153800964], [-0.12517614662647247, -0.016712360084056854, 0.34614062309265137, 0.022410986945033073, 0.043531302362680435, 0.22398994863033295, 0.3906806707382202, 0.12870211899280548, 0.17369917035102844, -0.2517889738082886, -0.37050414085388184, -0.07851964235305786, 0.1580885946750641, -0.041533514857292175, 0.07403939217329025, -0.1432880163192749, -0.18522301316261292, 0.18642279505729675, 0.2522711753845215, 0.3914801776409149, 0.29151487350463867, 0.19424112141132355, -0.1316492110490799, -0.31984490156173706, -0.11771976947784424, -0.17502187192440033, 0.14072422683238983, -0.14214345812797546, -0.06979280710220337, 0.008617515675723553, -0.12330085784196854, 0.1273542195558548, 0.06256232410669327, -0.18008656799793243, 0.02687927521765232, -0.043462272733449936, -0.15972931683063507, 0.05902518332004547, -0.0919608622789383, 0.04667209833860397, 0.0813802033662796, 0.08757660537958145, 0.5421321392059326, 0.21823842823505402, -0.2871714234352112, 0.31201860308647156, 0.037124622613191605, 0.26017051935195923, 0.10736086964607239, -0.047374989837408066, -0.22183404862880707, -0.14695800840854645, 0.04395586997270584, 0.06443436443805695, 0.0530276745557785, 0.08362718671560287, 0.17658410966396332, -0.38504162430763245, -0.03060557320713997, 0.10731089860200882, 0.27826061844825745, 0.21533972024917603, -0.21624146401882172, 0.030575556680560112], [-0.27069091796875, 0.045298490673303604, -0.012328572571277618, -0.03944007679820061, 0.10694754868745804, 0.19561371207237244, -0.0715566948056221, -0.20812936127185822, 0.07767239958047867, 0.23231709003448486, -0.2978956401348114, -0.07455433905124664, -0.1594899445772171, -0.07113739848136902, -0.02146315760910511, -0.20443882048130035, 0.0020304995123296976, 0.03834158182144165, -0.05284805968403816, 0.4180097281932831, 0.1501653492450714, 0.20025798678398132, -0.266620397567749, -0.5166139602661133, 0.12571248412132263, 0.10812605172395706, 0.4947429895401001, -0.1642807275056839, -0.2688395380973816, 0.08741216361522675, -0.26438748836517334, 0.05510629713535309, -0.02241041325032711, -0.23215824365615845, 0.06930895149707794, 0.3371289372444153, -0.3404309153556824, 0.13781538605690002, 0.26910680532455444, 0.1300496906042099, -0.1365414410829544, 0.184517502784729, 0.10158080607652664, -0.04059687256813049, 0.24846656620502472, 0.27257052063941956, -0.13892753422260284, -0.09224724024534225, 0.024770449846982956, 0.27040016651153564, 0.2119929939508438, -0.2769473195075989, -0.22125184535980225, -0.002252369187772274, 0.2653677761554718, 0.0277219470590353, 0.28420743346214294, 0.07720343768596649, 0.10370118170976639, -0.2481982260942459, -0.005654729902744293, 0.048233870416879654, -0.07500854879617691, 0.19448570907115936]], [[-0.07258433103561401, 0.003930862061679363, 0.05340730398893356, 0.3252931833267212, -0.049045540392398834, -0.15553753077983856, -0.08874590694904327, -0.23106244206428528, -0.11091137677431107, -0.12362726032733917, 0.3317753076553345, -0.0863250344991684, 0.04382999986410141, -0.1886565238237381, 0.06904421001672745, -0.06809966266155243, -0.35320451855659485, 0.05112070590257645, -0.09119247645139694, 0.20600548386573792, 0.269631028175354, -0.25067585706710815, 0.35501131415367126, 0.41397935152053833, 0.19239966571331024, 0.21721181273460388, -0.4107104241847992, -0.26712802052497864, 0.07031337171792984, 0.012861792929470539, 0.086312435567379, 0.04660867154598236, 0.09465253353118896, 0.07363023608922958, 0.033826131373643875, -0.2561042010784149, -0.15648379921913147, 0.2650441527366638, 0.0665707066655159, -0.2341793179512024, -0.15051937103271484, 0.059626948088407516, -0.3136705756187439, 0.13779453933238983, 0.28185662627220154, 0.1497892141342163, -0.26536208391189575, -0.08035586029291153, -0.08933320641517639, -0.07153254747390747, 0.511516273021698, -0.5542432069778442, 0.11892800778150558, 0.09723491221666336, -0.004974118899554014, 0.1272084265947342, -0.15846765041351318, -0.1739010214805603, 0.12039723247289658, 0.11523745208978653, -0.29082760214805603, -0.12831968069076538, -0.07025415450334549, 0.04387376829981804], [-0.04678409919142723, -0.11986657232046127, 0.0017539943801239133, 0.1235332190990448, -0.13447991013526917, -0.263916939496994, -0.17907950282096863, 0.08443612605333328, 0.06056728586554527, -0.17296624183654785, 0.06344449520111084, 0.08035899698734283, 0.09197420626878738, -0.19198459386825562, 0.3441524803638458, -0.027934972196817398, -0.10051640123128891, 0.041469670832157135, 0.004926742520183325, -0.08489134907722473, -0.04592253640294075, 0.02600722387433052, 0.3489433526992798, 0.3813568949699402, 0.11414752900600433, -0.07936137169599533, -0.17681457102298737, -0.002585203852504492, -0.31320491433143616, -0.08497431874275208, 0.11468439549207687, 0.11636976152658463, 0.010988116264343262, 0.1025313287973404, -0.010691367089748383, -0.19801682233810425, 0.286467969417572, -0.23381370306015015, -0.09515514969825745, -0.28584450483322144, 0.20266945660114288, -0.023551849648356438, 0.002351307077333331, 0.1571875810623169, -0.3041938543319702, 0.15079176425933838, -0.0010831115068867803, 0.12064763158559799, 0.008168199099600315, -0.1420217603445053, 0.2537546157836914, -0.31910306215286255, 0.2995433211326599, 0.07709008455276489, -0.1859770119190216, 0.20265395939350128, -0.05221766605973244, -0.04231277108192444, -0.09167712181806564, -0.04145676642656326, 0.02240326628088951, -0.16610853374004364, 0.12744440138339996, 0.048839736729860306], [-0.16955040395259857, 0.1998656839132309, -0.17842940986156464, 0.12790480256080627, -0.11657677590847015, -0.13588674366474152, -0.11805577576160431, 0.10642533004283905, 0.26079046726226807, 0.047218337655067444, 0.11153792589902878, -0.425354927778244, -0.06071187183260918, -0.10886706411838531, 0.14254090189933777, -0.3471911549568176, -0.18963037431240082, 0.318602055311203, -0.08906356245279312, -0.2393942028284073, -0.07274104654788971, -0.21554997563362122, 0.2975653409957886, 0.13660584390163422, 0.15766532719135284, 0.13336898386478424, -0.03251956030726433, -0.06329336762428284, 0.031196754425764084, 0.16248711943626404, -0.12761956453323364, -0.12073498964309692, -0.06808849424123764, 0.11530844867229462, -0.1195320412516594, -0.08640296757221222, -0.11930513381958008, 0.09770143032073975, 0.1619713008403778, 0.17851029336452484, 0.026236072182655334, 0.07156582921743393, -0.06483212858438492, 0.06069159507751465, 0.25240516662597656, 0.3281533420085907, -0.10736086219549179, -0.3784343898296356, 0.03610655665397644, 0.37085163593292236, 0.4377240538597107, -0.32904016971588135, 0.030504431575536728, 0.01044132374227047, 0.20037727057933807, 0.045274768024683, -0.035293858498334885, -0.0969490110874176, -0.05114211514592171, -0.021242830902338028, -0.10162632912397385, -0.08239033818244934, -0.12066246569156647, 0.3536927103996277]], [[0.08053051680326462, 0.29851698875427246, -0.3097574710845947, 0.1333198994398117, -0.12793903052806854, 0.037263136357069016, 0.10186523199081421, 0.04030374065041542, -0.24458062648773193, 0.17149820923805237, 0.05115950107574463, -0.2020728886127472, -0.056415945291519165, -0.029919743537902832, 0.16854029893875122, -0.11815454810857773, 0.03528998792171478, -0.05152128264307976, -0.0384429395198822, -0.1036074310541153, -0.0470377653837204, 0.312142014503479, 0.06321369856595993, -0.18737028539180756, -0.06899726390838623, 0.2287415862083435, 0.24060149490833282, 0.13341869413852692, 0.014892978593707085, 0.1316913515329361, -0.14366070926189423, 0.12254545837640762, 0.35506531596183777, 0.361127644777298, 0.37020963430404663, -0.004183242563158274, -0.033930737525224686, 0.006289719138294458, 0.12590253353118896, -0.09440884739160538, 0.045046187937259674, -0.15358467400074005, 0.22527450323104858, -0.09273241460323334, -0.12806709110736847, -0.008248750120401382, 0.0040013655088841915, -0.02111952193081379, 0.22134120762348175, -0.12992854416370392, -0.008321460336446762, 0.013759351335465908, 0.3668176531791687, 0.06245132163167, -0.14938944578170776, -0.2461426556110382, 0.188698872923851, 0.1482282280921936, -0.14252986013889313, 0.05610872432589531, -0.008852871134877205, -0.11428626626729965, 0.1408756822347641, -0.13366882503032684], [-0.2906267046928406, 0.10228627920150757, -0.17715394496917725, 0.06772434711456299, 0.0066333310678601265, -0.17231377959251404, -0.05647715553641319, 0.1380564272403717, -0.07386328279972076, 0.01103440672159195, 0.19172602891921997, 0.11351777613162994, -0.15031585097312927, 0.43919339776039124, -0.14702901244163513, -0.16302242875099182, 0.23696286976337433, -0.3374098837375641, -0.1726333051919937, -0.018375523388385773, -0.26059818267822266, 0.08672914654016495, 0.04419373348355293, 0.2124795913696289, 0.08993811905384064, 0.0789443850517273, 0.05334126949310303, -0.12430993467569351, -0.3167581558227539, 0.00751403858885169, 0.2695242166519165, -0.08152403682470322, 0.042416468262672424, 0.048179831355810165, 0.13678084313869476, -0.35271763801574707, 0.08449290692806244, -0.007717454805970192, -0.0920940488576889, -0.10258198529481888, 0.1564026176929474, 0.2050732523202896, -0.25067138671875, -0.03600826486945152, 0.0898953527212143, -0.021396579220891, 0.19658257067203522, 0.08694393932819366, -0.32462987303733826, 0.08699700236320496, -0.05161411315202713, 0.2042102813720703, 0.020882511511445045, 0.08487945795059204, 0.0552404522895813, 0.08105680346488953, -0.1897481083869934, -0.22339177131652832, 0.25828424096107483, 0.06731782853603363, -0.0032718265429139137, -0.2850733697414398, -0.08875997364521027, -0.1058289036154747], [-0.09914743155241013, -0.05865224823355675, -0.36811718344688416, 0.15282432734966278, -0.06998679786920547, 0.10455530881881714, 0.049328140914440155, 0.28498706221580505, -0.09007071703672409, -0.19410337507724762, 0.12387958914041519, -0.0321647934615612, 0.10774042457342148, 0.19082702696323395, 0.008099340833723545, -0.05648296698927879, 0.07434229552745819, -0.002164652571082115, -0.12905949354171753, -0.2680176794528961, -0.10172737389802933, -0.17144674062728882, -0.20511329174041748, 0.06091415137052536, 0.3936348557472229, -0.049075037240982056, 0.10394223779439926, -0.2039702832698822, -0.034262772649526596, -0.2032824456691742, -0.019850444048643112, 0.12941251695156097, 0.030288631096482277, 0.2276736944913864, -0.03400902822613716, -0.19550378620624542, -0.15692918002605438, -0.12562204897403717, 0.2864563763141632, -0.029736662283539772, -0.2150818258523941, -0.38383862376213074, -0.013327483087778091, -0.03167560696601868, 0.02089824341237545, 0.011783094145357609, -0.1349695324897766, -0.008773399516940117, 0.1316782385110855, -0.046904269605875015, 0.18472179770469666, 0.18602997064590454, -0.01706536114215851, -0.1945350617170334, 0.04654046893119812, 0.017711084336042404, -0.09483864158391953, -0.13440722227096558, 0.11669045686721802, 0.062485165894031525, 0.07737532258033752, -0.026558799669146538, 0.1319960355758667, 0.05842139199376106]], [[0.30302467942237854, 0.22629103064537048, 0.3069245517253876, -0.06743833422660828, -0.10108847916126251, -0.26708298921585083, 0.013522583059966564, 0.011742240749299526, 0.0911923423409462, 0.0004730056971311569, 0.02297472208738327, -0.1606949269771576, -0.1696227788925171, -0.0004483447119127959, -0.09317493438720703, 0.09389834851026535, 0.11712941527366638, 0.22975166141986847, 0.18746137619018555, 0.088798888027668, -0.4109232425689697, 0.274319052696228, -0.2787705361843109, 0.0163261815905571, 0.15519122779369354, 0.08373884856700897, 0.1190185472369194, -0.09642492979764938, -0.10532718151807785, 0.0792737677693367, 0.05767681077122688, 0.03388325497508049, -0.37691110372543335, -0.053733620792627335, 0.259733647108078, 0.1030285581946373, -0.3415822386741638, -0.0961403027176857, -0.15180239081382751, -0.10926492512226105, 0.2798764407634735, 0.047514595091342926, -0.05549653246998787, -0.14145135879516602, -0.17708557844161987, 0.12263672053813934, 0.03088308870792389, 0.13511744141578674, 0.0825565829873085, 0.32430681586265564, -0.056296829134225845, 0.3206770122051239, 0.3955810070037842, 0.03539344295859337, -0.023616237565875053, -0.023389674723148346, -0.11065763235092163, -0.3015168607234955, -0.15314026176929474, -0.008137992583215237, 0.025529885664582253, 0.31961554288864136, -0.11088075488805771, -0.09229615330696106], [0.1641753762960434, 0.1081126406788826, -0.15827661752700806, -0.12568451464176178, 0.11716342717409134, -0.2878991663455963, 0.11387123167514801, 0.10034098476171494, -0.03539431840181351, -0.13247860968112946, -0.08838024735450745, 0.1537504643201828, 0.4094904661178589, -0.1609528660774231, -0.1465153992176056, -0.21003369987010956, 0.08114692568778992, 0.07561751455068588, -0.01890496164560318, 0.015003438107669353, -0.18481038510799408, -0.14991343021392822, -0.25294142961502075, -0.0015055614057928324, 0.10790178924798965, -0.4307432472705841, 0.1836548149585724, -0.0822233259677887, -0.14326097071170807, -0.04686442017555237, 0.07401936501264572, -0.31119105219841003, -0.1822950839996338, -0.2462138831615448, 0.17758142948150635, 0.14297525584697723, 0.29375436902046204, -0.14522869884967804, -0.02146564982831478, -0.1669858694076538, -0.227134570479393, -0.23281405866146088, -0.20738931000232697, 0.0564163476228714, -0.020013129338622093, 0.25294291973114014, -0.03246861696243286, 0.028971845284104347, -0.009250391274690628, -0.07611306011676788, -0.25573620200157166, 0.023417897522449493, 0.10176799446344376, -0.24653266370296478, -0.06881014257669449, 0.13597792387008667, 0.3200959265232086, -0.00026306274230591953, -0.002127976855263114, 0.07103289663791656, -0.20308075845241547, -0.2274424135684967, 0.2822902798652649, 0.16266053915023804], [0.2894987165927887, 0.2850209176540375, -0.012167119421064854, -0.22893285751342773, 0.002404171973466873, 0.21703234314918518, 0.0970674380660057, 0.007653172593563795, 0.16422472894191742, 0.34165158867836, -0.2126510888338089, 0.259561151266098, -0.24385027587413788, 0.0816013514995575, -0.09706693887710571, 0.09013090282678604, 0.27090853452682495, 0.13176754117012024, 0.21547992527484894, 0.09408833086490631, 0.06808344274759293, -0.16110558807849884, -0.009524950757622719, -0.19453133642673492, -0.10660628974437714, -0.07002343237400055, -0.0604805052280426, -0.2324451208114624, 0.06098131090402603, 0.096572145819664, -0.11175518482923508, -0.08997327089309692, -0.014820815995335579, -0.07620181888341904, 0.15083472430706024, 0.06875688582658768, 0.1130618005990982, 0.2796001136302948, -0.3207195997238159, 0.28115078806877136, -0.22653867304325104, -0.08787156641483307, 0.20470646023750305, 0.3080342710018158, 0.10727287828922272, -0.3044605851173401, -0.26214221119880676, -0.16836266219615936, -0.03652464598417282, 0.004902684595435858, -0.07820267975330353, -0.1640910506248474, 0.06454742699861526, 0.12479167431592941, 0.16158650815486908, -0.15245351195335388, 0.25385722517967224, 0.10674416273832321, -0.09308619797229767, -0.16173520684242249, 0.16948169469833374, 0.1882806271314621, 0.18575096130371094, -0.3519476056098938]]], [[[0.12000641971826553, -0.09634178131818771, 0.10757549107074738, 0.0005159732536412776, 0.07712990790605545, 0.22167591750621796, -0.3599185645580292, -0.03523913398385048, 0.03791842609643936, 0.25135543942451477, -0.2035938799381256, 0.2860180735588074, 0.1901060789823532, 0.049499526619911194, 0.38318294286727905, 0.023472106084227562, -0.07333113253116608, -0.06046203523874283, -0.08243227005004883, 0.3261820673942566, 0.024239055812358856, 0.01173966471105814, -0.003845280036330223, 0.24015593528747559, 0.37740203738212585, -0.2312033772468567, -0.05302243307232857, -0.036217834800481796, 0.14120860397815704, 0.07946696132421494, 0.24730202555656433, -0.06755069643259048, 0.21378476917743683, -0.16719968616962433, 0.30105268955230713, 0.23010408878326416, -0.18232567608356476, -0.09209282696247101, -0.2190762758255005, -0.22818581759929657, -0.012517808005213737, 0.12467122077941895, -0.3566954433917999, 0.44831383228302, -0.034176670014858246, 0.004863751120865345, -0.08511293679475784, 0.0355885773897171, -0.19529178738594055, -0.021425962448120117, -0.15313071012496948, -0.07556676119565964, 0.0797969326376915, -0.0953567773103714, -0.056877829134464264, -0.0812552198767662, 0.2873615026473999, -0.256533145904541, 0.1733483374118805, -0.16440537571907043, 0.31856420636177063, 0.10036913305521011, 0.2017987221479416, -0.1533828228712082], [0.2629219889640808, -0.04974783584475517, -0.17029504477977753, 0.07190070301294327, 0.1599659025669098, 0.015624492429196835, 0.14356602728366852, 0.1392315924167633, 0.2512793242931366, 0.04224902763962746, -0.03595463186502457, 0.12006039917469025, -0.21406972408294678, 0.1636209636926651, 0.018992800265550613, 0.2624858617782593, 0.22700156271457672, 0.05552392452955246, 0.15321005880832672, -0.05649491399526596, 0.030800875276327133, -0.35247209668159485, 0.054619718343019485, 0.3831903636455536, -0.0324680358171463, 0.16082514822483063, 0.05436355620622635, -0.34095385670661926, -0.0515887513756752, -0.10412492603063583, 0.2646287679672241, 0.047595031559467316, -0.06904690712690353, -0.32033589482307434, 0.021575696766376495, -0.15719471871852875, 0.007062993943691254, -0.15811137855052948, 0.26745545864105225, -0.08503304421901703, 0.1161472275853157, -0.06321956217288971, -0.3666624128818512, 0.3743014335632324, 0.1873277872800827, 0.1134977787733078, 0.3219206929206848, -0.24595551192760468, 0.09638991951942444, 0.2848671078681946, -0.0844726637005806, 0.16225573420524597, 0.016012951731681824, -0.3018603026866913, 0.038085874170064926, 0.08997495472431183, 0.1442936211824417, 0.16651351749897003, 0.013646591454744339, -0.035632554441690445, -0.12289846688508987, -0.08308558166027069, -0.29069507122039795, 0.045583125203847885], [0.2839052975177765, -0.24073512852191925, 0.136830672621727, 0.051434945315122604, 0.20662659406661987, -0.006117180921137333, -0.22803615033626556, 0.09906020015478134, 0.04131770879030228, -0.2234129160642624, 0.2941732108592987, -0.028515130281448364, 0.11005854606628418, -0.38501644134521484, 0.17616599798202515, 0.11602835357189178, -0.11469521373510361, -0.19901619851589203, 0.17355337738990784, 0.1088264212012291, -0.26926085352897644, 0.26620814204216003, 0.10391154140233994, -0.14818216860294342, 0.06350545585155487, 0.19264930486679077, -0.36126086115837097, 0.11818616092205048, 0.4138314127922058, -0.0851653441786766, -0.006954974494874477, 0.0001190338225569576, -0.047466691583395004, -0.37940743565559387, 0.2554353177547455, 0.023708436638116837, 0.06802957504987717, -0.05001471936702728, 0.3678765892982483, -0.2257654070854187, -0.11700055748224258, 0.2762461304664612, -0.12530295550823212, 0.05233510583639145, 0.025371048599481583, -0.1298891305923462, 0.10106515884399414, 0.21488061547279358, -0.2677099108695984, 0.07589193433523178, -0.26030537486076355, -0.043878864496946335, 0.1996191442012787, 0.17598475515842438, 0.09715774655342102, -0.02144116722047329, 0.2400321215391159, -0.12720946967601776, -0.030772387981414795, -0.02616645023226738, 0.07432244718074799, 0.13680829107761383, -0.08243681490421295, 0.04640655592083931]], [[-0.06807124614715576, -0.1993347555398941, 0.14590945839881897, -0.4648626148700714, -0.1274382621049881, -0.004395578056573868, -0.07876290380954742, 0.05470220372080803, -0.14073435962200165, -0.10306290537118912, 0.15577544271945953, 0.14954885840415955, 0.1552136242389679, 0.04240548238158226, 0.23998112976551056, 0.12116529047489166, -0.2756558954715729, -0.3304236829280853, 0.051974691450595856, 0.231848806142807, -0.061288345605134964, 0.0494699664413929, -0.015637388452887535, -0.3694762587547302, -0.08084804564714432, 0.12851986289024353, 0.17079521715641022, -0.2285809963941574, 0.017688192427158356, -0.020228246226906776, 0.15624068677425385, -0.15418438613414764, 0.0031769638881087303, 0.27260521054267883, -0.12739883363246918, 0.24998122453689575, 0.09985191375017166, 0.14553800225257874, 0.14008945226669312, 0.03438135236501694, 0.35128891468048096, -0.010477516800165176, 0.42844346165657043, -0.04263721778988838, 0.0441352017223835, 0.16108974814414978, 0.10132599622011185, -0.22486911714076996, 0.2308184653520584, 0.14752529561519623, -0.35329774022102356, -0.23352685570716858, -0.20098204910755157, 0.10484028607606888, 0.17073872685432434, 0.30187490582466125, -0.29890966415405273, -0.0011727088131010532, 0.0313970223069191, 0.1677224040031433, 0.3227473795413971, 0.08483555167913437, -0.2640511095523834, -0.17525823414325714], [0.035197701305150986, -0.2295827716588974, -0.15080827474594116, -0.32294294238090515, -0.2622731029987335, -0.18942396342754364, 0.057082708925008774, 0.08817242085933685, 0.10820803046226501, 0.1170923262834549, 0.1506437361240387, 0.06432117521762848, -0.1917775720357895, -0.05842314288020134, -0.04070001095533371, -0.10322798788547516, -0.09927912056446075, 0.15818646550178528, -0.0943189412355423, 0.017148181796073914, 0.06125711649656296, -0.16250258684158325, 0.18556761741638184, -0.5730904936790466, 0.05210353806614876, 0.0640084370970726, -0.08115997910499573, -0.018631136044859886, 0.01719828136265278, 0.08341138064861298, -0.028406549245119095, -0.16261066496372223, -0.14127106964588165, 0.1983683854341507, 0.021495772525668144, 0.2375945895910263, 0.1469976156949997, 0.21586672961711884, -0.07724451273679733, -0.13130855560302734, 0.1316061168909073, -0.15861070156097412, 0.13585896790027618, -0.051313262432813644, 0.14989815652370453, 0.17482440173625946, 0.15067294239997864, 0.16237396001815796, 0.13655079901218414, 0.05213820934295654, 0.15807531774044037, -0.3268342912197113, -0.06944971531629562, -0.04215880110859871, -0.16393113136291504, 0.19083650410175323, 0.08213188499212265, 0.38265979290008545, -0.36152926087379456, 0.07649372518062592, -0.08646457642316818, -0.2819620966911316, -0.26395782828330994, -0.10203086584806442], [-0.08074559271335602, -0.3124658167362213, 0.4165773391723633, -0.47615739703178406, -0.1773356795310974, -0.17898403108119965, -0.09694667905569077, -0.1923460066318512, 0.25253239274024963, -0.1410669982433319, 0.1798294484615326, -0.015425208956003189, 0.10414111614227295, -0.0002018259110627696, 0.04306706041097641, 0.5054559111595154, -0.10803083330392838, -0.02543007768690586, 0.045808348804712296, 0.04771561920642853, -0.0013674314832314849, 0.1414264291524887, 0.13435716927051544, -0.0337536446750164, -0.11138875782489777, -0.07225177437067032, 0.3631598949432373, 0.03597975894808769, -0.028315534815192223, 0.39764106273651123, -0.14890700578689575, 0.02420368604362011, 0.1807306855916977, 0.3200283646583557, 0.13356368243694305, 0.11022534966468811, -0.2643536925315857, -0.01665789633989334, 0.051312822848558426, 0.06147456169128418, 0.04100560024380684, 0.08202307671308517, 0.41520941257476807, -0.056704603135585785, -0.4014005661010742, 0.28260374069213867, 0.4473070800304413, 0.09692461788654327, 0.02565048635005951, 0.09870695322751999, -0.09649157524108887, -0.1918030083179474, 0.026547716930508614, 0.038876038044691086, -0.19277705252170563, 3.513545016176067e-05, 0.10849311202764511, -0.10015115141868591, -0.17295876145362854, -0.11805696040391922, 0.11005645245313644, -0.2744206488132477, -0.317679762840271, -0.06238708272576332]], [[-0.192335307598114, -0.06823556125164032, 0.06409194320440292, 0.01663355715572834, -0.041699714958667755, 0.051483649760484695, -0.2180694341659546, 0.09300632029771805, -0.028155315667390823, -0.13900154829025269, -0.31857141852378845, 0.14450819790363312, 0.03791418671607971, -0.13759735226631165, -0.029945041984319687, 0.08253192901611328, 0.1957216113805771, 0.07422877103090286, -0.155533567070961, -0.3334120213985443, -0.3494991064071655, -0.04314058646559715, -0.07237158715724945, 0.11834125220775604, -0.2088128924369812, 0.011621875688433647, -0.21985669434070587, -0.07377488911151886, -0.3511791527271271, -0.11983011662960052, 0.14704209566116333, 0.20702332258224487, -0.22112610936164856, 0.16515286266803741, -0.04791567102074623, 0.25980815291404724, 0.18009473383426666, 0.2499079406261444, -0.023934561759233475, -0.3132918179035187, -0.2016201913356781, 0.17629042267799377, -0.12021251022815704, 0.25214922428131104, 0.1936369091272354, 0.03372371569275856, -0.24102552235126495, -0.11101417988538742, -0.09805929660797119, 0.0019549119751900434, 0.1898561716079712, 0.22465667128562927, 0.34986022114753723, -0.01855599693953991, -0.028761880472302437, -0.019994070753455162, -0.08130104839801788, 0.2569137513637543, -0.487488716840744, 0.050239019095897675, 0.09295900166034698, 0.08058042079210281, 0.13800808787345886, 0.19145458936691284], [0.13809894025325775, -0.20286089181900024, 0.06303151696920395, -0.08941715210676193, 0.12673799693584442, 0.07458226382732391, 0.23732039332389832, 0.024715976789593697, 0.09626089036464691, -0.030345503240823746, -0.38208797574043274, 0.37837088108062744, -0.021572208032011986, -0.2122349590063095, 0.055331721901893616, 0.35383686423301697, 0.12244580686092377, -0.05514829605817795, 0.02604188770055771, -0.2864318788051605, -0.23624558746814728, 0.1779245287179947, -0.047763582319021225, 0.17768362164497375, -0.09156094491481781, 0.056762125343084335, -0.32161766290664673, -0.03200635313987732, 0.04614133760333061, 0.006606215611100197, -0.19976472854614258, -0.03466854244470596, 0.13351015746593475, 0.15637479722499847, -0.10362044721841812, -0.36971357464790344, -0.14461061358451843, -0.009325156919658184, 0.050761815160512924, -0.29363003373146057, -0.316140741109848, -0.13156557083129883, -0.020266959443688393, 0.36922186613082886, 0.2760789692401886, -0.11577454209327698, -0.0002978671691380441, -0.0254176314920187, 0.18192441761493683, 0.011107570491731167, 0.09344525635242462, -0.273730605840683, -0.022561971098184586, -0.2051931917667389, 0.27846601605415344, -0.04849809780716896, 0.10958737879991531, 0.24439787864685059, -0.30493736267089844, -0.017239972949028015, -0.2595262825489044, -0.1939980387687683, -0.31408196687698364, 0.008084150962531567], [0.05262775346636772, 0.10038628429174423, -0.03831273317337036, 0.004907085094600916, 0.2527821958065033, 0.05195724964141846, -0.1465654820203781, -0.1880163699388504, -0.05340796709060669, -0.030544128268957138, -0.15016862750053406, 0.07464198023080826, 0.31696364283561707, 0.032409291714429855, -0.14351022243499756, -0.0043174028396606445, 0.16652929782867432, 0.220649853348732, -0.2111605405807495, -0.17452029883861542, 0.1466791182756424, -0.14146184921264648, -0.10227131098508835, 0.10412905365228653, -0.19948400557041168, 0.1188981905579567, -0.18546347320079803, -0.35777491331100464, 0.029598135501146317, -0.0378277450799942, 0.038806743919849396, 0.30128753185272217, 0.053594764322042465, 0.11530158668756485, -0.27127912640571594, -0.21264709532260895, 0.20397812128067017, -0.1514429748058319, -0.03436022251844406, -0.07255501300096512, 0.19738523662090302, 0.17325004935264587, 0.11813146620988846, 0.033575523644685745, -0.17647594213485718, 0.1258859485387802, -0.08976941555738449, 0.022438693791627884, 0.4179030656814575, 0.1286611109972, -0.17150703072547913, -0.16472822427749634, 0.13045161962509155, 0.24992510676383972, -0.2132246047258377, -0.014321538619697094, -0.06029141694307327, 0.012011200189590454, -0.15101267397403717, 0.12153571099042892, 0.08140391856431961, -0.13952983915805817, 0.036879852414131165, 0.2245498150587082]], [[-0.16842205822467804, 0.3220553696155548, -0.395565003156662, 0.08432009071111679, -0.20278781652450562, -0.06346392631530762, 0.16149508953094482, -0.02607879415154457, -0.33131295442581177, -0.20786862075328827, 0.45558589696884155, 0.08466864377260208, -0.24708068370819092, -0.07812521606683731, 0.12776856124401093, -0.13240501284599304, 0.101204514503479, -0.41796502470970154, 0.16568070650100708, 0.18336255848407745, 0.049171626567840576, 0.1008402407169342, -0.14740926027297974, 0.06094890460371971, 0.2036631554365158, 0.13299964368343353, 0.04737250506877899, -0.24708235263824463, -0.17314231395721436, -0.008817425929009914, 0.10413211584091187, -0.0757155790925026, -0.12913674116134644, -0.09071821719408035, -0.07399175316095352, -0.15694493055343628, -0.06326723843812943, 0.33096960186958313, 0.004174842499196529, -0.22940033674240112, 0.0014939354732632637, 0.06081627681851387, 0.05932125076651573, 0.21873819828033447, 0.00819782167673111, -0.19278503954410553, 0.0924849733710289, 0.20361769199371338, 0.10925588756799698, 0.2889280915260315, 0.09933187067508698, 0.2668163776397705, -0.09874177724123001, -0.04462641105055809, -0.12069401144981384, 0.08782650530338287, 0.17067590355873108, 0.10952024906873703, 0.13442763686180115, -0.010240592062473297, 0.38466280698776245, -0.0545872338116169, -0.18855495750904083, -0.06527771055698395], [0.18101926147937775, 0.05385256186127663, -0.37710854411125183, 0.2242504060268402, 0.006955099292099476, 0.08460328727960587, 0.0469377301633358, -0.4682169258594513, 0.19109387695789337, 0.10541810095310211, 0.08037109673023224, 0.36687636375427246, -0.08701401203870773, 0.25020700693130493, -0.027562517672777176, 0.16317711770534515, 0.2320801466703415, -0.10248153656721115, -0.125843346118927, 0.4200935363769531, -0.22347819805145264, 0.10450523346662521, -0.16060088574886322, 0.12590977549552917, -0.11369523406028748, -0.2349412739276886, -0.10156626999378204, 0.06485321372747421, -0.04609394818544388, 0.10367052257061005, 0.080112524330616, -0.33373475074768066, -0.011512856930494308, -0.38296884298324585, -0.10220067948102951, -0.18578971922397614, 0.03180507570505142, 0.05905849114060402, 0.04256055876612663, 0.17216108739376068, -0.026434924453496933, -0.1112750843167305, 0.14239247143268585, 0.14891812205314636, 0.28599390387535095, -0.1907070428133011, 0.20393578708171844, -0.07294014096260071, -0.04235810413956642, -0.057657111436128616, 0.2335222065448761, 0.42587828636169434, 0.1240302100777626, -0.22122719883918762, 0.07416586577892303, -0.05841002240777016, 0.08757949620485306, 0.021121226251125336, 0.23269756138324738, 0.004009305965155363, 0.3054644763469696, -0.21129284799098969, -0.08565326035022736, 0.2065924108028412], [-0.07308713346719742, 0.026663266122341156, -0.11261378973722458, 0.16790111362934113, 0.01937147229909897, 0.361360102891922, -0.15824247896671295, -0.05610737204551697, 0.2547394633293152, 0.2918411195278168, -0.04062533378601074, -0.01218302920460701, 0.17292147874832153, -0.14901432394981384, -0.09260853379964828, 0.32930445671081543, 0.030643660575151443, 0.1554911881685257, 0.010078025981783867, 0.05986594781279564, 0.020673634484410286, 0.044733501970767975, 0.040184136480093, 0.2152213603258133, -0.15801341831684113, -0.060538485646247864, -0.16363827884197235, -0.25596144795417786, 0.08923850953578949, 0.01274577435106039, -0.39273601770401, -0.2616015374660492, 0.03530878946185112, -0.3032996654510498, -0.18049964308738708, -0.12781645357608795, 0.08327824622392654, -0.3467194139957428, -0.29343509674072266, 0.09888191521167755, 0.16709275543689728, 0.16815628111362457, -0.42553800344467163, 0.10148406028747559, -0.22625911235809326, -0.24172396957874298, 0.14535272121429443, 0.25475043058395386, -0.196061909198761, 0.02038627117872238, -0.046950068324804306, 0.3068210184574127, 0.0036060879938304424, 0.1263803094625473, -0.039440423250198364, 0.12821856141090393, -0.08716075867414474, 0.027938388288021088, 0.08958576619625092, 0.18662993609905243, -0.08427141606807709, 0.13756506145000458, 0.10516303777694702, 0.4062432646751404]], [[-0.09713172167539597, 0.0993611067533493, 0.17015448212623596, 0.29066595435142517, 0.20834937691688538, -0.2001848965883255, -0.2629489004611969, -0.029973924160003662, -0.3197055757045746, -0.1468508541584015, -0.302669882774353, 0.054380401968955994, 0.08685259521007538, -0.1923365592956543, -0.4966590106487274, -0.12094312161207199, 0.03609621897339821, -0.23901189863681793, 0.08970478177070618, -0.33990734815597534, -0.05932095646858215, -0.15631069242954254, -0.08515235781669617, 0.03171597793698311, 0.03221828117966652, 0.20868001878261566, 0.2561229169368744, 0.18319085240364075, -0.21627497673034668, -0.017323875799775124, 0.08539985865354538, 0.16291476786136627, -0.03310086950659752, 0.15153203904628754, -0.13563372194766998, 0.02181774005293846, -0.2428063154220581, 0.33154258131980896, 0.059585630893707275, -0.40341633558273315, -0.14250853657722473, -0.12723465263843536, -0.024189425632357597, 0.1341020166873932, -0.14892874658107758, 0.09142468124628067, -0.08405397832393646, -0.1605069935321808, -0.02741992473602295, -0.0431860126554966, 0.00892591942101717, 0.06254275888204575, -0.03522857278585434, 0.17358745634555817, -0.1243458092212677, 0.11407698690891266, 0.029781168326735497, 0.26454535126686096, 0.38837456703186035, -0.09242110699415207, 0.35836124420166016, -0.05121272802352905, 0.2587280571460724, -0.1363634169101715], [-0.3447149395942688, 0.38431960344314575, 0.19903884828090668, -0.007163690868765116, 0.1516881138086319, 0.24326737225055695, 0.22613102197647095, 0.06732256710529327, -0.3249295949935913, 0.1444501429796219, 0.18948546051979065, -0.22095496952533722, -0.16059927642345428, 0.012414172291755676, -0.0031709824688732624, 0.1630890667438507, 0.02268470823764801, 0.33338698744773865, -0.18733905255794525, -0.12099722027778625, -0.03610896319150925, 0.3297707736492157, 0.15246526896953583, -0.18723483383655548, -0.28651323914527893, -0.21318835020065308, 0.021623697131872177, -0.04717189446091652, -0.008825208991765976, -0.12140224128961563, 0.19193390011787415, 0.1278192102909088, -0.0034654035698622465, 0.22773399949073792, 0.03045341558754444, 0.10527436435222626, 0.16613204777240753, -0.25374898314476013, 0.14963757991790771, -0.1681574583053589, 0.15837787091732025, -0.1319606900215149, 0.33041414618492126, 0.05390229821205139, -0.2994958758354187, 0.021228298544883728, 0.10229390114545822, 0.29638636112213135, -0.3811070919036865, -0.09359708428382874, 0.2650080919265747, -0.0476764477789402, -0.02327415719628334, -0.01571933552622795, -0.050483833998441696, -0.13488054275512695, 0.06295673549175262, 0.11266248673200607, 0.147611603140831, -0.08079948276281357, 0.07368510216474533, -0.017794901505112648, -0.11105002462863922, -0.012680763378739357], [-0.150047168135643, 0.36929479241371155, -0.2209904044866562, 0.39183858036994934, -0.19648388028144836, 0.15968753397464752, -0.10749170184135437, 0.1148030012845993, -0.24316801130771637, 0.14088237285614014, -0.10208255797624588, 0.21560432016849518, 0.19648320972919464, 0.04918162524700165, -0.004629834089428186, -0.09525144100189209, -0.14463269710540771, 0.2565721869468689, 0.10565903037786484, 0.05906906723976135, 0.2917592525482178, -0.3629781901836395, 0.015499197877943516, -0.25485509634017944, -0.05278830602765083, 0.17381107807159424, -0.03339619189500809, 0.008808824233710766, -0.1039961725473404, -0.1925584375858307, 0.2935122549533844, -0.05856826528906822, 0.0606372132897377, 0.04054658114910126, -0.07809412479400635, 0.2790399491786957, 0.3230270445346832, -0.2463628202676773, -0.12080010026693344, 0.16428454220294952, 0.09397904574871063, 0.23495160043239594, -0.13661380112171173, 0.1081145852804184, 0.05754890292882919, -0.21637415885925293, -0.16869491338729858, -0.07534046471118927, 0.04502425715327263, -0.2785196304321289, 0.1369667500257492, 0.22085538506507874, -0.2498934417963028, 0.12772388756275177, 0.2107449769973755, 0.3302881121635437, -0.04955326020717621, 0.06675127148628235, 0.31255021691322327, -0.06570636481046677, -0.20958246290683746, 0.12370048463344574, 0.2651706337928772, 0.21729643642902374]]], [[[0.035062093287706375, 0.23930135369300842, -0.3050757646560669, 0.009852067567408085, -0.06372340768575668, -0.025047466158866882, 0.11617299169301987, 0.36234602332115173, -0.09134165942668915, -0.1332465261220932, 0.13434350490570068, 0.28437304496765137, 0.4107525944709778, 0.08512859046459198, 0.039922621101140976, -0.30819016695022583, -0.012164130806922913, 0.12037746608257294, -0.08019000291824341, -0.0015376978553831577, -0.2374574840068817, 0.08392149209976196, 0.38250163197517395, 0.033364903181791306, 0.2632019519805908, 0.32015231251716614, -0.00656602019444108, 0.0015587317757308483, -0.11718782782554626, -0.0031879006419330835, -0.03537450730800629, -0.23760102689266205, -0.08036595582962036, -0.16014528274536133, -0.044360533356666565, 0.03813991695642471, 0.079474538564682, -0.06997468322515488, 0.07830659300088882, 0.09532801061868668, -0.39197540283203125, 0.15660829842090607, -0.02443336509168148, -0.033781856298446655, -0.10654836148023605, 0.10681357234716415, -0.31002530455589294, -0.3510763645172119, -0.4648621082305908, -0.20550771057605743, 0.010433808900415897, -0.062070708721876144, -0.09501636028289795, -0.09678289294242859, 0.33094990253448486, -0.17476046085357666, 0.004418517928570509, 0.3100614547729492, 0.1327468305826187, -0.16333845257759094, -0.05121978744864464, -0.012034351006150246, 0.09803777188062668, 0.06826004385948181], [0.12114851176738739, -0.01862640492618084, 0.09718584269285202, 0.3094680607318878, 0.17014354467391968, 0.09500769525766373, 0.26820552349090576, 0.2934032678604126, 0.21118438243865967, -0.057260118424892426, -0.1031501293182373, -0.19993487000465393, 0.1741330772638321, 0.19873560965061188, 0.28171464800834656, 0.060911525040864944, 0.034276895225048065, -0.12817589938640594, 0.06496716290712357, 0.05114297196269035, -0.007444713730365038, -0.09940150380134583, 0.019550152122974396, 0.15863759815692902, -0.04478461667895317, -0.40493500232696533, -0.005814054049551487, -0.004278191365301609, -0.14969809353351593, -0.10612370818853378, -0.13490267097949982, 0.12169546633958817, -0.04190274700522423, 0.1433965116739273, 0.13216260075569153, 0.0027650855481624603, 0.08146893978118896, 0.15211176872253418, -0.30391380190849304, -0.11145294457674026, -0.12765127420425415, 0.11669045686721802, -0.3381296694278717, -0.3422103524208069, -0.08168701082468033, 0.08524008840322495, -0.35744360089302063, 0.03560077026486397, -0.03223158046603203, 0.07689689099788666, 0.299722820520401, -0.11515352129936218, 0.1861315369606018, 0.29727113246917725, -0.07821017503738403, -0.12271641194820404, -0.21223464608192444, 0.25973838567733765, -0.16150186955928802, -0.2651011049747467, 0.1701270341873169, -0.14935718476772308, 0.17823153734207153, -0.2488110363483429], [0.13512764871120453, -0.26912564039230347, 0.15776723623275757, 0.3660729229450226, -0.03084300272166729, -0.33467909693717957, 0.09465111047029495, -0.11550679057836533, 0.2002987265586853, -0.25004562735557556, -0.18206867575645447, -0.2733924388885498, -0.01673835702240467, -0.01999276876449585, 0.1965600699186325, 0.27384617924690247, -0.3583042025566101, 0.016341403126716614, 0.03230112046003342, 0.21638913452625275, -0.030417395755648613, 0.4276491701602936, 0.023922761902213097, 0.0026281324680894613, -0.40511074662208557, 0.11838416010141373, -0.025924155488610268, -0.06529926508665085, 0.1252625435590744, 0.15073992311954498, -0.07582973688840866, 0.09087180346250534, -0.11743953824043274, 0.2693021297454834, 0.0495150163769722, 0.06878162175416946, -0.1746273934841156, 0.04533740505576134, 0.11639517545700073, -0.1498243659734726, -0.04662979394197464, 0.08284713327884674, -0.2373022735118866, -0.08968425542116165, -0.38934680819511414, -0.10193275660276413, -0.11962298303842545, 0.25485262274742126, -0.23116052150726318, 0.25273624062538147, 0.1728532761335373, 0.05178019031882286, -0.1865394115447998, 0.14441539347171783, -0.19582229852676392, -0.1175134927034378, -0.27797114849090576, 0.12430718541145325, -0.11970743536949158, 0.15691837668418884, -0.3050457239151001, -0.22821247577667236, 0.15437348186969757, 0.11075101792812347]], [[-0.11192891001701355, 0.003127794014289975, 0.13853901624679565, 0.03104974515736103, -0.4529038965702057, 0.18154479563236237, -0.35426023602485657, -0.1255679875612259, -0.09787549078464508, -0.11902763694524765, 0.23270434141159058, 0.2000703364610672, -0.1765415519475937, 0.02287072315812111, -0.21834103763103485, -0.1639222800731659, 0.23398754000663757, -0.3009852170944214, 0.1105366125702858, -0.14826834201812744, -0.2909119725227356, 0.016538573428988457, -0.036460619419813156, -0.14214755594730377, -0.08375653624534607, -0.09070274978876114, 0.45049604773521423, 0.1770058572292328, 0.036063484847545624, -0.19017481803894043, -0.07986290007829666, 0.08209965378046036, 0.13600139319896698, 0.09448278695344925, -0.10464998334646225, 0.19718201458454132, 0.22209523618221283, 0.3701627552509308, -0.048277921974658966, -0.10553763806819916, 0.17812480032444, 0.04217012599110603, 0.07214772701263428, -0.37880581617355347, -0.1578666865825653, -0.20950566232204437, -0.20383009314537048, -0.14990733563899994, 0.36195385456085205, 0.17590013146400452, 0.09545741230249405, -0.07976678013801575, -0.08040640503168106, 0.1911172717809677, 0.40930598974227905, -0.1583472043275833, -0.34262701869010925, 0.12946724891662598, 0.28239262104034424, 0.2056606411933899, -0.010770818218588829, 0.2976430654525757, 0.22693194448947906, -0.31685858964920044], [-0.0960591584444046, -0.10949405282735825, 0.3971155881881714, -0.09917916357517242, -0.0823277086019516, 0.16701827943325043, 0.14597614109516144, -0.06754505634307861, 0.15750738978385925, -0.21962955594062805, 0.25487643480300903, 0.005754050798714161, -0.24117779731750488, -0.002240594010800123, -0.045191988348960876, -0.15146830677986145, -0.10424552112817764, -0.06005337834358215, -0.1806291788816452, -0.24301153421401978, -0.3957926034927368, -0.27483704686164856, 0.23576632142066956, -0.14223775267601013, 0.21887478232383728, -0.3644130825996399, 0.1436547040939331, -0.2265009582042694, -0.06726512312889099, 0.03496093675494194, 0.11398059129714966, 0.07776287198066711, -0.14119581878185272, -0.03863293677568436, -0.2550314664840698, -0.17834977805614471, -0.17545397579669952, -0.34693124890327454, 0.1693190634250641, 0.18545649945735931, 0.03893386945128441, -0.2931336760520935, 0.04418671131134033, -0.09175100177526474, 0.2023010551929474, 0.16525454819202423, 0.004336800426244736, -0.1649019420146942, 0.3222905993461609, -0.1327923983335495, 0.06215933337807655, 0.13496480882167816, -0.2807198464870453, -0.02898949198424816, -0.44963449239730835, -0.016900887712836266, 0.17026393115520477, 0.04362053796648979, 0.23889710009098053, -0.1273481547832489, 0.3491538166999817, -0.031000131741166115, 0.2687819302082062, -0.12834890186786652], [0.19254164397716522, -0.019529396668076515, 0.11320915073156357, 0.15209133923053741, 0.1320926547050476, -0.15804266929626465, -0.09336474537849426, 0.3837814927101135, -0.13716045022010803, 0.18452849984169006, 0.18297672271728516, -0.18039868772029877, -0.2507608234882355, -0.02723112888634205, 0.1478314995765686, -0.06383510679006577, 0.14565928280353546, 0.006753905210644007, -0.15993638336658478, -0.2944382131099701, -0.2446516901254654, -0.08130072057247162, -0.19080036878585815, -0.11319947242736816, 0.14966611564159393, 0.35813209414482117, -0.02722235955297947, 0.051875390112400055, -0.022608259692788124, 0.08157134056091309, 0.032048068940639496, -0.1798728108406067, 0.1793573796749115, -0.1781468689441681, -0.3432331085205078, 0.09534208476543427, 0.07231849431991577, -0.12696243822574615, -0.09632694721221924, 0.20125986635684967, -0.04592673107981682, -0.1017046868801117, 0.026948634535074234, 0.12022604048252106, 0.142520010471344, -0.20184263586997986, 0.3656332194805145, 0.20799516141414642, -0.027308639138936996, -0.030601002275943756, -0.10542858392000198, -0.1231827512383461, 0.09737225621938705, 0.0014261365868151188, -0.02124616876244545, -0.13096539676189423, 0.3410555422306061, 0.1390937715768814, 0.2107846885919571, -0.15969599783420563, 0.01226308848708868, 0.26591721177101135, 0.12488144636154175, 0.29878368973731995]], [[-0.18728645145893097, -0.3002220392227173, -0.03256049379706383, -0.33248910307884216, 0.3246743381023407, -0.09731478244066238, -0.09000463783740997, 0.034370291978120804, -0.19257593154907227, -0.04894370958209038, -0.41648605465888977, 0.20791369676589966, -0.1574191302061081, -0.09196695685386658, -0.084630087018013, -0.09386452287435532, -0.008025591261684895, -0.3660697937011719, 0.18185338377952576, 0.20738928020000458, 0.04790029674768448, 0.14659598469734192, -0.1890624761581421, 0.05907959118485451, 0.1532939374446869, 0.23475590348243713, -0.36725878715515137, 0.08481970429420471, -0.13892047107219696, -0.2151651382446289, 0.10815921425819397, -0.03426775336265564, 0.19527563452720642, -0.09475274384021759, -0.15532609820365906, 0.02129921317100525, 0.20815646648406982, 0.10554113239049911, 0.07566040754318237, -0.15376634895801544, -0.18662585318088531, -0.1040407195687294, 0.2837389409542084, 0.18277576565742493, 0.10994741320610046, -0.07254785299301147, -0.16766662895679474, -0.00888847280293703, 0.40808019042015076, -0.19587917625904083, -0.15494519472122192, 0.0653151273727417, -0.09812316298484802, 0.14539079368114471, 0.12340183556079865, -0.18426015973091125, -0.1976395696401596, 0.03403165563941002, 0.27221810817718506, 0.08398976922035217, -0.16666245460510254, -0.014140930958092213, 0.16443051397800446, -0.21411600708961487], [0.2701004147529602, -0.28439459204673767, 0.3167424499988556, -0.2571204602718353, 0.18894225358963013, 0.1143924668431282, 0.36770015954971313, -0.159108504652977, 0.13584770262241364, 0.16379357874393463, -0.08817689120769501, -0.2667751908302307, -0.17136424779891968, -0.22283194959163666, -0.3326517939567566, 0.2039375603199005, 0.0038302855100482702, 0.015216311439871788, -0.07090438157320023, -0.027836835011839867, -0.10732302069664001, 0.16956877708435059, -0.11038027703762054, -0.03243623673915863, -0.008255229331552982, -0.2758641839027405, 0.007246216293424368, 0.32164669036865234, 0.3965584635734558, -0.09875123202800751, -0.06705350428819656, 0.23695966601371765, -0.06927390396595001, 0.21930177509784698, 0.332764595746994, -0.0680503398180008, -0.14410088956356049, 0.07696057856082916, -0.15657451748847961, -0.2552344799041748, -0.09606167674064636, -0.1243356466293335, 0.0745726227760315, -0.13587458431720734, 0.15771332383155823, 0.12390695512294769, 0.02260809950530529, 0.22681353986263275, 0.4979182779788971, 0.17575587332248688, -0.1332082748413086, 0.09142789989709854, -0.012490405701100826, 0.19942639768123627, 0.06202689930796623, 0.030077805742621422, 0.07978100329637527, 0.2081308513879776, 0.15763740241527557, 0.021343756467103958, 0.07892215996980667, -0.31427648663520813, 0.16643710434436798, 0.06642002612352371], [0.06082484871149063, 0.1967807412147522, -0.27929556369781494, 0.10019933432340622, 0.4011845290660858, 0.0986853539943695, -0.11430373787879944, 0.12192515283823013, 0.381918728351593, 0.0007387875230051577, -0.13716040551662445, 0.023081226274371147, -0.0314299613237381, 0.2097654789686203, 0.2756737172603607, -0.022190336138010025, -0.3241769075393677, 0.3321261703968048, 0.09617224335670471, 0.0311121866106987, 0.014940518885850906, -0.0551820769906044, -0.28881925344467163, -0.028569022193551064, 0.08856118470430374, 0.038310661911964417, 0.05292891710996628, -0.06738704442977905, 0.26752373576164246, 0.2606087625026703, 0.11496178805828094, 0.27742964029312134, -0.21813100576400757, -0.2192879617214203, 0.13338053226470947, -0.029899565503001213, -0.07907109707593918, -0.2581636607646942, 0.1318102926015854, 0.3225742280483246, -0.06942234933376312, -0.0581146739423275, 0.07138362526893616, 0.10265331715345383, 0.08820179849863052, -0.28869470953941345, 0.3391627073287964, 0.13941143453121185, 0.2452041655778885, -0.16051247715950012, -0.21816709637641907, 0.3314014971256256, -0.02084990032017231, -0.03174031153321266, -0.19946080446243286, -0.2769220769405365, 0.05003180354833603, -0.014956114813685417, 0.16278153657913208, -0.1240493580698967, 0.13668331503868103, -0.21419106423854828, -0.12759172916412354, 0.1536664217710495]], [[0.19832220673561096, -0.20003460347652435, -0.08932967483997345, 0.060126081109046936, -0.38656073808670044, 0.0824730172753334, -0.03041117638349533, -0.13777124881744385, 0.14874513447284698, 0.09235735982656479, 0.18175143003463745, 0.06630932539701462, -0.22711209952831268, 0.24448610842227936, -0.26644960045814514, -0.31296825408935547, 0.27011027932167053, -0.1493927240371704, -0.04816316440701485, -0.12467188388109207, 0.018510472029447556, -0.26455923914909363, -0.07524251192808151, 0.2938169240951538, 0.15413177013397217, -0.15072773396968842, -0.3193207085132599, 0.0022050717379897833, 0.08820720762014389, -0.477390855550766, 0.1520305573940277, 0.006075265817344189, -0.21466761827468872, -0.09296705573797226, 0.08632351458072662, -0.009694566950201988, -0.14604438841342926, 0.3765857219696045, 0.0661373883485794, -0.01951761171221733, 0.06655890494585037, 0.19897021353244781, -0.11046350747346878, 0.0018415406811982393, -0.02861972153186798, -0.16154181957244873, 0.018189556896686554, 0.025411242619156837, -0.5393405556678772, 0.07151681929826736, 0.07503928989171982, 0.1962306797504425, -0.058680690824985504, 0.313179075717926, 0.254273384809494, -0.03508072718977928, 0.20701532065868378, 0.09502297639846802, -0.028787625953555107, -0.11666136234998703, -0.17185203731060028, 0.06876356154680252, 0.049112774431705475, -0.21321667730808258], [-0.10999806970357895, -0.24536223709583282, -0.24318456649780273, -0.23475627601146698, -0.13496097922325134, -0.14548362791538239, 0.03740484640002251, 0.027160773053765297, 0.20161467790603638, -0.21338947117328644, 0.0611470565199852, -0.16057561337947845, 0.4328872859477997, -0.008113429881632328, -0.05844105780124664, 0.11015938967466354, 0.11153493076562881, -0.05703871697187424, 0.2426706999540329, 0.35176753997802734, 0.3496267795562744, 0.008522331714630127, 0.01527938898652792, 0.04360344633460045, -0.07920031994581223, -0.2628510892391205, 0.12561380863189697, -0.031022870913147926, 0.38372355699539185, 0.0005637354915961623, -0.1658165603876114, -0.4740002453327179, 0.21813465654850006, -0.08005466312170029, 0.14811202883720398, 0.055028192698955536, 0.06259453296661377, -0.09213034063577652, -0.05569709464907646, 0.19574689865112305, -0.2809367775917053, 0.016952263191342354, -0.21864451467990875, -0.3571113049983978, 0.09055063128471375, 0.2978830933570862, -0.112125463783741, 0.042644139379262924, -0.6128685474395752, 0.019950896501541138, -0.14590933918952942, 0.0006589108379557729, -0.12068741023540497, 0.012855642475187778, -0.3138437271118164, 0.02616862766444683, -0.11566721647977829, -0.02767365053296089, -0.0931793674826622, 0.30307528376579285, -0.03354157134890556, 0.1497376710176468, 0.15338698029518127, 0.018583236262202263], [-0.1947174072265625, 0.15470552444458008, -0.1959051787853241, -0.064725361764431, -0.35739293694496155, -0.26258912682533264, 0.13829107582569122, -0.07721908390522003, -0.14997901022434235, 0.34034958481788635, 0.1671217381954193, -0.14435610175132751, -0.2568874955177307, -0.02107071690261364, -0.24511738121509552, -0.06969209760427475, 0.026366660371422768, 0.16433939337730408, -0.21247105300426483, -0.12238934636116028, 0.14141641557216644, -0.1125664934515953, -0.10056271404027939, 0.18129101395606995, 0.11223132163286209, 0.2646569311618805, 0.20167477428913116, 0.22475017607212067, -0.007473721168935299, 0.16743941605091095, -0.2682514190673828, -0.19275392591953278, 0.015934264287352562, -0.003222440602257848, 0.0770263746380806, -0.21190141141414642, -0.07458307594060898, -0.2979550361633301, 0.0076946052722632885, 0.07680733501911163, 0.10002420097589493, 0.21772706508636475, -0.005661338567733765, -0.286494642496109, -0.10147416591644287, 0.03248510882258415, 0.18422310054302216, 0.06810325384140015, -0.21661509573459625, 0.29117366671562195, 0.013857360929250717, 0.19920818507671356, 0.102669358253479, -0.2655700743198395, 0.03378453105688095, -0.22620420157909393, -0.2630089521408081, -0.12918336689472198, -0.15730321407318115, 0.34343066811561584, -0.17453888058662415, 0.2131078541278839, -0.1486605703830719, 0.017016077414155006]], [[-0.1705985814332962, 0.025547880679368973, 0.05543319135904312, 0.19384191930294037, 0.18327143788337708, -0.20180708169937134, -0.349913626909256, -0.24577638506889343, -0.02620566450059414, -0.36774468421936035, -0.023345233872532845, -0.16877545416355133, -0.07225635647773743, 0.06243348494172096, -0.10785310715436935, -0.1520790159702301, -0.2179110050201416, -0.2538355588912964, -0.00022401833848562092, 0.06044614315032959, 0.42872190475463867, 0.059049610048532486, -0.05758592486381531, -0.10940023511648178, 0.054336220026016235, -0.009900731034576893, -0.23608237504959106, -0.039509065449237823, -0.05538749694824219, 0.16544115543365479, -0.04011446237564087, 0.1533953994512558, -0.021385500207543373, 0.04000210389494896, 0.013876904733479023, -0.007922835648059845, -0.40114372968673706, 0.01587126962840557, 0.0009541785693727434, -0.23792637884616852, 0.2398783415555954, 0.06385890394449234, 0.13617074489593506, 0.029862383380532265, -0.004753669258207083, 0.07325990498065948, -0.2814268469810486, -0.21344059705734253, 0.1384769231081009, -0.3818942904472351, 0.03577591851353645, -0.05233161896467209, -0.13801711797714233, 0.3287143111228943, 0.3900116980075836, 