{"conv1_w": [[[[0.13717040419578552, 0.026791347190737724, 0.0455574132502079, 0.21762213110923767, 0.10585436224937439, 0.05549798160791397, -0.0952179953455925, -0.02718266099691391, 0.2219323068857193, 0.034760862588882446, 0.07173792272806168, 0.17630618810653687, 0.015656881034374237, -0.057596832513809204, 0.0627557784318924, -0.05814320594072342, -0.09841866791248322, -0.040230102837085724, 0.02224969118833542, -0.04969295486807823, -0.09084466099739075, -0.24604667723178864, -0.034839335829019547, -0.029434483498334885, -0.12284970283508301, 0.12545146048069, -0.06162387505173683, 0.015818189829587936, -0.010448502376675606, -0.02046363800764084, -0.028627952560782433, -0.18857894837856293, -0.023848464712500572, 0.09104960411787033, 0.01131739467382431, -0.030740737915039062, -0.055513378232717514, -0.04691895842552185, -0.018329350277781487, -0.1382938027381897, -0.031164193525910378, -0.031788114458322525, -0.008968538604676723, 0.013485522009432316, 0.09748347103595734, -0.05911099165678024, 0.07449720054864883, -0.10718332976102829, -0.0983254611492157, -0.020967908203601837, 0.017061125487089157, 0.050404421985149384, -0.1223159208893776, -0.02424200437963009, 0.13766221702098846, 0.0336453877389431, -0.20566532015800476, -0.01646193489432335, -0.05502912402153015, 0.03056677058339119, 0.03156822919845581, 0.12909464538097382, 0.017266947776079178, 0.010846050456166267], [0.02605070360004902, -0.0912226065993309, 0.13382135331630707, 0.16675281524658203, -0.05832715332508087, 0.0028181374073028564, -0.03649110719561577, -0.07387181371450424, 0.11315871775150299, -0.014634726569056511, 0.08948694914579391, 0.07476507127285004, 0.13298551738262177, -0.07954797893762589, 0.08108972758054733, -0.07119154930114746, -0.012008796446025372, 0.027665605768561363, 0.0012973432894796133, -0.05448293685913086, -0.053741779178380966, -0.08130671828985214, -0.03452972322702408, 0.024636272341012955, -0.12651406228542328, 0.0248661357909441, 0.1299777776002884, -0.0011291321134194732, 0.009325604885816574, -0.053104110062122345, 0.025991402566432953, -0.10968858748674393, 0.05990191549062729, 0.07243267446756363, -0.050004858523607254, 0.06596305221319199, -0.01224229671061039, -0.15274351835250854, -0.008133359253406525, 0.03530735895037651, 0.0657503679394722, -0.14092670381069183, -0.046294569969177246, 0.1181015819311142, -0.09708920866250992, -0.0371316522359848, 0.06342745572328568, -0.06397490948438644, 0.0336584709584713, -0.005030485335737467, -0.0025474822614341974, 0.16125893592834473, -0.11967670917510986, 0.1040303036570549, -0.03939782455563545, -0.07657178491353989, 0.01799038238823414, 0.02265848219394684, -0.04656168073415756, -0.07006961107254028, 0.07697999477386475, -0.02601194567978382, 0.06877905130386353, -0.03162047639489174], [-0.058424968272447586, -0.14907698333263397, 0.07529620826244354, -0.0005355796311050653, -0.006369784940034151, -0.05744197592139244, -0.11330509185791016, 0.0007463754154741764, 0.1292581409215927, -0.04093006253242493, 0.10697456449270248, 0.038257356733083725, 0.03082488477230072, -0.06834844499826431, -0.039156511425971985, 0.003116097766906023, -0.07817412912845612, 0.024601463228464127, -0.0549263134598732, 0.08852900564670563, -0.16831932961940765, 0.049726326018571854, -0.08227329701185226, -0.1274825930595398, -0.14553819596767426, -0.0394321084022522, -0.07129751890897751, -0.0011333076981827617, -0.008663823828101158, 0.01586202345788479, 0.00817109551280737, -0.04366470128297806, 0.05877258628606796, 0.05074242874979973, 0.0277129914611578, 0.07786871492862701, 0.041995126754045486, -0.028466667979955673, -0.03245583176612854, 0.09254851192235947, 0.0667884424328804, -0.002792400075122714, 0.026170309633016586, 0.003223415231332183, -0.0306105874478817, -0.03522050380706787, -0.002454594476148486, 0.04863613843917847, -0.03056165762245655, -0.011312099173665047, -0.01734793558716774, 0.1073625460267067, -0.17146238684654236, 0.05511876195669174, -0.08559265732765198, 0.10814432054758072, 0.17761756479740143, 0.07041221112012863, 0.05194537341594696, 0.029878707602620125, -0.0025962465442717075, -0.05154541879892349, 0.08351340144872665, 0.0504264160990715]], [[0.06487427651882172, -0.057671207934617996, 0.18061214685440063, -0.045505255460739136, 0.13499842584133148, 0.14554305374622345, 0.07915078848600388, 0.032258037477731705, 0.06667040288448334, 0.10485311597585678, -0.14825326204299927, 0.2592453956604004, -0.06151902675628662, 0.001404471113346517, -0.01905822940170765, -0.04373301938176155, -0.08919516950845718, -0.08075984567403793, 0.10724890232086182, 0.007283064071089029, -0.06716588884592056, 0.01500979159027338, -0.0445697046816349, -0.021609192714095116, 0.082970030605793, 0.08806271106004715, -0.14593346416950226, 0.03416573628783226, 0.0013352453242987394, -0.002013616729527712, -0.038272324949502945, -0.16335104405879974, -0.11915192753076553, -0.14232750236988068, -0.05226100608706474, -0.05718999356031418, -0.08949999511241913, -0.06578560173511505, 0.024684607982635498, -0.11932852119207382, 0.051609817892313004, -0.15360206365585327, -0.0538385771214962, -0.12153562158346176, 0.09593898057937622, 0.03249119967222214, 0.04774412885308266, -0.0993352010846138, -0.1312563270330429, -0.07717626541852951, -0.042999640107154846, 0.056535664945840836, -0.10704919695854187, 0.022337960079312325, -0.10980324447154999, 0.06500494480133057, -0.12833577394485474, -0.10551631450653076, -0.07004144042730331, -0.020151402801275253, 0.07956677675247192, 0.03329499438405037, -0.0273802001029253, -0.032595179975032806], [0.014053000137209892, -0.05118732526898384, 0.11228974908590317, 0.049583323299884796, -0.027303988113999367, 0.2014705091714859, 0.08726659417152405, -0.13442079722881317, 0.09644955396652222, 0.03460225090384483, -0.06415554881095886, 0.11947476863861084, -0.21358872950077057, 0.04429241269826889, -0.02834463305771351, -0.027164895087480545, -0.03457790985703468, 0.09848428517580032, 0.0033233612775802612, 0.03421866148710251, -0.04572705551981926, 0.1600019931793213, -0.04230693355202675, 0.056547731161117554, -0.03493909165263176, 0.051753319799900055, -0.04460589960217476, 0.014683438464999199, -0.07379293441772461, 0.09300041943788528, -0.03555049002170563, -0.12192431837320328, -0.06587725877761841, -0.10766357183456421, 7.996305066626519e-05, -0.03338005021214485, -0.030551470816135406, -0.0830003172159195, 0.025838933885097504, 0.0517474040389061, 0.09224788099527359, -0.07996656000614166, 0.005692176520824432, -0.10616336017847061, -0.08118385821580887, -0.038596391677856445, 0.0034436199348419905, -0.11636516451835632, 0.0871635377407074, -0.030900707468390465, 0.038832198828458786, 0.21705476939678192, -0.08305687457323074, 0.037413615733385086, -0.12162142246961594, -0.10001339018344879, 0.004403714556246996, -0.013131202198565006, 0.11179399490356445, -0.020534371957182884, 0.08185351639986038, -0.04257270693778992, -0.026030920445919037, -0.02228020504117012], [-0.1233208179473877, -0.09161099791526794, 0.11317649483680725, -0.061312150210142136, -0.22746776044368744, -0.01512454729527235, 0.06922132521867752, -0.0819609984755516, 0.06916432082653046, 0.09358429163694382, -0.11916138231754303, 0.11153147369623184, -0.14777405560016632, 0.031660132110118866, -0.05860873684287071, 0.020608309656381607, -0.031830254942178726, -0.05276291072368622, -0.08347620815038681, 0.1008835956454277, -0.01270363200455904, 0.07982110232114792, -0.05022856220602989, -0.07538507133722305, 0.010863845236599445, 0.0037835175171494484, -0.16615928709506989, 0.007268127519637346, 0.03635849803686142, 0.059831563383340836, -0.015024138614535332, -0.07768382877111435, -0.10666166245937347, -0.15551532804965973, -0.02540341392159462, -0.02857278846204281, -0.07699824124574661, -0.09678525477647781, 0.04516059532761574, 0.03172870725393295, 0.13102050125598907, 0.14108575880527496, 0.08579634130001068, -0.10870785266160965, -0.024187104776501656, -0.019155630841851234, 0.011937098577618599, 0.0012666545808315277, 0.0516735278069973, -0.049285128712654114, 0.02531271055340767, 0.1515015810728073, -0.1577606350183487, 0.02583814598619938, -0.1209515929222107, 0.08019538223743439, 0.10544341057538986, 0.001701271510683, 0.22819609940052032, 0.14189808070659637, 0.04066094756126404, -0.02556217834353447, 0.09624262899160385, -0.07586026936769485]], [[0.183823361992836, -0.10277557373046875, -0.02661108784377575, -0.16593854129314423, 0.21660837531089783, -0.0388604961335659, 0.05080683156847954, 0.0511232353746891, -0.08883167058229446, 0.01315142959356308, -0.20965254306793213, 0.1712387502193451, 0.12684746086597443, 0.08265767246484756, -0.09952020645141602, -0.023072417825460434, -0.10185840725898743, -0.1047753095626831, 0.08858823776245117, 0.03458460420370102, 0.05408309027552605, -0.14782564342021942, -0.058232277631759644, 0.017476754263043404, 0.04425395280122757, 0.04010613262653351, -0.008847188204526901, 0.0760134607553482, 0.05295374244451523, -0.06092402711510658, -0.03252541646361351, -0.13297589123249054, -0.1375713050365448, 0.08248397707939148, 0.02038981020450592, 0.009019318036735058, 0.03877846151590347, -0.02224322035908699, 0.1106615737080574, -0.08646164834499359, -0.007870334200561047, -0.06787876784801483, -0.02351616695523262, -0.14144732058048248, 0.14899607002735138, 0.04092693328857422, -0.11477635055780411, -0.10444121062755585, -0.06937503069639206, 0.20725788176059723, -0.015623663552105427, 0.07275786250829697, -0.05474100261926651, -0.0729687437415123, -0.17727722227573395, 0.08311894536018372, -0.06561095267534256, -0.15864667296409607, -0.08384440839290619, -0.004314854275435209, 0.02256367914378643, -0.002587502356618643, -0.07237464934587479, 0.013908731751143932], [0.019623402506113052, -0.08455377072095871, -0.10127027332782745, -0.18185628950595856, 0.012311442755162716, 0.007012980990111828, 0.06195149943232536, -0.09476511925458908, -0.024917632341384888, 0.021193912252783775, -0.08492811024188995, 0.12425170838832855, -0.010021831840276718, 0.06648226082324982, -0.09751125425100327, -0.02979976311326027, 0.06467384845018387, 0.07306569814682007, 0.0684775859117508, -0.007184492889791727, -0.035683535039424896, 0.16876131296157837, -0.0035691389348357916, 0.14449825882911682, 0.026801161468029022, 0.08657301962375641, 0.21977300941944122, 0.03496973589062691, 0.02812541276216507, 0.01935935951769352, -0.052031759172677994, -0.012745805084705353, -0.04879147559404373, 0.15204086899757385, 0.005933040753006935, -0.12974822521209717, 0.03041529282927513, 0.018600180745124817, 0.08244828134775162, 0.058048147708177567, -0.010793978348374367, 0.010066944174468517, -0.056060414761304855, -0.09975696355104446, -0.17556142807006836, 0.04229937121272087, -0.11016274988651276, -0.057700201869010925, 0.0911504402756691, 0.11473763734102249, 0.0011842112289741635, 0.11716347187757492, -0.019920239225029945, -0.03286241739988327, 0.02174580842256546, -0.0839204490184784, 0.01426674798130989, -0.013723284937441349, 0.02757120691239834, -0.03596979007124901, -0.07387778162956238, 0.10081664472818375, -0.059191230684518814, 0.03887517750263214], [-0.1396687626838684, 0.04187339171767235, -0.14183244109153748, -0.2055809646844864, -0.3136524260044098, -0.10645180940628052, 0.12676574289798737, -0.15201757848262787, -0.01178625039756298, -0.02633264660835266, -0.08839159458875656, 0.023115037009119987, 0.011755186133086681, -0.01261631865054369, -0.029291857033967972, -0.04392523318529129, 0.007181005552411079, 0.08118555694818497, -0.0484062135219574, 0.15388865768909454, -0.03041980415582657, 0.012104341760277748, -0.04677954316139221, 0.046252235770225525, 0.008619975298643112, 0.05506892502307892, -0.08172575384378433, 0.047602709382772446, 0.017123857513070107, -0.030398691073060036, 0.0227335337549448, -0.09102731198072433, -0.20760497450828552, 0.17448747158050537, 0.03325534984469414, -0.057329002767801285, -0.0428885817527771, -0.03839302435517311, 0.11636073887348175, 0.16819556057453156, 0.09198077023029327, 0.3087543249130249, 0.07379773259162903, -0.11963039636611938, 0.04038025811314583, -0.026939822360873222, -0.07297507673501968, -0.0020271269604563713, 0.06736548990011215, 0.0962337777018547, -0.008201522752642632, 0.06492118537425995, 0.08417343348264694, 0.13802370429039001, -0.02875950187444687, -0.01130235567688942, 0.05706547200679779, 0.005279288627207279, 0.19276949763298035, 0.1556532233953476, -0.009559758938848972, 0.007253401912748814, 0.0315387062728405, 0.0001164628192782402]], [[0.13156799972057343, -0.13601362705230713, -0.0623527355492115, -0.12912075221538544, 0.22704122960567474, -0.17235147953033447, 0.02372014708817005, 0.042164117097854614, -0.146911159157753, -0.059725407510995865, 0.0906858742237091, 0.13017001748085022, 0.03570999577641487, -0.03056981973350048, 0.10001304000616074, 0.07603666186332703, -0.15317262709140778, -0.0650835931301117, 0.13797171413898468, 0.03267868608236313, 0.06375938653945923, -0.19525258243083954, 0.03517023101449013, -0.00659480644389987, 0.09104986488819122, -0.056920893490314484, -0.08087996393442154, 0.10003513097763062, 0.056459829211235046, -0.10064186900854111, 0.04039667546749115, -0.14856916666030884, 0.022057004272937775, -0.14514023065567017, -0.0066967494785785675, -0.06956829875707626, -0.007253756280988455, -0.08616811782121658, -0.02170211635529995, -0.02117125876247883, -0.04677647724747658, -0.026695245876908302, -0.06986987590789795, 0.17724137008190155, 0.0838007852435112, 0.0023260198067873716, -0.058924831449985504, 0.004030951764434576, -0.07054737210273743, -0.08276470005512238, -0.010825305245816708, -0.035993799567222595, 0.11934344470500946, -0.05423817038536072, -0.0485491119325161, 0.03357931971549988, 0.012701353058218956, 0.05343368649482727, -0.07029001414775848, -0.08691449463367462, -0.07276526093482971, 0.01534658670425415, 0.1523846983909607, -0.11398690193891525], [-0.07263917475938797, -0.06597264111042023, -0.1183561459183693, -0.12173689901828766, -0.03247866779565811, -0.0826849639415741, 0.060433126986026764, -0.182000070810318, -0.02617180533707142, 0.042844340205192566, 0.049010712653398514, 0.07454686611890793, -0.02086714468896389, 0.010203801095485687, 0.09163089096546173, -0.01012702751904726, -0.06156729906797409, 0.15530364215373993, -0.0457184799015522, 0.082963727414608, 0.04709970951080322, 0.0122454222291708, 0.005517748650163412, -0.008309543132781982, 0.051537204533815384, 0.05676557123661041, 0.1119290217757225, 0.012267003767192364, 0.012873426079750061, -0.0056798444129526615, 0.09208942204713821, -0.00017530479817651212, 0.04192796349525452, -0.02439046837389469, 0.015124638564884663, -0.14685209095478058, -0.035614900290966034, -0.07186990231275558, -0.003021090757101774, 0.0718112513422966, 0.02541995234787464, 0.0027405871078372, -0.01783416047692299, 0.1407359391450882, -0.1368337869644165, -0.004175800364464521, -0.011076783761382103, -0.05557587370276451, -0.01630515046417713, -0.16083893179893494, -0.039506781846284866, 0.048304375261068344, 0.1216290295124054, -0.03444250300526619, 0.07468683272600174, -0.10039656609296799, -0.021864205598831177, 0.08610399812459946, -0.007476779632270336, -0.11668036878108978, -0.013718700036406517, 0.06690371781587601, 0.1247558444738388, -0.07116221636533737], [-0.19371478259563446, 0.10359285026788712, -0.141545370221138, -0.13880705833435059, -0.30359911918640137, -0.10004103183746338, 0.1507403552532196, -0.14601482450962067, -0.001398350577801466, -0.06835807114839554, 0.08717760443687439, 0.013767053373157978, 0.006484526675194502, -0.0803140178322792, 0.004764384590089321, -0.0012838335242122412, 0.013467361219227314, 0.04824109748005867, 0.007500524632632732, 0.08971233665943146, 0.0090331444516778, 0.0031896489672362804, -0.01774219051003456, -0.032357778400182724, 0.05693169683218002, -0.0122756939381361, -0.08860325813293457, 0.06610676646232605, -0.006367044523358345, 0.027575457468628883, 0.06883129477500916, -0.13861270248889923, -0.07535644620656967, -0.08742860704660416, 0.051382265985012054, -0.0963459387421608, -0.07094279676675797, -0.23928852379322052, -0.03304009139537811, 0.06362836807966232, 0.05591762065887451, 0.25520098209381104, 0.01720227114856243, 0.07247715443372726, 0.05751478672027588, 0.024518843740224838, -0.027135508134961128, -0.01145282294601202, -0.05885706841945648, -0.1963401436805725, -0.0571911595761776, 0.011160093359649181, 0.2083328366279602, 0.07018566131591797, -0.0070666116662323475, 0.022392166778445244, 0.005098982714116573, 0.07297442108392715, 0.0916927307844162, 0.044586069881916046, 0.03553648293018341, 0.021798212081193924, 0.15916797518730164, -0.061553966253995895]], [[0.17048053443431854, -0.074379563331604, -0.05989382788538933, -0.027046039700508118, 0.15274189412593842, 0.06143369898200035, -0.04535658657550812, -0.022167185321450233, -0.07000620663166046, 0.03180507570505142, 0.009351427666842937, 0.18946683406829834, 0.015313287265598774, 0.01779446192085743, -0.03269805386662483, 0.006862676702439785, 0.027031512930989265, -0.0852377787232399, 0.17232348024845123, -0.00496748136356473, 0.1053764671087265, -0.11693638563156128, 0.06421419233083725, -0.07386528700590134, -0.02493916265666485, -0.013741852715611458, -0.07450460642576218, 0.02676224894821644, -0.04539870098233223, -0.08380603790283203, 0.03975661098957062, -0.09505100548267365, 0.13057908415794373, -0.03654883801937103, 0.011908082291483879, 0.07245853543281555, 0.03240735083818436, -0.04920664429664612, -0.09439672529697418, -0.0791521742939949, 0.0018605199875310063, -0.03436903655529022, 0.07257939130067825, 0.08262511342763901, 0.08159922808408737, -0.0652625635266304, 0.010878250002861023, -0.013514673337340355, 0.045246023684740067, 0.02220742590725422, 0.0880064070224762, 0.022158049046993256, 0.15565578639507294, -0.04182683303952217, 0.04142903536558151, -0.06793331354856491, 0.11573628336191177, 0.022697778418660164, -0.13251228630542755, -0.11177120357751846, -0.10984283685684204, -0.05795992165803909, -0.10740946978330612, -0.017925281077623367], [0.006069682072848082, -0.027629710733890533, -0.029773468151688576, -0.0657573714852333, 0.04226617142558098, 0.17813259363174438, 0.08505937457084656, -0.07293780148029327, -0.07217644155025482, 0.008946811780333519, 0.04694261774420738, 0.09289245307445526, -0.022324591875076294, 0.020054738968610764, -0.005049449857324362, 0.04100175201892853, 0.029317935928702354, 0.07307275384664536, 0.015466505661606789, 0.05531589314341545, 0.09432932734489441, 0.1494399756193161, 0.023258009925484657, 0.012923190370202065, -0.026543833315372467, 0.001933668740093708, 0.12507881224155426, 0.03295879065990448, -0.02672855369746685, -0.04146067053079605, -0.10289310663938522, -0.015427078120410442, 0.180143803358078, 0.12493259459733963, 0.020763255655765533, -0.017845608294010162, 0.029909998178482056, -0.01251418236643076, -0.062099773436784744, 0.05436290428042412, -0.030175626277923584, 0.032112471759319305, 0.019466347992420197, 0.059547048062086105, -0.1746480017900467, -0.02789124846458435, 0.0926380604505539, -0.06683801114559174, 0.032719727605581284, -0.004900907166302204, 0.018892623484134674, 0.07016021758317947, 0.1290709376335144, -0.06528060883283615, 0.08879636973142624, -0.14207465946674347, -0.0020103799179196358, 0.02292974479496479, 0.040532052516937256, -0.17216134071350098, -0.13242484629154205, 0.10712270438671112, -0.11252186447381973, -0.03443363308906555], [-0.04938534274697304, 0.004330513067543507, -0.08285301178693771, -0.024985846132040024, -0.2193204164505005, 0.005401590373367071, -0.002819996327161789, -0.08231538534164429, 0.0050596799701452255, -0.10279712080955505, 0.08651889860630035, 0.07312357425689697, 0.015881361439824104, -0.07213989645242691, 0.029255380854010582, -0.09093130379915237, 0.07870330661535263, 0.02256406843662262, -0.010242123156785965, 0.04905981570482254, 0.09542078524827957, 0.06832639873027802, 0.11943262815475464, -0.0004546061099972576, -0.010443797335028648, 0.07255943864583969, -0.043480753898620605, 0.04569926857948303, -0.10094736516475677, 0.015673188492655754, -0.014240403659641743, -0.1265110820531845, 0.06799991428852081, 0.005549971014261246, -0.07534774392843246, -0.10256437212228775, 0.06791689991950989, -0.15855704247951508, -0.15107595920562744, 0.07816089689731598, 0.003025147831067443, 0.09923890233039856, 0.0735359713435173, -0.05359369516372681, 0.07634160667657852, -0.07670734822750092, 0.09098469465970993, 0.017622796818614006, 0.043809667229652405, 0.08112464100122452, 0.026279205456376076, 0.04610202834010124, 0.13752232491970062, 0.04809233546257019, -0.049200691282749176, 0.04625824838876724, -0.10028696060180664, 0.0402466356754303, 0.11616455018520355, -0.03156549856066704, -0.07020170241594315, 0.08064313232898712, -0.08016321063041687, -0.016316575929522514]]], [[[0.041028477251529694, 0.17974823713302612, 0.06690818071365356, 0.0820411890745163, 0.052442099899053574, -0.10213026404380798, -0.036808982491493225, 0.08285750448703766, 0.1557503342628479, 0.020343977957963943, -0.03356170281767845, -0.12973077595233917, 0.10219684988260269, 0.04874727502465248, -0.003404156770557165, -0.06806630641222, 0.06660349667072296, -0.025314657017588615, -0.04334864020347595, -0.02889179438352585, -0.09748842567205429, -0.20397116243839264, -0.12997999787330627, -0.024177471175789833, 0.09546104073524475, -0.034571386873722076, 0.0011643966427072883, -0.013149570673704147, -0.06516202539205551, -0.01368831004947424, 0.04332323372364044, -0.029721906408667564, -0.0015362162375822663, 0.13971012830734253, 0.01869075559079647, 0.053052764385938644, 0.04302828758955002, -0.06358455866575241, 0.007130634970963001, -0.11664120852947235, 0.010363543406128883, -0.10829327255487442, -0.04214845970273018, -0.12109190225601196, 0.062154900282621384, -0.0609159842133522, 0.1633533388376236, 0.043799854815006256, 0.017747005447745323, -0.07463839650154114, -0.020698852837085724, -0.26740771532058716, -0.09316378831863403, -0.12299329042434692, -0.08733724057674408, -0.010001220740377903, -0.11858858168125153, -0.055491283535957336, -0.06642745435237885, 0.0035157580859959126, 0.08354257792234421, 0.044225696474313736, -0.08320362865924835, 0.021234789863228798], [0.07307694107294083, -0.06772040575742722, 0.10866988450288773, -0.02459496259689331, -0.04542316123843193, -0.10813228040933609, -0.021378254517912865, 0.03988824784755707, 0.08988688141107559, 0.018274374306201935, 0.014628096483647823, -0.13247248530387878, 0.17888358235359192, 0.04536597803235054, 0.05252351984381676, -0.017193805426359177, 0.06467641890048981, -0.0025840564630925655, -0.07574360817670822, 0.028116265311837196, -0.08773383498191833, -0.04613316431641579, -0.06071476265788078, 0.16971704363822937, 0.12076450884342194, -0.013098182156682014, 0.27428072690963745, 0.023844629526138306, 0.01444656029343605, -0.20586906373500824, 0.04637765511870384, -0.023259056732058525, 0.0799570232629776, 0.02492697536945343, 0.03894942253828049, 0.1214623674750328, 0.0763229951262474, 0.03232293576002121, -0.07680229097604752, 0.03426379710435867, -0.0024087231140583754, -0.043187107890844345, 0.039719682186841965, -0.0031611158046871424, -0.1097777858376503, -0.09790477156639099, 0.10802533477544785, 0.0221878495067358, 0.020520810037851334, 0.01661507599055767, -0.03991711512207985, -0.22578637301921844, -0.0543154701590538, -0.017335301265120506, -0.16717033088207245, -0.09153541922569275, 0.022388961166143417, -0.05637755244970322, 0.02357257343828678, -0.03614000231027603, 0.09147116541862488, 0.10015165060758591, 0.05772796645760536, 0.06149236112833023], [-0.02814548648893833, -0.09983241558074951, 0.04860416427254677, -0.08242577314376831, -0.00046597287291660905, -0.2117990106344223, -0.0949997678399086, -0.027352487668395042, 0.08668980002403259, 0.07581833004951477, -0.07312896847724915, -0.06417638808488846, 0.08542878180742264, -0.018528101965785027, -0.0410861074924469, -0.0398329496383667, 0.09307543188333511, -0.003094384213909507, -0.020349400117993355, 0.10041447728872299, -0.053251150995492935, 0.05198831111192703, -0.007814965210855007, 0.054381970316171646, 0.03626229986548424, -0.10292845219373703, 0.07610884308815002, -0.026810362935066223, 0.03327261656522751, -0.027303170412778854, -0.0453612245619297, -0.028595268726348877, -0.04078565165400505, -0.004570045042783022, 0.09961532801389694, 0.10371237993240356, 0.08057322353124619, 0.0282655768096447, -0.06742039322853088, 0.04319440573453903, 0.133758544921875, 0.01859595812857151, -0.046847254037857056, -0.07962688058614731, 0.03164035826921463, -0.04980456456542015, 0.02091459557414055, 0.08748926967382431, -0.03180116042494774, 0.04634574055671692, 0.10733554512262344, -0.1442558616399765, -0.14180679619312286, 0.05334637314081192, -0.10449576377868652, 0.09939892590045929, 0.08907574415206909, -0.01880444586277008, -0.11536306142807007, -0.1311010718345642, 0.024944161996245384, -0.0417022705078125, 0.04823684319853783, 0.06861687451601028]], [[0.10422906279563904, 0.06505513936281204, 0.043974317610263824, 0.12127748876810074, 0.08017139881849289, -0.045355770736932755, -0.14153271913528442, 0.15706759691238403, 0.09981245547533035, -0.004010775126516819, 0.039416175335645676, 0.02338213287293911, -0.2747022807598114, -0.20963098108768463, 0.08474747091531754, -0.0005970487836748362, -0.045023202896118164, -0.05597551912069321, -0.09525138884782791, 0.03330058977007866, -0.036818213760852814, -0.03420126065611839, -0.04638567194342613, -0.0364212766289711, 0.20955036580562592, -0.07284484058618546, -0.06833113729953766, 0.023623069748282433, -0.015193953178822994, 0.1004539430141449, -0.04643883556127548, -0.008816526271402836, 0.003465482732281089, -0.07242048531770706, 0.054516904056072235, 0.014043285511434078, -0.04885631799697876, 0.040314845740795135, -0.05065688118338585, -0.16627265512943268, -0.03402131423354149, -0.02680410072207451, -0.00484094675630331, -0.1537853330373764, 0.14391359686851501, 0.02856985665857792, 0.04446655884385109, 0.10117001831531525, -0.055224526673555374, -0.049232594668865204, -0.09630739688873291, -0.17685481905937195, -0.07988084107637405, 0.028581710532307625, -0.18806886672973633, 0.06461334228515625, -0.17153120040893555, -0.14082685112953186, -0.08625099807977676, 0.045104533433914185, -0.1009180024266243, 0.0206394474953413, -0.017586423084139824, 0.1485096514225006], [0.02634606324136257, -0.044772468507289886, 0.07896601408720016, 0.12838202714920044, -0.05369693413376808, -0.020549995824694633, -0.07576742768287659, 0.029394863173365593, 0.010892518796026707, 0.09331852197647095, 0.13198140263557434, -0.09498831629753113, -0.2594623565673828, -0.08887381851673126, 0.06463257223367691, -0.06259064376354218, 0.025085313245654106, -0.01914861798286438, -0.11075089126825333, 0.03489375486969948, -0.06511050462722778, 0.22205814719200134, 0.029465027153491974, 0.044287171214818954, 0.2464269995689392, -0.06368210911750793, 0.15083247423171997, 0.022347530350089073, -0.032771036028862, 0.05410756915807724, -0.07008611410856247, 0.052457474172115326, -0.010854268446564674, -0.2549329698085785, 0.04090743511915207, 0.022692745551466942, -0.028753457590937614, 0.14528723061084747, -0.07256286591291428, -0.07731129229068756, 0.07584135979413986, -0.04012085869908333, -0.07452132552862167, -0.08426173776388168, -0.10192279517650604, 0.03170711547136307, -0.027833374217152596, 0.08559203147888184, 0.04722370579838753, -0.08768126368522644, -0.014691490679979324, -0.16037239134311676, -0.1234726756811142, 0.07598399370908737, -0.13960981369018555, -0.15349240601062775, 0.03499985858798027, -0.03161148726940155, -0.008066779933869839, 0.006020999047905207, -0.09190627932548523, 0.06592292338609695, -0.04393927380442619, 0.07091329246759415], [0.023461265489459038, 0.0032522124238312244, 0.06714184582233429, 0.01967819221317768, -0.11771026253700256, -0.09552560746669769, -0.16274100542068481, 0.015560652129352093, 0.13729365170001984, 0.2318428009748459, 0.014827894978225231, -0.0521237775683403, -0.10079982876777649, -0.14356452226638794, 0.03132764995098114, 0.027525976300239563, 0.0614917166531086, 0.0622405931353569, -0.10252252966165543, 0.012355980463325977, -0.042627234011888504, 0.06389074772596359, -0.009687863290309906, -0.07059276849031448, 0.20069462060928345, -0.04043048620223999, 0.012043323367834091, -0.1035408154129982, 0.0012841662392020226, 0.0034399915020912886, -0.06673558801412582, 0.053199078887701035, -0.0484718382358551, -0.1458079218864441, 0.09420488029718399, 0.11176159977912903, 0.03924421966075897, -0.0029945638962090015, -0.011475687846541405, 0.06500720977783203, -0.011285350657999516, 0.19913974404335022, 0.1138053834438324, -0.18385282158851624, -0.026999838650226593, 0.0840279832482338, -0.007982097566127777, 0.117255300283432, -0.021383769810199738, -0.017347052693367004, -0.041553378105163574, -0.045342206954956055, -0.1165713518857956, 0.029250960797071457, -0.10693196207284927, 0.10343871265649796, 0.11549197882413864, -0.013729088008403778, 0.053251542150974274, 0.003955102525651455, -0.11893358826637268, 0.019108744338154793, 0.011499504558742046, 0.08486974239349365]], [[0.20525585114955902, -0.1111401915550232, -0.17921984195709229, 0.08330721408128738, 0.05342744290828705, -0.048511575907468796, -0.008898437023162842, 0.2784717082977295, -0.08361383527517319, -0.07187716662883759, 0.07907000184059143, 0.056512583047151566, 0.09960625320672989, 0.05938543751835823, -0.14746317267417908, 0.01086945366114378, -0.016467856243252754, 0.0035738858859986067, -0.04737980291247368, -0.10154794901609421, 0.013804088346660137, -0.13355544209480286, 0.13674451410770416, -0.17753790318965912, -0.13247744739055634, -0.04843737185001373, -0.06955727934837341, 0.03487057983875275, 0.04694361239671707, 0.018687866628170013, -0.10107094049453735, -0.06755510717630386, 0.07185471802949905, 0.17935188114643097, 0.022932471707463264, -0.016808781772851944, -0.07298512011766434, 0.09161078929901123, 0.13291366398334503, -0.178031325340271, -0.014864801429212093, -0.054864607751369476, -0.08164777606725693, 0.1658806949853897, 0.21372736990451813, 0.0656195878982544, -0.18631815910339355, 0.08779972046613693, -0.028112003579735756, 0.16456672549247742, -0.07510578632354736, -0.22307085990905762, -0.03181786462664604, 0.018942363560199738, 0.0028540780767798424, 0.0827893540263176, -0.010885601863265038, -0.18446044623851776, 0.01041314098984003, 0.026819266378879547, -0.1036793664097786, -0.05765987187623978, -0.007233433425426483, 0.1891951858997345], [0.1347952038049698, -0.040358059108257294, -0.14118564128875732, 0.07297734171152115, -0.09357196092605591, 0.025443201884627342, 0.07910366356372833, 0.05508573725819588, 0.03032618761062622, 0.0414058119058609, 0.07513073831796646, -0.02916628122329712, 0.059553489089012146, 0.08441416919231415, -0.15852978825569153, -0.07771213352680206, -0.005010302644222975, -0.00956760998815298, -0.07854293286800385, 0.03236352652311325, -0.026801759377121925, 0.18439234793186188, 0.10450723767280579, -0.09814057499170303, -0.0655401349067688, 0.019997797906398773, 0.13319575786590576, -0.03085854835808277, 0.06695537269115448, 0.1200902983546257, 0.0422934889793396, -0.024402933195233345, 0.20209218561649323, 0.24993953108787537, -0.039008717983961105, 0.008535776287317276, -0.06891864538192749, 0.152241051197052, 0.20866796374320984, -0.019238680601119995, 0.012338055297732353, -0.02112109214067459, 0.0018376059597358108, 0.11714460700750351, -0.22110572457313538, 0.10009168833494186, -0.20547600090503693, 0.09592096507549286, 0.08358405530452728, 0.20803730189800262, 0.03355524688959122, -0.19931362569332123, 0.07049936801195145, 0.07239764928817749, 0.08656127750873566, -0.13066211342811584, 0.0036553419195115566, -0.07410978525876999, 0.08481341600418091, 0.08391038328409195, -0.06649959087371826, 0.10486561805009842, 0.06640513241291046, 0.22051666676998138], [0.07743183523416519, 0.09042756259441376, -0.0756523534655571, 0.1132197231054306, -0.11736998707056046, -0.06508766859769821, 0.07851801812648773, 0.06447774916887283, 0.1103682667016983, 0.14078004658222198, 0.02357126772403717, -0.0600133016705513, 0.0712127536535263, 0.03276856616139412, -0.11618596315383911, 0.05743807181715965, 0.06895937770605087, 0.007195613346993923, -0.17561762034893036, -0.035850077867507935, -0.02367483451962471, -0.013448654673993587, 0.0762142688035965, -0.17711101472377777, -0.051867809146642685, -0.03682014346122742, -0.04134330525994301, 0.05834149569272995, 0.061559684574604034, 0.11406558752059937, -0.0511646643280983, -0.007443632464855909, 0.0778057724237442, 0.12000001221895218, 0.008621623739600182, -0.0043078516609966755, -0.0660332664847374, 0.055043913424015045, 0.24570363759994507, -0.0009472647216171026, -0.03428551182150841, 0.16419003903865814, 0.13902337849140167, 0.14104679226875305, -0.0003585388185456395, -0.06661725789308548, -0.17677195370197296, 0.12640155851840973, 0.05287496745586395, 0.17740042507648468, -0.047422390431165695, -0.14650504291057587, 0.07576510310173035, 0.10734710842370987, 0.13841624557971954, 0.08852408826351166, -0.03604378551244736, -0.07735209167003632, 0.2918028235435486, 0.08665342628955841, -0.09887155145406723, 0.03742167726159096, 0.0699247270822525, 0.2291770577430725]], [[0.12536029517650604, -0.14037565886974335, -0.08889243006706238, -0.025977564975619316, 0.15239748358726501, 0.030988644808530807, 0.05937730148434639, 0.27055805921554565, -0.07702919840812683, -0.04409560188651085, -0.1311294287443161, -0.012131846509873867, 0.1271311342716217, 0.16828593611717224, 0.12639164924621582, 0.01795671321451664, -0.08113697171211243, 0.0026242861058562994, -0.020699284970760345, 0.0021029370836913586, 0.11060968786478043, -0.17399081587791443, 0.201187863945961, 0.037206556648015976, -0.1253029853105545, -0.15330862998962402, -0.06551691144704819, 0.030458522960543633, 0.003365875920280814, -0.03905956447124481, 0.19962190091609955, -0.09667342901229858, -0.1206577867269516, -0.1846722513437271, -0.025794630870223045, -0.007487380411475897, -0.10393716394901276, 0.07206925749778748, 0.022175438702106476, -0.12545093894004822, -0.050059325993061066, -0.05777726322412491, -0.009782509878277779, 0.22503702342510223, 0.24728213250637054, 0.018654555082321167, -0.020205382257699966, 0.10155588388442993, -0.08675976097583771, -0.16792863607406616, 0.007637407630681992, -0.23089222609996796, 0.05535205453634262, 0.04781712219119072, 0.02675364539027214, 0.0015859941486269236, 0.09629561007022858, -0.12541215121746063, -0.06263073533773422, 0.13511937856674194, -0.018666759133338928, -0.010158943012356758, 0.047744520008563995, 0.1257757693529129], [0.02084263414144516, -0.06523022800683975, -0.13803081214427948, -0.08147881180047989, -0.06727685779333115, 0.09892835468053818, 0.20612148940563202, 0.1528731882572174, -0.054363347589969635, -0.014821456745266914, -0.1151806190609932, -0.057102009654045105, 0.03184793144464493, 0.15245938301086426, 0.09043218195438385, -0.001635502907447517, 0.02908390946686268, 0.01779835857450962, -0.08580072224140167, -0.009012232534587383, 0.0008217848371714354, 0.0619085468351841, 0.20333553850650787, 0.00995336752384901, -0.1419701874256134, 0.06073613837361336, 0.15906816720962524, 0.030599113553762436, -0.031701941043138504, 0.016892964020371437, 0.17074857652187347, -0.005602931138128042, -0.060883261263370514, -0.012580759823322296, -0.021490754559636116, -0.13155639171600342, -0.10923556983470917, 0.18203532695770264, 0.0827241763472557, -0.015135550871491432, -0.14556410908699036, -0.06693188101053238, -0.017350636422634125, 0.13373570144176483, -0.22420017421245575, 0.03266206011176109, 0.005285683553665876, 0.053773242980241776, -0.03778766468167305, -0.1990300416946411, 0.06968875229358673, -0.10756243020296097, 0.09437718242406845, 0.0006667772540822625, 0.15817885100841522, -0.10695987939834595, 0.01321335043758154, -0.02607862465083599, 0.05765930563211441, 0.09552443772554398, -0.015510800294578075, 0.06709223240613937, 0.11959918588399887, 0.14601609110832214], [-0.008233314380049706, 0.11275111138820648, -0.1217978298664093, -0.02991790696978569, -0.19185222685337067, -0.024429544806480408, 0.10269906371831894, 0.05920933932065964, 0.05000628903508186, -0.039644889533519745, -0.0819963589310646, -0.12478949874639511, 0.021721966564655304, 0.17761749029159546, 0.1290314495563507, 0.05525663122534752, 0.013337558135390282, 0.015399561263620853, -0.13522422313690186, -0.02842550538480282, -0.0024924015160650015, 0.028649840503931046, 0.10422073304653168, 0.07723145186901093, -0.12473638355731964, 0.02202071249485016, -0.1359703689813614, 0.08329995721578598, -0.09151999652385712, 0.017374254763126373, 0.10528034716844559, -0.07238388061523438, -0.08956947922706604, -0.09965631365776062, -0.08438089489936829, -0.16045530140399933, -0.0654907152056694, -0.008903476409614086, -0.0008674466516822577, -0.05589456111192703, -0.05848584696650505, 0.13109321892261505, 0.10077450424432755, 0.13795152306556702, -0.06295408308506012, -0.01796642690896988, 0.0303341057151556, 0.09893712401390076, 0.014431075192987919, -0.19626182317733765, -0.005647826008498669, -0.0398065447807312, 0.1626359224319458, -0.05676671862602234, 0.042634960263967514, 0.13179655373096466, -0.09828745573759079, -0.04278368875384331, 0.2439969778060913, 0.1088704988360405, -0.015775617212057114, 0.033133432269096375, 0.05774442106485367, 0.09705784171819687]], [[0.15304064750671387, -0.11103356629610062, 0.12849485874176025, -0.1055823341012001, 0.14923420548439026, -0.026411231607198715, -0.0942707285284996, 0.26068025827407837, -0.05718797817826271, -0.008123490959405899, 0.006082599051296711, 0.10876057296991348, 0.015078586526215076, -0.12189535796642303, -0.05128961428999901, 0.05840194225311279, -0.07694242894649506, 0.03161349892616272, 0.03610720485448837, -0.04042068496346474, 0.14337195456027985, -0.0770842432975769, 0.03583148494362831, 0.07447373121976852, -0.07123402506113052, -0.1101166158914566, 0.016920575872063637, -0.0022971932776272297, -0.03169858828186989, -0.1287727802991867, -0.10829243808984756, -0.07227540016174316, -0.06682904064655304, -0.016445936635136604, -0.013596348464488983, 0.012780975550413132, -0.0014625800540670753, -0.11828653514385223, -0.17517265677452087, -0.1501259058713913, 0.02185225859284401, -0.015695152804255486, -0.008507461287081242, -0.10386370122432709, 0.14829063415527344, 0.014956103637814522, 0.04180340841412544, 0.07505472004413605, 0.037118759006261826, 0.02873895689845085, 0.10924192517995834, -0.12858659029006958, 0.10237231105566025, 0.03987273946404457, 0.028046688064932823, -0.06742201000452042, 0.11463988572359085, -0.12702980637550354, -0.044090013951063156, 0.041326459497213364, 0.00108735216781497, -0.12258519977331161, -0.10006455332040787, -0.10999477654695511], [0.02288576029241085, -0.04247215762734413, 0.06936486810445786, 0.0010033345315605402, -0.04068605974316597, 0.11302875727415085, 0.029723674058914185, 0.18651902675628662, -0.08397958427667618, -0.026172030717134476, 0.09467744827270508, -0.04295999929308891, -0.04301993548870087, -0.10092944651842117, -0.0057645863853394985, 0.048114243894815445, 0.165854811668396, -0.015644818544387817, -0.052045948803424835, -0.0588759183883667, 0.08053711801767349, 0.07249878346920013, -0.077069953083992, 0.06318827718496323, -0.056525032967329025, 0.08798424154520035, 0.04720659181475639, 0.03404080495238304, 0.0800146758556366, -0.01970600336790085, -0.1727244108915329, -0.02275187149643898, -0.050411805510520935, 0.053413014858961105, -0.014784220606088638, -0.08800100535154343, -0.04061545431613922, 0.0001332662650384009, -0.1465613692998886, 0.011675105430185795, -0.05834989622235298, -0.06391245871782303, -0.01150728203356266, -0.10512472689151764, -0.2555466294288635, 0.001341358874924481, 0.08627886325120926, -0.024486709386110306, 0.04989411681890488, 0.12756818532943726, 0.0338406004011631, -0.04638785496354103, 0.0839117243885994, -0.03503716364502907, 0.04768185690045357, -0.13131698966026306, -0.016981961205601692, -0.09114141762256622, 0.09434285759925842, 0.05219919979572296, -0.030757242813706398, 0.0978715792298317, -0.12448026984930038, -0.043636806309223175], [-0.09037099033594131, 0.022062387317419052, 0.028684023767709732, -0.11473815143108368, -0.17701838910579681, 0.08041831851005554, 0.018425021320581436, 0.08407711982727051, 0.02840530499815941, -0.09788553416728973, 0.06623103469610214, 0.059957243502140045, -0.02602323144674301, -0.1604675054550171, 0.00544687220826745, -0.0173741914331913, 0.054855894297361374, -0.0024459348060190678, -0.18278124928474426, -0.11256273090839386, 0.1110524982213974, 0.0004050360876135528, 0.03483254835009575, 0.03662143275141716, -0.04270897060632706, 0.12046177685260773, 0.005236291792243719, 0.041548680514097214, -0.0583878792822361, -0.017872346565127373, -0.07477381825447083, -0.04478789493441582, -0.1041133925318718, -0.010603019036352634, -0.15443195402622223, -0.18562503159046173, -0.10938723385334015, -0.07344265282154083, -0.19227668642997742, -0.05795775353908539, -0.03579331934452057, 0.00841980054974556, 0.0772210955619812, -0.08546397089958191, 0.04800054803490639, -0.08208197355270386, 0.08967574685811996, -0.003454506164416671, -0.050135307013988495, 0.1247396320104599, -0.07876469194889069, -0.06992140412330627, 0.08162131905555725, -0.12044978886842728, -0.020685387775301933, 0.024616029113531113, -0.15330427885055542, -0.05170142650604248, 0.302100270986557, 0.11679632216691971, 0.013639897108078003, 0.01598808914422989, -0.05197171866893768, -0.07670129090547562]]], [[[-0.16847753524780273, 0.18352700769901276, -0.08912871778011322, -0.07462853193283081, -0.0466318279504776, -0.07098843902349472, 0.060103289783000946, 0.02660890482366085, 0.045067887753248215, -0.07060156017541885, -0.16142050921916962, -0.06447422504425049, 0.041701726615428925, 0.1288064420223236, -0.09957710653543472, -0.03832325339317322, -0.07396401464939117, 0.004431590437889099, 0.05414654314517975, 0.013125989586114883, -0.1302993893623352, -0.1835615038871765, 0.17159654200077057, -0.08183130621910095, 0.12745550274848938, 0.07916486263275146, -0.19794775545597076, 0.06472671031951904, 0.020241979509592056, -0.028271669521927834, -0.016705375164747238, 0.021754436194896698, -0.12108372151851654, 0.08308819681406021, 0.05159035697579384, 0.032644376158714294, 0.079676054418087, -0.034035660326480865, -0.03907662630081177, -0.04179096966981888, -0.09013615548610687, -0.1263296753168106, -0.035731229931116104, -0.13314203917980194, 0.05117287486791611, -0.06331896781921387, 0.1674450784921646, -0.07818932831287384, -0.10477191209793091, -0.04415040463209152, -0.03663455694913864, -0.041958242654800415, 0.0928475558757782, -0.22682857513427734, -0.20330290496349335, -0.004342653788626194, -0.17398759722709656, 0.10110057145357132, 0.08485809713602066, -0.007731371559202671, -0.11056852340698242, -0.02826322801411152, -0.10835328698158264, -0.09601061046123505], [-0.08717101067304611, 0.014419527724385262, -0.03314853087067604, -0.09213979542255402, -0.01682112365961075, -0.07445012032985687, 0.11404028534889221, -0.015020356513559818, -0.009835476987063885, -0.02749812789261341, -0.13915880024433136, -0.09952359646558762, 0.20087096095085144, 0.03987012058496475, -0.06298784911632538, -0.08248919248580933, 0.004268345423042774, -0.049631208181381226, 0.052353762090206146, 0.0476270355284214, -0.11351656913757324, -0.036254677921533585, 0.15532350540161133, 0.039547186344861984, 0.09535012394189835, 0.0841994658112526, 0.03096364252269268, 0.004450163338333368, -0.0184940155595541, -0.15441729128360748, 0.04963008686900139, 0.06696078181266785, -0.023226484656333923, 0.028336841613054276, 0.10258345305919647, 0.1350792646408081, 0.03449857234954834, -0.07435823231935501, -0.04560175910592079, -0.03846845403313637, -0.03193007409572601, -0.05408351123332977, -0.0594625361263752, -0.09555573016405106, -0.05583835765719414, -0.03828921914100647, 0.14890339970588684, 0.05275306478142738, 0.004916715901345015, -0.040947720408439636, -0.015565035864710808, 0.003194575197994709, 0.11456682533025742, -0.1341140866279602, -0.16983649134635925, -0.14988762140274048, 0.03955037146806717, 0.07986991852521896, 0.06388022750616074, 0.0035748400259763002, -0.04049390181899071, 0.1194811463356018, -0.04219873994588852, -0.09601522982120514], [-0.0431005135178566, -0.11561743170022964, -0.05822218954563141, -0.10959958285093307, 0.1351718306541443, -0.08967090398073196, 0.04288868606090546, 0.08614524453878403, 0.06037455424666405, 0.12463390082120895, -0.04924517869949341, -0.04102403298020363, 0.14061032235622406, 0.19029441475868225, -0.12156669050455093, -0.15605103969573975, -0.058810267597436905, -0.018388984724879265, 0.12926311790943146, 0.013979482464492321, -0.0956939160823822, -0.029219212010502815, 0.1356481909751892, -0.07499749213457108, -0.0011627469211816788, 0.018179534003138542, -0.19322150945663452, -0.06287063658237457, 0.01980476640164852, -0.00381950824521482, 0.02520541287958622, -0.036093562841415405, -0.03725840523838997, 0.050863951444625854, 0.1009502112865448, 0.13552823662757874, 0.08956664800643921, 0.07641994208097458, -0.08997195959091187, 0.062372978776693344, 0.013432173058390617, 0.005654042586684227, 0.012870384380221367, -0.16359668970108032, -0.01652257703244686, 0.06332000344991684, 0.13277585804462433, 0.022627059370279312, -0.008649191819131374, 0.0060158418491482735, 0.10587294399738312, 0.009299528785049915, 0.0633017048239708, -0.04514484852552414, -0.1368226706981659, 0.040023323148489, 0.17943397164344788, 0.02282867580652237, -0.11172294616699219, -0.02572678029537201, -0.09422103315591812, 0.04850812256336212, 0.052940789610147476, -0.07223958522081375]], [[-0.11402968317270279, 0.015671998262405396, -0.12648271024227142, 0.02812715619802475, -0.052260469645261765, -0.10093576461076736, -0.10795161873102188, 0.07661081850528717, 0.04952782392501831, -0.04534129425883293, 0.09732624888420105, -0.13581593334674835, -0.2962397336959839, -0.2177761346101761, 0.05975716561079025, -0.06763191521167755, -0.07026846706867218, 0.043350014835596085, 0.028613854199647903, -0.10087161511182785, -0.05867990851402283, -0.006178290117532015, 0.27711644768714905, 0.04830741882324219, -0.14823530614376068, -0.0601990669965744, -0.023389514535665512, -0.010983039624989033, -0.04582614451646805, 0.10722066462039948, -0.1258406937122345, 0.051790110766887665, -0.016235079616308212, -0.17916232347488403, 0.0540807731449604, 0.041096072643995285, 0.2468736469745636, -0.037122007459402084, -0.04110175743699074, -0.08032004535198212, 0.12478549778461456, -0.06275968998670578, -0.04268556460738182, 0.1228577196598053, 0.052180249243974686, -0.08108251541852951, 0.005512005649507046, -0.0028236801736056805, -0.06926010549068451, -0.06162765249609947, -0.1669410616159439, -0.030181139707565308, 0.09865330159664154, -0.16106882691383362, -0.021490097045898438, 0.07274410873651505, -0.10478586703538895, 0.12067749351263046, -0.10890547186136246, -0.027474256232380867, -0.049814678728580475, 0.0014739070320501924, -0.09412366151809692, -0.1416069120168686], [-0.16817507147789001, 0.006923292763531208, -0.14250856637954712, -0.004421961028128862, 0.008194569498300552, -0.047654371708631516, -0.0670560747385025, 0.024292757734656334, 0.047055814415216446, -0.03991791233420372, 0.15937361121177673, -0.07468757033348083, -0.30333957076072693, -0.1648988127708435, 0.06818513572216034, -0.029442068189382553, 0.06577206403017044, -0.0753818228840828, 0.07035314291715622, -0.049890488386154175, -0.045671574771404266, 0.15945661067962646, 0.32329732179641724, 0.06705040484666824, -0.16982080042362213, 0.06462476402521133, 0.1490093171596527, 0.042585793882608414, 0.057710323482751846, -0.10813932120800018, -0.06434749066829681, 0.00018915205146186054, 0.035193849354982376, -0.1678244024515152, 0.06655415892601013, 0.06832613050937653, 0.189533531665802, 0.0875149518251419, -0.1567867249250412, 0.01683705486357212, 0.043654438108205795, -0.0126756327226758, -0.09517768770456314, 0.10095294564962387, -0.05582268163561821, -0.056712329387664795, -0.02798449993133545, 0.0007638828828930855, 0.05260303243994713, -0.006989469286054373, -0.11879009008407593, 0.004556320142000914, 0.11377169191837311, -0.06912138313055038, -0.012728577479720116, -0.09255475550889969, -0.0051298486068844795, 0.1350555419921875, -0.1595330536365509, -0.06752530485391617, -0.006850161589682102, 0.07685082405805588, 0.000842516019474715, -0.09701380133628845], [-0.08895282447338104, -0.0017720538889989257, -0.13709129393100739, -0.061759598553180695, 0.0297333225607872, 0.0012916636187583208, -0.07604967057704926, 0.08842702209949493, 0.05372900888323784, 0.17946487665176392, 0.007563724648207426, 0.0066785672679543495, -0.1439599245786667, -0.12889277935028076, 0.13871410489082336, -0.06832412630319595, 0.06868946552276611, -0.0029232739470899105, 0.03954165056347847, -0.06346455216407776, -0.09440049529075623, -0.01820075698196888, 0.170304074883461, 0.028846275061368942, -0.15171678364276886, 0.10838613659143448, -0.03572172671556473, -0.003281737444922328, 0.08524404466152191, -0.0409572459757328, -0.06985078752040863, -0.04164070263504982, 0.003720772685483098, -0.13600055873394012, 0.11849616467952728, 0.10255706310272217, 0.1647193729877472, -0.02927175536751747, -0.06565013527870178, 0.04359351098537445, -0.10145772993564606, 0.0787132978439331, 0.09594644606113434, 0.05497947335243225, 0.041654687374830246, -0.06234659627079964, -0.0009842205327004194, -0.016152216121554375, 0.011356815695762634, -0.050191257148981094, -0.13590025901794434, 0.04856836795806885, 0.10131517052650452, -0.06677654385566711, 0.05819549784064293, 0.1547762155532837, 0.1154564917087555, 0.09140373766422272, -0.19409367442131042, -0.11996916681528091, -0.09783907234668732, -0.05238620936870575, 0.05252670496702194, -0.1600559502840042]], [[-0.1497749239206314, 0.0032735695131123066, -0.000959010620135814, 0.09540189057588577, -0.035312213003635406, 0.002750289160758257, -0.06565143167972565, 0.035427358001470566, -0.006358476355671883, -0.04193093255162239, 0.13858476281166077, -0.038076043128967285, 0.08539081364870071, -0.13117672502994537, 0.08258258551359177, -0.010290998965501785, -0.08975788950920105, 0.0826847031712532, -0.03172288089990616, -0.05271374061703682, -0.03677833452820778, -0.059133585542440414, 0.10982067137956619, -0.016356060281395912, -0.15115973353385925, -0.1207357868552208, -0.12854063510894775, 0.020595688372850418, 0.007847853936254978, 0.13339155912399292, -0.015325128100812435, 0.04020676016807556, 0.10089116543531418, 0.17797094583511353, -0.020258814096450806, 0.011071921326220036, 0.1260395050048828, -0.033765584230422974, 0.17753808200359344, -0.17166969180107117, 0.037808310240507126, -0.04000825434923172, -0.03676651045680046, 0.2926204204559326, 0.09327775985002518, -0.0037831743247807026, -0.26074346899986267, -0.000755719025619328, -0.054772090166807175, 0.2722669541835785, 0.1011011153459549, -0.01459980383515358, 0.037330497056245804, -0.033598706126213074, 0.015544258989393711, 0.06278953701257706, 0.07430471479892731, -0.02179056406021118, -0.17496344447135925, 0.02245771512389183, 0.05054205283522606, -0.030500583350658417, -0.058653172105550766, -0.06245768442749977], [-0.12337952107191086, -0.010661940090358257, 0.05563344433903694, 0.143024280667305, 0.09323316067457199, 0.07794850319623947, -0.07539428770542145, 0.02123691514134407, 0.0030507934279739857, -0.01266586035490036, 0.2518148422241211, -0.0719442144036293, -0.005004094447940588, -0.16677869856357574, 0.1244208887219429, -0.036720916628837585, 0.008770435117185116, -0.10664179176092148, -0.00960190873593092, 0.013238262385129929, -0.012319051660597324, 0.0896722748875618, 0.09122699499130249, 0.038546591997146606, -0.16551654040813446, 0.10639700293540955, 0.05838612839579582, -0.009273628704249859, -0.09458620101213455, 0.07886544615030289, 0.0035428283736109734, 0.09197927266359329, 0.23502838611602783, 0.22734816372394562, 0.017831850796937943, -0.0033918668050318956, 0.2335728406906128, 0.15326690673828125, 0.2014395296573639, -0.0771150216460228, 0.02194315753877163, 0.014127773232758045, -0.008697065524756908, 0.24877667427062988, -0.1299877017736435, 0.0032031380105763674, -0.2753135859966278, 0.01348825078457594, 3.606732207117602e-05, 0.23677170276641846, 0.10008649528026581, 0.00423844251781702, -0.039481233805418015, 0.06346584111452103, 0.19449329376220703, -0.009013339877128601, -0.013420754112303257, -0.0004467634134925902, -0.17928193509578705, -0.0747581422328949, 0.046851057559251785, 0.04513537511229515, -0.060815583914518356, -0.047816138714551926], [-0.033461038023233414, 0.09464889019727707, 0.07030514627695084, 0.1311802715063095, 0.06547035276889801, 0.0788310319185257, -0.07075506448745728, 0.10075867921113968, 0.024052591994404793, 0.09781322628259659, 0.1176072284579277, 0.04901547729969025, 0.02004554681479931, -0.05529218167066574, 0.03879736736416817, 0.09371417760848999, 0.03082827292382717, -0.0010549795115366578, 0.033520933240652084, -0.058854393661022186, -0.03556346148252487, 0.03639942407608032, 0.08496293425559998, -0.03038402646780014, -0.13375158607959747, -0.005741528235375881, -0.11346302181482315, 0.0024547185748815536, 0.027788128703832626, 0.15209613740444183, -0.035800471901893616, -0.03447245806455612, 0.14664329588413239, 0.202004536986351, 0.03486194461584091, 0.03033195622265339, 0.08945562690496445, 0.007920574396848679, 0.1871599406003952, 0.06032724678516388, -0.06945141404867172, -0.0031317819375544786, 0.10226881504058838, 0.2663154602050781, 0.006039337255060673, 0.01095728948712349, -0.22995810210704803, -0.030390677973628044, 0.011449584737420082, 0.19321046769618988, 0.07103443145751953, 0.04828248918056488, -0.012128492817282677, 0.030873466283082962, 0.1484123021364212, 0.09804659336805344, -0.07755036652088165, -0.009509546682238579, -0.1455862820148468, -0.010123448446393013, 0.06393639743328094, 0.0330287404358387, -0.02243001200258732, -0.009213714860379696]], [[-0.11235110461711884, -0.10717558115720749, 0.0995073989033699, 0.0659906342625618, -0.08537794649600983, 0.15676410496234894, 0.05454285815358162, 0.0748581662774086, -0.07092931121587753, -0.02159818261861801, -0.1239439994096756, -0.017120808362960815, 0.10772618651390076, 0.23205611109733582, -0.21658338606357574, 0.02113979309797287, -0.05420132353901863, 0.13886547088623047, -0.034051477909088135, -0.07422499358654022, 0.09297402948141098, -0.0842055156826973, -0.08939073979854584, 0.07416588813066483, 0.03357300907373428, -0.17473462224006653, -0.10725539922714233, 0.02062314748764038, -0.011658810079097748, 0.004012934863567352, 0.24764734506607056, -0.04163495451211929, -0.0013369263615459204, -0.12296104431152344, -0.03205069899559021, -0.053199782967567444, 0.03917967900633812, 0.11334797739982605, 0.07579603791236877, -0.11949145793914795, 0.06290815770626068, 0.04560031741857529, -0.03586350753903389, -0.017747504636645317, 0.18057607114315033, 0.07748568803071976, -0.0035939132794737816, 0.08830216526985168, -0.1201479583978653, -0.172047421336174, 0.0845671072602272, 0.1276690810918808, -0.1041671633720398, 0.17104670405387878, -0.003352019703015685, 0.09479346871376038, 0.13590411841869354, 0.012193075381219387, -0.1990058869123459, 0.01867091655731201, -0.005634751170873642, -0.07470487058162689, -0.022604217752814293, 0.1734008491039276], [-0.13969528675079346, -0.08007487654685974, 0.05354224517941475, 0.11240348219871521, 0.07675190269947052, 0.07222294807434082, 0.045580532401800156, 0.0176377072930336, -0.057780180126428604, -0.030277416110038757, -0.0349295511841774, -0.09531037509441376, 0.07502996176481247, 0.26711997389793396, -0.1737138032913208, 0.008120501413941383, -0.05153516307473183, -0.03413949906826019, -0.07363051176071167, 0.029208384454250336, 0.0032123911660164595, -0.060844190418720245, -0.16261620819568634, 0.03384877368807793, 0.07640445977449417, 0.018431145697832108, 0.09028534591197968, -0.04537012055516243, 0.0021600457839667797, 0.09001118689775467, 0.2562679350376129, 0.0502576008439064, 0.11358743906021118, -0.11779904365539551, -0.02285998873412609, -0.10686047375202179, 0.14379772543907166, 0.14760152995586395, 0.12370917201042175, -0.0497383289039135, 0.025077546015381813, 0.030487818643450737, 0.060805585235357285, -0.09822019189596176, -0.16980989277362823, 0.11503259837627411, 0.0005023410194553435, -0.03540577366948128, -0.07576462626457214, -0.23752747476100922, 0.07336948812007904, 0.06827834248542786, -0.09161252528429031, 0.09390465170145035, 0.11495251953601837, -0.14850763976573944, -0.03835476562380791, 0.04108073562383652, -0.17354317009449005, 0.01492058765143156, -0.005376208573579788, 0.059197425842285156, 0.07274351269006729, 0.14893178641796112], [-0.10389091074466705, 0.16101838648319244, 0.04149541258811951, 0.05355469882488251, -0.028198005631566048, 0.0840715765953064, 0.06450362503528595, 0.07360505312681198, 0.08331908285617828, 0.012139071710407734, -0.08509661257266998, -0.03746984899044037, 0.020572517067193985, 0.20645128190517426, -0.15607428550720215, 0.07949379086494446, -0.004663171712309122, -0.08388422429561615, -0.07142117619514465, -0.03846804425120354, 0.039392709732055664, -0.08945916593074799, -0.06862549483776093, 0.04014953598380089, 0.030996397137641907, 0.050495292991399765, -0.09627684205770493, -0.034952420741319656, -0.025278983637690544, -0.017456090077757835, 0.2388334721326828, -0.022499041631817818, -0.0566696897149086, -0.0762721449136734, -0.13350006937980652, -0.05263817682862282, 0.0640018954873085, 0.07679801434278488, 0.1883748173713684, -0.042268186807632446, 0.00817674957215786, -0.033750005066394806, 0.15044823288917542, -0.080966055393219, -0.008158553391695023, -0.014894337393343449, 0.08492856472730637, -0.0843794047832489, -0.04104812815785408, -0.2706531882286072, 0.06094886735081673, 0.008539455011487007, -0.08296980708837509, -0.07440708577632904, 0.013518576510250568, 0.023544147610664368, -0.12847042083740234, 0.06259430199861526, 0.03773798421025276, -0.0210978165268898, -0.007065895479172468, -0.026523346081376076, 0.026219742372632027, 0.16342461109161377]], [[-0.010016989894211292, -0.12241879850625992, 0.11355136334896088, -0.12700779736042023, 0.006443611346185207, -0.05507650226354599, 0.014899224042892456, -0.11159344017505646, -0.09801961481571198, -0.041737958788871765, -0.08436460793018341, 0.04525834694504738, -0.11306139081716537, -0.012836161069571972, 0.06946906447410583, 0.08438733965158463, -0.039380475878715515, 0.16213412582874298, 0.0597384013235569, -0.02046217955648899, 0.12931212782859802, 0.013924562372267246, -0.14695419371128082, -0.06961195170879364, 0.11525242775678635, -0.09273027628660202, -0.10832303017377853, 0.03461364656686783, 0.064300537109375, -0.08572141826152802, -0.15772759914398193, 0.019128361716866493, -0.18151964247226715, 0.02967820316553116, -0.1357995569705963, -0.0024970686063170433, -0.06123649328947067, -0.0792166143655777, -0.1164259985089302, -0.009148970246315002, 0.11761102825403214, 0.10118211060762405, -0.016536355018615723, -0.1590377390384674, 0.09984007477760315, 0.06635506451129913, 0.0698094516992569, 0.005740239750593901, 0.05366382747888565, 0.11435852944850922, -0.005685941316187382, 0.13740909099578857, -0.07007340341806412, 0.14105989038944244, -0.03776354342699051, 0.017444748431444168, 0.17152312397956848, 0.032968513667583466, -0.09611018002033234, 0.03554533049464226, -0.05208355188369751, -0.16473010182380676, -0.08173633366823196, 0.06836424767971039], [-0.06518824398517609, -0.06930253654718399, 0.031813327223062515, 0.0035231434740126133, 0.06100476160645485, 0.0915696918964386, 0.15362189710140228, -0.0600711964070797, 0.01470980141311884, 0.03235730901360512, -0.16989025473594666, -0.010620171204209328, -0.04411720857024193, 0.009178484790027142, 0.04915150627493858, 0.05568715184926987, 0.055095527321100235, 0.022074075415730476, -0.04024934023618698, -0.04891304671764374, 0.07441187649965286, 0.14030441641807556, -0.2151123285293579, -0.11074446141719818, 0.13738396763801575, 0.05239609256386757, 0.13452820479869843, 0.012056097388267517, 0.11241801828145981, -0.027063755318522453, -0.20192092657089233, 0.006784995552152395, -0.06006995961070061, 0.06307640671730042, -0.10939790308475494, -0.06549695879220963, 0.0020292606204748154, -0.03856441751122475, -0.18730874359607697, -0.0042067356407642365, 0.1075652539730072, 0.025468872860074043, -0.056881412863731384, -0.19735057651996613, -0.14374402165412903, 0.05833931639790535, 0.1593829244375229, 0.003541563404724002, 0.0791429728269577, 0.046896182000637054, -0.08936908096075058, 0.03585486859083176, -0.11394825577735901, 0.08759770542383194, 0.10484836250543594, -0.08999471366405487, -0.017767028883099556, 0.03461623936891556, 0.018327102065086365, 0.07781185954809189, 0.03036395087838173, 0.017725594341754913, -0.1412903517484665, 0.11398381739854813], [-0.1215454712510109, 0.10161258280277252, 0.0783667340874672, -0.055314838886260986, -0.10237742960453033, 0.08838724344968796, 0.0316283144056797, 0.057675473392009735, 0.06450333446264267, -0.019095448777079582, -0.05376838520169258, -0.024515360593795776, -0.01654403656721115, -0.08988331258296967, 0.08955831080675125, 0.0658407062292099, 0.02181234024465084, -0.05803675577044487, -0.09354335814714432, -0.022835392504930496, 0.1469852775335312, 0.02111547440290451, -0.18429642915725708, -0.08345743268728256, 0.11958078294992447, 0.07076124101877213, -0.08709895610809326, 0.06836070865392685, -0.012876897118985653, -0.13746778666973114, -0.14641360938549042, 0.04564537853002548, -0.20182926952838898, 0.03341401740908623, -0.18226148188114166, -0.14506985247135162, -0.015209468081593513, -0.0498848520219326, -0.16241683065891266, -0.10204703360795975, 0.023754503577947617, -0.01659594289958477, 0.06079039350152016, -0.06814473867416382, 0.020663045346736908, 0.00559430755674839, 0.09495202451944351, -0.00400770828127861, -0.016006438061594963, 0.14403845369815826, -0.10424941033124924, 0.07253383845090866, -0.03740765526890755, -0.1417383849620819, 0.026645075529813766, 0.11561780422925949, -0.18205906450748444, -0.025837380439043045, 0.004058529622852802, 0.023081578314304352, -0.04083492234349251, -0.08033935725688934, -0.10665986686944962, 0.09988538175821304]]], [[[-0.03861172869801521, 0.1724027544260025, -0.10694587230682373, -0.036081522703170776, -0.13504134118556976, 0.11982131749391556, -0.0343782901763916, -0.1263229250907898, -0.009092038497328758, -0.11163318902254105, 0.06735983490943909, -0.11602328717708588, 0.12119824439287186, -0.021579673513770103, 0.09940062463283539, -0.007091899868100882, -0.1327822506427765, 0.05142178386449814, 0.05235610529780388, -0.08267742395401001, -0.07862410694360733, 0.03005395270884037, 0.11122513562440872, -0.0946328341960907, -0.04999351501464844, -0.09504415094852448, -0.10254033654928207, -0.011824616231024265, -0.06071818619966507, -0.029952049255371094, -0.000917283701710403, 0.045866359025239944, 0.0008281791233457625, 0.0826275646686554, 0.11060909181833267, 0.009737693704664707, -0.1100715696811676, -0.09699567407369614, -0.029549051076173782, -0.031797949224710464, 0.11243130266666412, 0.017444945871829987, -0.016796108335256577, -0.01699335128068924, -0.07520966231822968, -0.06249403953552246, 0.12337011098861694, -0.03980414941906929, 0.0032564732246100903, -0.10594930499792099, -0.06824125349521637, 0.13199040293693542, 0.051147863268852234, -0.054978661239147186, -0.1409023404121399, -0.05669461563229561, -0.16132403910160065, 0.13078492879867554, 0.20324210822582245, 0.03215591236948967, -0.05915547162294388, -0.01135416328907013, -0.14961054921150208, 0.02156744711101055], [0.12006738781929016, -0.00664746155962348, -0.17077693343162537, -0.11904002726078033, 0.031681038439273834, 0.08807794004678726, 0.10693144053220749, 0.0009097681031562388, -0.08098404109477997, -0.049547333270311356, 0.10493024438619614, -0.033615753054618835, 0.19578397274017334, 0.0007711591897532344, 0.006646841298788786, -0.07040040194988251, -0.06320365518331528, -0.0629185140132904, -0.022760599851608276, 0.06701891124248505, -0.005410786252468824, 0.014511377550661564, 0.023783186450600624, -0.08083140105009079, 0.01229625754058361, -0.08083921670913696, 0.008203699253499508, 0.031214237213134766, -0.033979736268520355, -0.20676091313362122, 0.033980052918195724, 0.08702344447374344, -0.04073438420891762, 0.0653422474861145, 0.12707531452178955, 0.06008198857307434, -0.10434996336698532, 0.0463186576962471, -0.06529723107814789, -0.07572658360004425, 0.08563698828220367, 0.08925198018550873, -0.0580325648188591, 0.003106523072347045, -0.0043158880434930325, 0.028300674632191658, 0.19777600467205048, 0.08229165524244308, 0.013481533154845238, -0.0848039984703064, -0.054154202342033386, 0.1879124492406845, 0.10747774690389633, 0.07258015871047974, -0.09698466211557388, -0.15263782441616058, 0.011021843180060387, 0.026748143136501312, 0.08454544842243195, -0.020964477211236954, 0.02171090804040432, 0.12098358571529388, -0.08762386441230774, -0.0564420111477375], [0.225483700633049, -0.18750923871994019, -0.06781841814517975, -0.036315545439720154, 0.13030299544334412, 0.018705876544117928, -0.026326552033424377, 0.023334303870797157, 0.04042956978082657, 0.13716387748718262, 0.04852217808365822, 0.059260476380586624, 0.06346533447504044, 0.05001077800989151, 0.06357146054506302, -0.1870681643486023, 0.05218241363763809, 0.034020598977804184, 0.15265873074531555, 0.034059569239616394, -0.11274246871471405, -0.02482103370130062, 0.030377674847841263, -0.07789582014083862, -0.008023524656891823, -0.0392015278339386, -0.10307342559099197, -0.047463901340961456, 0.04085969552397728, 0.030752647668123245, 0.0025487688835710287, 0.02477806806564331, -0.007452509831637144, 0.10391300916671753, 0.19213517010211945, 0.11096655577421188, -0.023610858246684074, 0.02183181792497635, 0.009278994053602219, -0.010653781704604626, 0.002292455406859517, 0.009866205975413322, 0.054394979029893875, 0.014176650904119015, -0.008005309849977493, 0.0937352329492569, 0.10060354322195053, 0.041906725615262985, 0.07605737447738647, 0.032132651656866074, 0.04578423500061035, 0.11626638472080231, 0.1394311636686325, -0.08878709375858307, -0.019474243745207787, -0.02790163643658161, 0.2167712301015854, 0.040482982993125916, -0.016855420544743538, -0.10576093196868896, -0.11997675150632858, 0.024848924949765205, 0.10882972925901413, 0.020585380494594574]], [[-0.1287938356399536, 0.04299922287464142, -0.1867537498474121, -0.07269051671028137, -0.14979389309883118, 0.0854330062866211, -0.06679172068834305, -0.06095478683710098, 0.03484705835580826, -0.0769963338971138, -0.0520208515226841, -0.1263599842786789, -0.22334174811840057, 0.07173517346382141, 0.051057711243629456, -0.028715260326862335, -0.09472312033176422, 0.1246156170964241, -0.05086324363946915, -0.04047505185008049, -0.048248738050460815, 0.16189858317375183, -0.09577739238739014, -0.020075969398021698, -0.199359729886055, -0.10755938291549683, -0.033587079495191574, 0.05241373926401138, 0.11916954070329666, -0.026455340906977654, -0.07724972069263458, 0.012280641123652458, -0.0038091945461928844, -0.22075802087783813, 0.043179869651794434, 0.005456413142383099, -0.10728900879621506, -0.060703638941049576, -0.1439085155725479, 0.08138733357191086, 0.12775488197803497, 0.11009564995765686, -0.07651162147521973, 0.2715635299682617, -0.04184078797698021, -0.11001011729240417, -0.016253119334578514, 0.026051143184304237, 0.04359545186161995, -0.047963712364435196, -0.13820748031139374, 0.22582729160785675, 0.05881815403699875, -0.15349812805652618, 0.08549331873655319, 0.0112669812515378, -0.028621727600693703, 0.0854545310139656, 0.22918523848056793, -0.001706187380477786, -0.06166456267237663, -0.0076618012972176075, -0.050287336111068726, -0.0332537442445755], [0.03683283179998398, 0.0007753128884360194, -0.15902942419052124, -0.12409866601228714, -0.031252313405275345, 0.08026503026485443, -0.028741760179400444, -0.03483179584145546, -0.015198132954537868, -0.035807933658361435, -0.012774047441780567, -0.08827720582485199, -0.18833160400390625, 0.10940565913915634, 0.0020604971796274185, -0.08747358620166779, 0.013041757047176361, -0.0938967615365982, 0.042521774768829346, 0.01081999484449625, -0.023802844807505608, 0.18780617415905, -0.1554984599351883, 0.05014266073703766, -0.2677820920944214, -0.037410762161016464, 0.08520016819238663, 0.04242505878210068, 0.1515372097492218, -0.2146846354007721, -0.1364240199327469, 0.058218907564878464, 0.07029454410076141, -0.27676090598106384, 0.07733695954084396, 0.10710014402866364, -0.06218036636710167, 0.01831456646323204, -0.13301648199558258, -0.08255965262651443, -0.014884648844599724, 0.02875174954533577, -0.06406895816326141, 0.223976269364357, -0.02166893519461155, 0.0016349157085642219, -0.03182363882660866, 0.08232004940509796, 0.09032441675662994, -0.010701545514166355, -0.10215939581394196, 0.17930112779140472, 0.006790868937969208, 0.0031418337021023035, 0.1605650931596756, -0.13097964227199554, 0.00626191683113575, 0.13442642986774445, 0.118426114320755, 0.009036818519234657, 0.11649814248085022, 0.13406474888324738, -0.06696182489395142, -0.036998290568590164], [0.12814868986606598, -0.04882491007447243, -0.12323855608701706, -0.09573248773813248, 0.17689886689186096, 0.08484375476837158, -0.036327823996543884, -0.02285412698984146, 0.06389494240283966, 0.1843768209218979, -0.11464131623506546, -0.030216291546821594, -0.1711949110031128, 0.09603503346443176, 0.023355163633823395, -0.11064768582582474, 0.011405366472899914, -0.019763348624110222, 0.19030994176864624, 0.02949533239006996, -0.09222974628210068, 0.037287406623363495, -0.16838738322257996, 0.018462341278791428, -0.2161414623260498, 0.08119897544384003, -0.12223851680755615, -0.010321857407689095, 0.2085884064435959, -0.13419657945632935, -0.10706204175949097, -0.03730757161974907, -0.025763526558876038, -0.24027672410011292, 0.17472459375858307, 0.10338211804628372, -0.05408449098467827, 0.05263921990990639, -0.15057764947414398, -0.08005036413669586, 0.012442870065569878, -0.10623880475759506, 0.07408251613378525, 0.20170798897743225, 0.04103434458374977, -0.019640691578388214, -0.07161520421504974, -0.04967599734663963, 0.10457814484834671, -0.005591593682765961, -0.14565640687942505, 0.1425205022096634, 0.0953570082783699, -0.057277657091617584, 0.16725295782089233, -0.037670791149139404, 0.06028711050748825, 0.05772392079234123, -0.018580542877316475, -0.0016366596100851893, 0.00322908372618258, 0.021840455010533333, -0.03362301364541054, -0.07274274528026581]], [[-0.11219846457242966, -0.04960877448320389, 0.1573556512594223, 0.05999700725078583, -0.13135631382465363, -0.03191303461790085, 0.05646415799856186, -0.1886572688817978, 0.028158945962786674, -0.01384793408215046, -0.08289359509944916, -0.08615782111883163, 0.12673339247703552, -0.17833523452281952, 0.1564701497554779, -0.035421401262283325, -0.15155352652072906, 0.1435164511203766, 0.010825905948877335, -0.07470370084047318, 0.03567694127559662, 0.1252562254667282, -0.2314947247505188, 0.07609818130731583, 0.16854269802570343, -0.018580319359898567, -0.03525432571768761, 0.08397097140550613, -0.2621549963951111, 0.08157762140035629, 0.046903371810913086, -0.010153239592909813, -0.15676136314868927, 0.2939213216304779, -0.007409023120999336, 0.025850461795926094, 0.07175032049417496, -0.07966966181993484, 0.09531262516975403, 0.13125915825366974, 0.07328009605407715, 0.11221486330032349, -0.11984718590974808, -0.018485944718122482, -0.056243062019348145, -0.06490243971347809, -0.20074281096458435, -0.001811194233596325, 0.04132262244820595, 0.20209728181362152, 0.2712711989879608, 0.20183081924915314, 0.04912105202674866, -0.02968311682343483, 0.052791301161050797, 0.07508718967437744, 0.060060933232307434, 0.022401006892323494, 0.2154560387134552, 0.05008261278271675, -0.04404452070593834, 0.023360516875982285, -0.018182910978794098, -0.18541257083415985], [0.03988730534911156, 0.019474366679787636, 0.15716063976287842, 0.08180813491344452, 0.07580433040857315, -0.02529258280992508, -0.004964848514646292, -0.11521733552217484, 0.05027627944946289, 0.01074712909758091, -0.16021141409873962, -0.098856121301651, 0.011831320822238922, -0.2027508169412613, 0.1699742078781128, -0.047674816101789474, -0.03994292393326759, -0.108038529753685, 0.1305268108844757, 0.06432989984750748, -0.001051910687237978, 0.08677419275045395, -0.24608074128627777, 0.1419549435377121, 0.09665444493293762, 0.0016633423510938883, 0.1949503868818283, 0.08121157437562943, -0.13923722505569458, 0.05233008414506912, 0.07366859912872314, 0.020418787375092506, -0.05821628123521805, 0.19835171103477478, -0.008878742344677448, 0.0492679588496685, 0.05638788640499115, -0.014604400843381882, 0.1343269795179367, 0.019667230546474457, -0.024779237806797028, 0.006638091988861561, 0.03260992839932442, -0.048560190945863724, 0.06714984029531479, 0.07217872887849808, -0.2482108473777771, 0.07338640093803406, 0.13914749026298523, 0.15389545261859894, 0.34209513664245605, 0.16262906789779663, 0.01293226983398199, 0.04160249978303909, 0.0972658097743988, -0.07382147014141083, -0.07417615503072739, 0.0012433803640305996, 0.00033464323496446013, 0.043061643838882446, 0.027595702558755875, 0.07255377620458603, -0.017839785665273666, -0.24438610672950745], [0.22814002633094788, 0.13204053044319153, 0.17246519029140472, 0.09968779981136322, 0.15077917277812958, 0.03369041159749031, 0.02522670291364193, -0.047884851694107056, 0.011203265748918056, 0.18485280871391296, -0.1418069750070572, -0.0008241378236562014, 0.07776503264904022, -0.1186077743768692, 0.12383514642715454, 0.007432587444782257, 0.11385081708431244, -0.07882764935493469, 0.20146842300891876, -0.0356130488216877, 0.02767828106880188, 0.003721528919413686, -0.2107979953289032, 0.10079379379749298, 0.12146929651498795, 0.05501141399145126, -0.06081204116344452, -0.04947291687130928, -0.13177965581417084, 0.15909326076507568, -0.040730517357587814, -0.08116846531629562, -0.08837272971868515, 0.23387964069843292, 0.04370660334825516, 0.041261423379182816, 0.05765066668391228, -0.02576521225273609, 0.04578014090657234, -0.027349382638931274, -0.1021450012922287, -0.20017386972904205, 0.15867246687412262, -0.07065588235855103, 0.014237931929528713, 0.00710156699642539, -0.2060832977294922, -0.015079001896083355, 0.13065692782402039, 0.04453717917203903, 0.25406205654144287, 0.14267107844352722, -0.012398055754601955, -0.04993797466158867, 0.16290520131587982, -0.034271564334630966, -0.05514471232891083, -0.04387655854225159, -0.1102040708065033, -0.07593684643507004, 0.005098806694149971, -0.021938402205705643, -0.013683941215276718, -0.24161942303180695]], [[-0.056565966457128525, -0.11650718748569489, 0.13304074108600616, 0.023963773623108864, -0.108962282538414, -0.07001573592424393, -0.07052896171808243, -0.2399979829788208, -0.1059308871626854, -0.07503653317689896, 0.1690644472837448, -0.0656062439084053, 0.11947132647037506, -0.07888780534267426, -0.1094752848148346, 0.0289089847356081, -0.12674106657505035, 0.17157821357250214, -0.013884957879781723, 0.018746212124824524, 0.05550292134284973, 0.07031428813934326, -0.11963025480508804, -0.02317921817302704, 0.15029360353946686, -0.09012381732463837, -0.04733142629265785, 0.0030221943743526936, 0.0471373051404953, 0.10882646590471268, 0.1888766586780548, 0.09583162516355515, -0.024864165112376213, -0.15123195946216583, -0.009604640305042267, -0.04830029979348183, 0.16148610413074493, -0.013375471346080303, 0.15960052609443665, 0.07006824016571045, 0.00858963094651699, 0.08824081718921661, -0.007482264190912247, -0.24280831217765808, 0.04138105362653732, -0.05844876542687416, 0.018555862829089165, 0.04436266049742699, 0.008495633490383625, -0.2036246657371521, -0.1425526738166809, 0.125628262758255, -0.054511912167072296, 0.104803666472435, -0.03633114695549011, 0.08844272047281265, 0.14980033040046692, 0.07905817776918411, 0.07838445156812668, 0.021208403632044792, -0.0027020236011594534, -0.0812298059463501, 0.06934897601604462, -0.10547070950269699], [-0.013300089165568352, -0.001982963178306818, 0.15061794221401215, 0.09406524151563644, 0.09160579741001129, -0.046394314616918564, -0.017201898619532585, -0.16333363950252533, 0.018097342923283577, -0.046040914952754974, 0.09576307982206345, -0.08115890622138977, 0.09949330985546112, -0.03124827891588211, -0.13367591798305511, 0.03648465871810913, -0.038185592740774155, -0.0867907777428627, 0.08742675185203552, -0.0037844516336917877, 0.025784935802221298, -0.07278220355510712, -0.12357722967863083, -0.06461223214864731, 0.17537130415439606, 0.07987598329782486, 0.221689835190773, -0.029150985181331635, -0.043522804975509644, 0.1741728037595749, 0.22491540014743805, 0.01185237243771553, 0.06383626908063889, -0.16407297551631927, -0.12841542065143585, -0.09962628781795502, 0.19456125795841217, 0.10417479276657104, 0.17847494781017303, 0.031689874827861786, -0.034018274396657944, 0.01743628829717636, -0.021263301372528076, -0.30574116110801697, -0.05586400628089905, -0.0013143699616193771, 0.016961922869086266, -0.01813419722020626, 0.0567871555685997, -0.23166829347610474, -0.17341741919517517, 0.1639503836631775, -0.09786640107631683, 0.14259719848632812, 0.0678987130522728, -0.08652076870203018, -0.03552348539233208, 0.10339730978012085, -0.13264331221580505, 0.028410008177161217, -0.021190984174609184, 0.022614967077970505, 0.07653439044952393, -0.1455080509185791], [0.13634872436523438, 0.10741924494504929, 0.12480154633522034, 0.08516482263803482, 0.10018710047006607, 0.03145751729607582, -0.013230753131210804, -0.06552039831876755, 0.12845316529273987, 0.11412842571735382, 0.12822602689266205, -0.014701676554977894, 0.027459008619189262, -0.08570224791765213, -0.06641409546136856, 0.06900427490472794, 0.12631073594093323, -0.11194659024477005, 0.13254030048847198, -0.03887783735990524, 0.05947232246398926, -0.04138731211423874, -0.05733463913202286, -0.03113865852355957, 0.09372951835393906, 0.10438147932291031, 0.022738086059689522, 0.0007301165605895221, 0.03071313165128231, 0.1757831871509552, 0.21367576718330383, -0.08562605828046799, -0.00483188359066844, -0.04086846858263016, -0.18274612724781036, -0.05091289430856705, 0.15403762459754944, -0.002664335770532489, 0.13376539945602417, -0.030471250414848328, -0.06170809268951416, -0.14933742582798004, 0.1843140572309494, -0.18522457778453827, 0.020292747765779495, -0.07477706670761108, 0.02633977122604847, -0.07312488555908203, 0.056901633739471436, -0.16959665715694427, -0.19021646678447723, 0.05102664232254028, -0.09501094371080399, 0.011535092256963253, 0.03234973922371864, 0.08787725865840912, -0.21278448402881622, 0.021124260500073433, -0.11324948072433472, -0.011359692551195621, 0.017827533185482025, -0.1321372240781784, 0.07310403138399124, -0.11427418887615204]], [[0.09276711195707321, -0.16071338951587677, -0.017559560015797615, -0.05226972699165344, -0.08133991807699203, -0.16750910878181458, -0.08285024017095566, -0.24324460327625275, -0.029625283554196358, -0.02971571311354637, 0.03490201011300087, -0.03464803472161293, 0.019896797835826874, 0.13379910588264465, -0.12065091729164124, 0.05018428713083267, -0.11829619109630585, 0.1665523201227188, 0.019949914887547493, -0.006532185710966587, 0.10658654570579529, 0.21064308285713196, -0.02844672091305256, -0.033255595713853836, -0.03804335370659828, -0.15466204285621643, -0.015232466161251068, 0.022414932027459145, 0.1346450001001358, -0.02026442252099514, -0.1936100274324417, 0.05008939281105995, 0.04418087750673294, -0.04280140995979309, -0.0775747001171112, -0.0744454562664032, 0.11772219836711884, -0.000725721416529268, -0.1304752379655838, 0.07861949503421783, -0.0649302750825882, 0.050602082163095474, -0.0006947794463485479, -0.01913933828473091, -0.012283539399504662, 0.061827223747968674, 0.0764482170343399, 0.04982687532901764, 0.07923225313425064, 0.02110176533460617, -0.07046830654144287, 0.0532834529876709, -0.12099999189376831, 0.18833473324775696, -0.03163663670420647, 0.07909785956144333, 0.20784243941307068, 0.10620521754026413, -0.0043173301964998245, 0.008268717676401138, -0.021073469892144203, -0.005207151174545288, 0.05060071125626564, 0.06991872936487198], [0.0855015441775322, -0.030940504744648933, -0.018092093989253044, 0.038594309240579605, 0.06131654232740402, -0.15480118989944458, 0.024792784824967384, -0.043083880096673965, -0.009164185263216496, -0.0700998306274414, -0.02022407576441765, 0.03216090053319931, -0.0127722704783082, 0.061540864408016205, -0.07235812395811081, 0.1361464112997055, -0.023689404129981995, -0.004387182183563709, 0.09332940727472305, -0.01794920116662979, 0.10446260124444962, 0.037179555743932724, 0.026548238471150398, -0.035450529307127, 0.02152915857732296, 0.10273376107215881, 0.07364901900291443, -0.0029869782738387585, 0.1230521872639656, 0.028615834191441536, -0.18351218104362488, 0.07006888091564178, 0.03497209772467613, 0.05347936227917671, -0.12310939282178879, -0.10678256303071976, 0.052296582609415054, -0.030718645080924034, -0.17041470110416412, 0.037251900881528854, -0.008316189981997013, 0.03304467350244522, -0.036635853350162506, -0.0009645276586525142, -0.05031447857618332, 0.06569965928792953, 0.1737443506717682, 0.1288195103406906, 0.12505429983139038, 0.08440177887678146, 0.009937464259564877, 0.09587762504816055, -0.09985882043838501, 0.14396490156650543, 0.08556665480136871, -0.04911237210035324, -0.038304805755615234, 0.07887547463178635, -0.10641427338123322, 0.07688184827566147, 0.07228848338127136, -0.013452896848320961, 0.008035656996071339, 0.09174635261297226], [0.137876957654953, 0.08075644820928574, -0.04110061749815941, -0.008012528531253338, 0.07210323959589005, -0.038843825459480286, -0.023284241557121277, -0.0028434060513973236, 0.05472192540764809, 0.11227239668369293, 0.014766809530556202, -0.011589870788156986, -0.056944590061903, 0.06808572262525558, -0.04960329458117485, 0.21649615466594696, 0.0023478895891457796, -0.032785218209028244, -0.036376044154167175, -0.04164297506213188, 0.0938701257109642, -0.056088127195835114, 0.08156135678291321, 0.029845742508769035, 0.07363119721412659, 0.07475356757640839, -0.12219657003879547, 0.07484859228134155, -0.017818497493863106, 0.06131860986351967, -0.18660354614257812, 0.037984319031238556, 0.00833848025649786, 0.05493922159075737, -0.1833769977092743, -0.11940585821866989, -0.008893216028809547, -0.034108966588974, -0.098723866045475, -0.05918760597705841, 0.022801008075475693, -0.1354188472032547, 0.0625525414943695, 0.10929267853498459, 0.12493167817592621, -0.0595361664891243, 0.08005242794752121, -0.010918982326984406, 0.10977693647146225, 0.10831934958696365, -0.053688209503889084, 0.041607815772295, -0.14495697617530823, 0.02921363152563572, -0.02445325255393982, 0.10696732252836227, -0.20336948335170746, 0.08585681021213531, -0.037524547427892685, -0.017642756924033165, -0.026371456682682037, -0.01165754348039627, 0.027068881317973137, 0.04230568930506706]]], [[[-0.07618241757154465, 0.0740623027086258, -0.08888238668441772, -0.011034159921109676, -0.05620260536670685, 0.12122241407632828, 0.0050652483478188515, -0.10627246648073196, -0.060808874666690826, -0.05021686479449272, -0.011119752191007137, 0.03469063714146614, -0.009506388567388058, -0.02270682156085968, -0.009231981821358204, 0.04260049760341644, 0.014907905831933022, 0.041030965745449066, -0.08685342222452164, 0.019776582717895508, -0.17159056663513184, 0.028707187622785568, -0.05048206448554993, -0.04699219763278961, -0.03276631236076355, -0.005144053138792515, 0.058495908975601196, -0.04700138419866562, -0.004648486152291298, 0.11652789264917374, -0.030134880915284157, 0.15605312585830688, 0.08274467289447784, 0.1451227366924286, 0.13714709877967834, 0.0007785683847032487, -0.04222997650504112, -0.10885860025882721, -0.027100808918476105, 0.18396423757076263, 0.014560642652213573, 0.07167664915323257, -0.12328822910785675, 0.13831305503845215, -0.030731962993741035, 0.005765156354755163, 0.09563709795475006, -0.01455699186772108, -0.05833713710308075, -0.07250281423330307, -0.04281356930732727, -0.0006230908329598606, 0.10732923448085785, 0.09881420433521271, 0.009938030503690243, -0.0008383552194572985, -0.15800973773002625, 0.0505804643034935, 0.049102671444416046, -0.013758010230958462, -0.06958369165658951, -0.0912073478102684, -0.0568925179541111, 0.030978024005889893], [0.05674424767494202, -0.044197771698236465, -0.04684332013130188, 0.028994964435696602, -0.0035782146733254194, 0.11872279644012451, 0.09330765157938004, 0.0009028186905197799, -0.04851134866476059, -0.046789802610874176, 0.08590789884328842, 0.06685145199298859, 0.07028811424970627, -0.14107805490493774, 0.07238899171352386, -0.0475810170173645, 0.07787486910820007, -0.026630593463778496, -0.04794716462492943, 0.17046323418617249, -0.07805993407964706, -0.1872614175081253, -0.08603455126285553, 0.07599733024835587, -0.017106352373957634, -0.023853493854403496, 0.13697481155395508, -0.050311218947172165, -0.014647920615971088, -0.11559808999300003, 0.02910311333835125, 0.059344805777072906, 0.004128988832235336, 0.1118638813495636, 0.18320439755916595, 0.11435381323099136, 0.030730804428458214, 0.010854446329176426, -0.015386239625513554, 0.024829817935824394, -0.08448603004217148, 0.11505363881587982, -0.12160816043615341, 0.04826813191175461, 0.026394467800855637, 0.06276380270719528, 0.1436605602502823, 0.017900608479976654, 0.003043488133698702, -0.0490267351269722, 0.022456370294094086, -0.05541979521512985, 0.011166227981448174, 0.1919909566640854, 0.038422297686338425, -0.010902908630669117, 0.005178919527679682, -0.03510789945721626, -0.029029034078121185, -0.004766784142702818, 0.049048956483602524, 0.12382408231496811, 0.043795809149742126, 0.04211588576436043], [0.07281337678432465, -0.05283986032009125, 0.013749961741268635, 0.02674761973321438, 0.1889599710702896, 0.09444180876016617, 0.0011015344643965364, 0.01935274712741375, -0.05224373936653137, 0.08766073733568192, 0.05940202623605728, 0.08527542650699615, 0.08264341950416565, -0.041901905089616776, -0.034159038215875626, -0.13016803562641144, 0.11811098456382751, 0.03531614691019058, 0.09271591901779175, 0.028915727511048317, 0.0037556830793619156, -0.04230917990207672, -0.08308105170726776, 0.04383134841918945, -0.012947668321430683, 0.015225005336105824, 0.1319284737110138, -0.14045310020446777, 0.018524587154388428, 0.05533828213810921, -0.03095414862036705, 0.0689639300107956, 0.0957292765378952, 0.1376296430826187, 0.224559023976326, 0.0724673718214035, -0.017545852810144424, 0.04286247491836548, 0.07400162518024445, -0.012595400214195251, -0.07251664996147156, -0.06057605519890785, 0.08763089030981064, 0.032382428646087646, 0.015105262398719788, 0.12724414467811584, 0.029654037207365036, 0.015320414677262306, -0.0891115814447403, 0.0395503006875515, 0.022571245208382607, -0.11132869869470596, 0.11327395588159561, -0.025558682158589363, 0.045218225568532944, -0.04298262298107147, 0.25928637385368347, -0.08646972477436066, -0.19490957260131836, -0.0743333026766777, 0.025499235838651657, 0.009884832426905632, 0.13724450767040253, 0.041672900319099426]], [[-0.09813456982374191, 0.048815421760082245, -0.0018226898973807693, -0.10524670034646988, -0.13231056928634644, -0.060750968754291534, 0.01940460130572319, -0.12529367208480835, 0.01166034396737814, -0.0547654926776886, -0.04076774790883064, -0.07052163034677505, -0.17153166234493256, 0.189503014087677, -0.14970768988132477, -0.06594738364219666, -0.10501348227262497, 0.07033517956733704, -0.1648787558078766, -0.06827958673238754, -9.697075438452885e-05, 0.07068970799446106, -0.10358663648366928, -0.009460678324103355, 0.10009164363145828, -0.08129245042800903, -0.045998409390449524, -0.0438564196228981, 0.034430451691150665, -0.11341535300016403, 0.05983293056488037, 0.0878281220793724, 0.1178952008485794, -0.17391151189804077, 0.05880941078066826, -0.06993065774440765, -0.07715234905481339, -0.05047837644815445, -0.10653500258922577, 0.17957207560539246, -0.10852222144603729, 0.15546979010105133, -0.10775336623191833, 0.07800663262605667, -0.0788414478302002, -0.11637329310178757, -0.014340352267026901, 0.0031515611335635185, -0.004758731462061405, 0.05282105132937431, 0.10246723890304565, -0.0839003399014473, 0.026752114295959473, 0.05081867054104805, 0.04478367045521736, -0.045642346143722534, -0.12046961486339569, 0.00674025621265173, 0.1065828874707222, 0.016792362555861473, -0.0039662248454988, -0.02927820198237896, -0.013727361336350441, 0.0878695622086525], [0.08120819926261902, -0.03348320350050926, -0.009797799400985241, -0.09954004734754562, -0.030952077358961105, -0.0741453617811203, -0.029019439592957497, -0.018806815147399902, -0.08131422102451324, -0.008676765486598015, 0.026324020698666573, 0.02875521406531334, -0.14638996124267578, 0.2056863158941269, -0.1789637953042984, -0.07106064260005951, 0.054928164929151535, 0.0051426333375275135, -0.01726425066590309, 0.05389444902539253, -0.02796720154583454, -0.04425516724586487, -0.10249771922826767, -0.044256553053855896, 0.11779814213514328, 0.017798850312829018, 0.07780513167381287, 0.008533613756299019, 0.1004866436123848, -0.20731404423713684, -0.08691227436065674, 0.048425447195768356, 0.1071438118815422, -0.29811549186706543, 0.0642314925789833, 0.05794346332550049, -0.09610415250062943, 0.042134858667850494, -0.05447312444448471, 0.05187685787677765, -0.07955455780029297, 0.1556631475687027, 0.004140163771808147, -0.04014873504638672, 0.0597633495926857, -0.019672641530632973, -0.139125257730484, 0.041675109416246414, -0.05744840204715729, 0.10554111003875732, 0.060124725103378296, -0.10835663974285126, 0.004691931884735823, 0.1005038395524025, 0.15847888588905334, -0.02266536094248295, 0.06417892873287201, 0.02101857215166092, 0.011989317834377289, -0.011048567481338978, 0.018027829006314278, 0.06090735271573067, 0.03334778919816017, 0.1307545006275177], [0.1418442577123642, -0.027113554999232292, 0.026402829214930534, -0.108249232172966, 0.15733803808689117, -0.01170283928513527, -0.06120363995432854, 0.041306447237730026, 0.06323488056659698, 0.10846991091966629, -0.06239801272749901, 0.11254644393920898, -0.1295568197965622, 0.23899395763874054, -0.12261335551738739, -0.11332106590270996, 0.10738599300384521, -0.08241033554077148, 0.06541217118501663, -0.11105472594499588, -0.00965841207653284, -0.05160094052553177, -0.09313984960317612, -0.054951176047325134, 0.03758733719587326, 0.038424670696258545, -0.07832212746143341, -0.0750708058476448, 0.19653326272964478, -0.12062815576791763, -0.032388024032115936, 0.01977691426873207, 0.08558224886655807, -0.1785276234149933, 0.13429094851016998, 0.10284092277288437, -0.031240809708833694, -0.021665239706635475, -0.12478741258382797, -0.03834812343120575, -0.11146800965070724, -0.16468490660190582, 0.08899962902069092, -0.033439088612794876, 0.11224054545164108, 0.019387762993574142, -0.08349766582250595, -0.04455294832587242, -0.022613853216171265, 0.023633243516087532, 0.03763194754719734, -0.08706573396921158, 0.08353059738874435, -0.05220821499824524, 0.0770266205072403, -0.09901922941207886, 0.13902927935123444, 0.00744594307616353, -0.13131122291088104, -0.04608549177646637, -0.010969304479658604, -0.04311098903417587, 0.11681009083986282, 0.07325895130634308]], [[-0.16303794085979462, -0.007192753721028566, 0.04946904629468918, -0.046562835574150085, -0.11769726127386093, -0.10066646337509155, 0.004650469869375229, -0.07994519174098969, 0.05154550075531006, -0.06183634698390961, -0.041376665234565735, -0.05058758333325386, 0.017567353323101997, -0.09252248704433441, -0.06164952740073204, -0.04411923512816429, -0.16866850852966309, 0.11268994212150574, -0.08720463514328003, 0.034367628395557404, 0.10435854643583298, 0.07653993368148804, 0.0565701387822628, -0.07431022077798843, 0.09160982072353363, -0.1719789355993271, -0.00984315574169159, 0.026683446019887924, -0.27686166763305664, -0.06705818325281143, 0.09474270045757294, 0.05469995364546776, -0.07525371015071869, 0.2025548666715622, -0.10957224667072296, -0.014612552709877491, -0.1841980665922165, -0.05043746531009674, 0.01460124272853136, 0.22381412982940674, -0.1198461651802063, 0.06493494659662247, -0.025910325348377228, -0.15615448355674744, -0.034350376576185226, -0.10336807370185852, -0.08683203160762787, -0.050376150757074356, 0.008909890428185463, 0.09085125476121902, 0.13181550800800323, -0.033404383808374405, -0.007252823561429977, -0.1661974936723709, -0.01833377592265606, -0.05322830006480217, 0.006648066453635693, -0.07095616310834885, 0.15922069549560547, -0.028219200670719147, -0.1458768993616104, -0.07244648784399033, 0.050236672163009644, 0.03741098567843437], [0.051735639572143555, 0.025686711072921753, -0.00030932988738641143, -0.0982951819896698, 0.024415720254182816, -0.06878109276294708, 0.04910528287291527, 0.054749805480241776, 0.036278560757637024, -0.00010521143849473447, -0.07626164704561234, 0.05000665783882141, 0.10172358900308609, -0.09290368854999542, -0.10730716586112976, -0.03839278966188431, 0.022949352860450745, -0.04899051785469055, -0.0082316305488348, 0.014815977774560452, 0.03571376949548721, -0.09903479367494583, 0.04100123047828674, -0.041970036923885345, 0.13188643753528595, -0.012902859598398209, 0.15143638849258423, 0.05645911768078804, -0.25582385063171387, -0.17120666801929474, 0.032817889004945755, 0.10016441345214844, -0.07637982815504074, 0.14191409945487976, -0.06071963906288147, 0.07428108900785446, -0.18279410898685455, 0.06801671534776688, 0.0665186196565628, 0.06078832224011421, -0.03817522153258324, 0.13817061483860016, 0.023594586178660393, -0.19379889965057373, 0.04335896298289299, -0.045080386102199554, -0.1628560870885849, -0.008600614964962006, -0.05067218840122223, 0.06508774310350418, 0.08056758344173431, -0.17099042236804962, -0.04771599918603897, -0.07704100757837296, 0.10392887890338898, -0.15218926966190338, 0.029407203197479248, -0.14275315403938293, 0.023011591285467148, 0.08191674947738647, 0.00873793475329876, -0.050731707364320755, -0.014930663630366325, 0.07056774199008942], [0.11745787411928177, 0.1445637196302414, 0.037609148770570755, 0.0019044780638068914, 0.21024584770202637, 0.006359692197293043, -0.041829392313957214, 0.08991159498691559, 0.11152466386556625, 0.13840486109256744, -0.1388365924358368, 0.07775738090276718, 0.06544878333806992, -0.028606075793504715, 0.042447615414857864, -0.05530543997883797, 0.2218489646911621, -0.08043202012777328, 0.1258353441953659, -0.1334199160337448, 0.07136102765798569, -0.09298430383205414, 0.07136985659599304, -0.009450547397136688, 0.14141714572906494, -0.0011766207171604037, -0.15031374990940094, -0.025449296459555626, -0.16995921730995178, -0.11207053065299988, 0.09628812968730927, 0.05345465615391731, -0.04165022075176239, 0.15361131727695465, 0.02985423058271408, 0.09800060093402863, -0.10080279409885406, -0.06539763510227203, 0.0044817994348704815, 0.054397936910390854, -0.12633627653121948, -0.1937691867351532, 0.1343466192483902, -0.09630068391561508, 0.0646664947271347, 0.008259785361588001, -0.12331818044185638, -0.07100239396095276, 0.061882346868515015, 0.015934908762574196, 0.08368286490440369, -0.1636408567428589, 0.016332074999809265, -0.08408889174461365, 0.07781532406806946, -0.0673651471734047, -0.05024363100528717, -0.030101770535111427, -0.03686533495783806, -0.048350490629673004, -0.05782275274395943, -0.145797997713089, 0.10211542993783951, 0.07236990332603455]], [[-0.09350130707025528, -0.13348986208438873, 0.017181985080242157, -0.008046816103160381, -0.15546007454395294, 0.041988302022218704, 0.04211072996258736, -0.13403281569480896, -0.013548586517572403, -0.052499037235975266, 0.03247809782624245, -0.10769123584032059, -0.00559835322201252, -0.14859099686145782, 0.15424615144729614, -0.0329015776515007, -0.18534186482429504, 0.04870729520916939, -0.13960178196430206, -0.012503985315561295, 0.05300283432006836, 0.04276297986507416, 0.010133511386811733, -0.0790843591094017, -0.13057444989681244, -0.10959929972887039, -0.10772757232189178, 0.0064626396633684635, 0.09337375313043594, 0.15395118296146393, 0.12439090758562088, 0.11055532097816467, -0.04470285028219223, -0.026144959032535553, -0.10398514568805695, 0.005994926206767559, -0.08603579550981522, -0.0004940982908010483, 0.150228351354599, 0.2030712217092514, -0.03699031472206116, 0.025585411116480827, -0.013942097313702106, -0.06711988896131516, -0.01269533671438694, -0.03873202204704285, -0.01393179316073656, -0.13019725680351257, -0.10425980389118195, -0.05828942358493805, -0.2201821655035019, -0.019933292642235756, 0.017346691340208054, -0.13225030899047852, 0.01531378272920847, -0.0495012067258358, 0.1076188012957573, 0.04464326053857803, 0.1480165421962738, -0.007507846690714359, 0.03734886646270752, -0.040287457406520844, 0.10351863503456116, -0.05590077117085457], [-0.06726033240556717, -0.023139117285609245, 0.03229467198252678, 0.05531928315758705, 0.033090632408857346, 0.021586745977401733, 0.03511136397719383, 0.11329236626625061, 0.10530572384595871, -0.010334993712604046, 0.015193872153759003, -0.021024584770202637, 0.07305637001991272, -0.14815126359462738, 0.1794607937335968, -0.02700519561767578, 0.02063402533531189, 0.023067208006978035, 0.012921851128339767, -0.05637737363576889, -0.01567769981920719, -0.18744732439517975, 0.14747434854507446, -0.0632077306509018, -0.1757015734910965, -0.019471384584903717, 0.09678047150373459, -0.002371713751927018, 0.023789839819073677, 0.044920314103364944, 0.08389661461114883, 0.10767967253923416, 0.0022270933259278536, -0.011711233295500278, -0.0900159627199173, 0.0622817762196064, -0.12680082023143768, 0.06859860569238663, 0.12242107838392258, 0.09988955408334732, -0.02254638820886612, 0.061747271567583084, 0.03960162773728371, -0.072086863219738, 0.004527643322944641, 0.004761422518640757, -0.005637330003082752, -0.050946660339832306, -0.17189083993434906, -0.11726547032594681, -0.23762595653533936, -0.06846540421247482, -0.08273401856422424, -0.01867258921265602, 0.027825186029076576, -0.04427660256624222, -0.0005035058129578829, -0.08688191324472427, -0.05801604688167572, 0.04194365814328194, 0.056133706122636795, 0.006981999613344669, 0.1166524812579155, -0.0807766318321228], [0.03771737217903137, 0.12529969215393066, 0.08222741633653641, 0.024013124406337738, 0.20143026113510132, 0.164982408285141, -0.018322985619306564, 0.17755365371704102, 0.12470687180757523, 0.037853606045246124, -0.07489077001810074, 0.08573616296052933, -0.05632024630904198, -0.1473633348941803, 0.11811643093824387, 0.03193137049674988, 0.12381840497255325, -0.013971219770610332, 0.08756250143051147, -0.016309041529893875, 0.043971460312604904, -0.1764148771762848, 0.031790487468242645, -0.0007595637580379844, -0.14279311895370483, 0.01243420597165823, -0.10525019466876984, 0.006542155519127846, 0.03036109358072281, 0.16109143197536469, 0.15240733325481415, -0.013177967630326748, -0.042023926973342896, -0.08781098574399948, -0.17475754022598267, 0.030931895598769188, -0.014525340870022774, -0.04618741199374199, 0.1458134651184082, 0.02204059436917305, 0.002815109910443425, -0.2379281371831894, 0.08089571446180344, 0.00869580265134573, 0.01306911837309599, -0.02269321121275425, 0.038155339658260345, -0.0547843836247921, -0.12073936313390732, -0.1623149812221527, -0.19609351456165314, -0.09065962582826614, -0.07959562540054321, -0.17346157133579254, -0.05455384775996208, -0.10795926302671432, -0.14518927037715912, 0.00586337735876441, 